## MART
## No. of trees = 1000
## No. of leaves = 10
## No. of threshold candidates = 256
## Learning rate = 0.1
## Stop early = 100

<ensemble>
	<tree id="1" weight="0.1">
		<split>
			<feature> 2 </feature>
			<threshold> 3.2045949 </threshold>
			<split pos="left">
				<feature> 1 </feature>
				<threshold> 0.7593549 </threshold>
				<split pos="left">
					<feature> 1 </feature>
					<threshold> 0.0 </threshold>
					<split pos="left">
						<feature> 3 </feature>
						<threshold> 0.0 </threshold>
						<split pos="left">
							<output> 0.0052211485 </output>
						</split>
						<split pos="right">
							<output> 0.01962566 </output>
						</split>
					</split>
					<split pos="right">
						<feature> 2 </feature>
						<threshold> 0.6630198 </threshold>
						<split pos="left">
							<feature> 2 </feature>
							<threshold> 0.11050329 </threshold>
							<split pos="left">
								<output> 0.046332434 </output>
							</split>
							<split pos="right">
								<feature> 2 </feature>
								<threshold> 0.44201317 </threshold>
								<split pos="left">
									<output> 0.031236237 </output>
								</split>
								<split pos="right">
									<output> 0.03732563 </output>
								</split>
							</split>
						</split>
						<split pos="right">
							<output> 0.048208732 </output>
						</split>
					</split>
				</split>
				<split pos="right">
					<feature> 2 </feature>
					<threshold> 2.099563 </threshold>
					<split pos="left">
						<feature> 1 </feature>
						<threshold> 1.0124732 </threshold>
						<split pos="left">
							<output> 0.066224135 </output>
						</split>
						<split pos="right">
							<output> 0.098046035 </output>
						</split>
					</split>
					<split pos="right">
						<output> 0.14176914 </output>
					</split>
				</split>
			</split>
			<split pos="right">
				<output> 0.4088915 </output>
			</split>
		</split>
	</tree>
	<tree id="2" weight="0.1">
		<split>
			<feature> 2 </feature>
			<threshold> 3.7571108 </threshold>
			<split pos="left">
				<feature> 1 </feature>
				<threshold> 0.9618495 </threshold>
				<split pos="left">
					<feature> 1 </feature>
					<threshold> 0.35436562 </threshold>
					<split pos="left">
						<feature> 1 </feature>
						<threshold> 0.0 </threshold>
						<split pos="left">
							<feature> 3 </feature>
							<threshold> 0.0 </threshold>
							<split pos="left">
								<output> 0.004700179 </output>
							</split>
							<split pos="right">
								<output> 0.018357798 </output>
							</split>
						</split>
						<split pos="right">
							<output> 0.028963638 </output>
						</split>
					</split>
					<split pos="right">
						<feature> 1 </feature>
						<threshold> 0.6581076 </threshold>
						<split pos="left">
							<feature> 2 </feature>
							<threshold> 0.11050329 </threshold>
							<split pos="left">
								<output> 0.33586934 </output>
							</split>
							<split pos="right">
								<output> 0.036297064 </output>
							</split>
						</split>
						<split pos="right">
							<output> 0.05489654 </output>
						</split>
					</split>
				</split>
				<split pos="right">
					<feature> 2 </feature>
					<threshold> 2.8730853 </threshold>
					<split pos="left">
						<feature> 2 </feature>
						<threshold> 2.099563 </threshold>
						<split pos="left">
							<output> 0.0843294 </output>
						</split>
						<split pos="right">
							<output> 0.11594175 </output>
						</split>
					</split>
					<split pos="right">
						<output> 0.19730434 </output>
					</split>
				</split>
			</split>
			<split pos="right">
				<output> 0.46414372 </output>
			</split>
		</split>
	</tree>
	<tree id="3" weight="0.1">
		<split>
			<feature> 2 </feature>
			<threshold> 3.867614 </threshold>
			<split pos="left">
				<feature> 1 </feature>
				<threshold> 0.9618495 </threshold>
				<split pos="left">
					<feature> 1 </feature>
					<threshold> 0.35436562 </threshold>
					<split pos="left">
						<feature> 2 </feature>
						<threshold> 0.0 </threshold>
						<split pos="left">
							<feature> 3 </feature>
							<threshold> 0.0 </threshold>
							<split pos="left">
								<output> 0.0042291544 </output>
							</split>
							<split pos="right">
								<output> 0.018000122 </output>
							</split>
						</split>
						<split pos="right">
							<output> 0.026042419 </output>
						</split>
					</split>
					<split pos="right">
						<feature> 1 </feature>
						<threshold> 0.6581076 </threshold>
						<split pos="left">
							<feature> 2 </feature>
							<threshold> 0.11050329 </threshold>
							<split pos="left">
								<output> 0.3022806 </output>
							</split>
							<split pos="right">
								<output> 0.032503515 </output>
							</split>
						</split>
						<split pos="right">
							<output> 0.049541213 </output>
						</split>
					</split>
				</split>
				<split pos="right">
					<feature> 2 </feature>
					<threshold> 2.8730853 </threshold>
					<split pos="left">
						<feature> 1 </feature>
						<threshold> 1.3668388 </threshold>
						<split pos="left">
							<output> 0.07799497 </output>
						</split>
						<split pos="right">
							<output> 0.10881097 </output>
						</split>
					</split>
					<split pos="right">
						<output> 0.1800586 </output>
					</split>
				</split>
			</split>
			<split pos="right">
				<output> 0.43510842 </output>
			</split>
		</split>
	</tree>
	<tree id="4" weight="0.1">
		<split>
			<feature> 2 </feature>
			<threshold> 3.867614 </threshold>
			<split pos="left">
				<feature> 1 </feature>
				<threshold> 1.0124732 </threshold>
				<split pos="left">
					<feature> 2 </feature>
					<threshold> 0.44201317 </threshold>
					<split pos="left">
						<feature> 2 </feature>
						<threshold> 0.0 </threshold>
						<split pos="left">
							<feature> 3 </feature>
							<threshold> 0.0 </threshold>
							<split pos="left">
								<output> 0.003806826 </output>
							</split>
							<split pos="right">
								<output> 0.013096374 </output>
							</split>
						</split>
						<split pos="right">
							<output> 0.023515867 </output>
						</split>
					</split>
					<split pos="right">
						<feature> 1 </feature>
						<threshold> 0.6581076 </threshold>
						<split pos="left">
							<output> 0.030173693 </output>
						</split>
						<split pos="right">
							<output> 0.045553297 </output>
						</split>
					</split>
				</split>
				<split pos="right">
					<feature> 2 </feature>
					<threshold> 2.8730853 </threshold>
					<split pos="left">
						<feature> 1 </feature>
						<threshold> 1.8224517 </threshold>
						<split pos="left">
							<feature> 2 </feature>
							<threshold> 2.099563 </threshold>
							<split pos="left">
								<output> 0.07177717 </output>
							</split>
							<split pos="right">
								<output> 0.09046698 </output>
							</split>
						</split>
						<split pos="right">
							<output> 0.1576556 </output>
						</split>
					</split>
					<split pos="right">
						<output> 0.16201918 </output>
					</split>
				</split>
			</split>
			<split pos="right">
				<output> 0.39145195 </output>
			</split>
		</split>
	</tree>
	<tree id="5" weight="0.1">
		<split>
			<feature> 1 </feature>
			<threshold> 2.9361722 </threshold>
			<split pos="left">
				<feature> 1 </feature>
				<threshold> 1.0124732 </threshold>
				<split pos="left">
					<feature> 2 </feature>
					<threshold> 0.44201317 </threshold>
					<split pos="left">
						<feature> 1 </feature>
						<threshold> 0.0 </threshold>
						<split pos="left">
							<feature> 3 </feature>
							<threshold> 0.0 </threshold>
							<split pos="left">
								<output> 0.0034251134 </output>
							</split>
							<split pos="right">
								<output> 0.011912227 </output>
							</split>
						</split>
						<split pos="right">
							<output> 0.021300629 </output>
						</split>
					</split>
					<split pos="right">
						<feature> 1 </feature>
						<threshold> 0.6581076 </threshold>
						<split pos="left">
							<output> 0.027197894 </output>
						</split>
						<split pos="right">
							<output> 0.04097678 </output>
						</split>
					</split>
				</split>
				<split pos="right">
					<feature> 2 </feature>
					<threshold> 2.8730853 </threshold>
					<split pos="left">
						<feature> 1 </feature>
						<threshold> 1.8224517 </threshold>
						<split pos="left">
							<feature> 1 </feature>
							<threshold> 1.2655915 </threshold>
							<split pos="left">
								<output> 0.063936464 </output>
							</split>
							<split pos="right">
								<output> 0.081107765 </output>
							</split>
						</split>
						<split pos="right">
							<output> 0.14196357 </output>
						</split>
					</split>
					<split pos="right">
						<output> 0.16944386 </output>
					</split>
				</split>
			</split>
			<split pos="right">
				<output> 0.6132508 </output>
			</split>
		</split>
	</tree>
	<tree id="6" weight="0.1">
		<split>
			<feature> 1 </feature>
			<threshold> 2.9361722 </threshold>
			<split pos="left">
				<feature> 1 </feature>
				<threshold> 1.0124732 </threshold>
				<split pos="left">
					<feature> 2 </feature>
					<threshold> 0.6630198 </threshold>
					<split pos="left">
						<feature> 2 </feature>
						<threshold> 0.0 </threshold>
						<split pos="left">
							<feature> 3 </feature>
							<threshold> 0.0 </threshold>
							<split pos="left">
								<output> 0.0030823601 </output>
							</split>
							<split pos="right">
								<output> 0.011796121 </output>
							</split>
						</split>
						<split pos="right">
							<feature> 2 </feature>
							<threshold> 0.11050329 </threshold>
							<split pos="left">
								<output> 0.031325784 </output>
							</split>
							<split pos="right">
								<output> 0.019080458 </output>
							</split>
						</split>
					</split>
					<split pos="right">
						<feature> 2 </feature>
						<threshold> 1.3260397 </threshold>
						<split pos="left">
							<output> 0.029444817 </output>
						</split>
						<split pos="right">
							<output> 0.043550327 </output>
						</split>
					</split>
				</split>
				<split pos="right">
					<feature> 2 </feature>
					<threshold> 3.0940917 </threshold>
					<split pos="left">
						<feature> 2 </feature>
						<threshold> 2.4310725 </threshold>
						<split pos="left">
							<output> 0.061351635 </output>
						</split>
						<split pos="right">
							<output> 0.089079626 </output>
						</split>
					</split>
					<split pos="right">
						<output> 0.16448204 </output>
					</split>
				</split>
			</split>
			<split pos="right">
				<output> 0.55187935 </output>
			</split>
		</split>
	</tree>
	<tree id="7" weight="0.1">
		<split>
			<feature> 2 </feature>
			<threshold> 6.2986846 </threshold>
			<split pos="left">
				<feature> 2 </feature>
				<threshold> 1.9890596 </threshold>
				<split pos="left">
					<feature> 2 </feature>
					<threshold> 0.6630198 </threshold>
					<split pos="left">
						<feature> 1 </feature>
						<threshold> 0.0 </threshold>
						<split pos="left">
							<feature> 3 </feature>
							<threshold> 0.0 </threshold>
							<split pos="left">
								<output> 0.0027750023 </output>
							</split>
							<split pos="right">
								<output> 0.011307392 </output>
							</split>
						</split>
						<split pos="right">
							<output> 0.017821139 </output>
						</split>
					</split>
					<split pos="right">
						<feature> 2 </feature>
						<threshold> 1.3260397 </threshold>
						<split pos="left">
							<feature> 1 </feature>
							<threshold> 0.80997854 </threshold>
							<split pos="left">
								<output> 0.025244052 </output>
							</split>
							<split pos="right">
								<output> 0.036162633 </output>
							</split>
						</split>
						<split pos="right">
							<output> 0.04385942 </output>
						</split>
					</split>
				</split>
				<split pos="right">
					<feature> 2 </feature>
					<threshold> 4.309627 </threshold>
					<split pos="left">
						<feature> 2 </feature>
						<threshold> 2.8730853 </threshold>
						<split pos="left">
							<output> 0.0678519 </output>
						</split>
						<split pos="right">
							<output> 0.12017174 </output>
						</split>
					</split>
					<split pos="right">
						<output> 0.23531422 </output>
					</split>
				</split>
			</split>
			<split pos="right">
				<output> 0.7282674 </output>
			</split>
		</split>
	</tree>
	<tree id="8" weight="0.1">
		<split>
			<feature> 2 </feature>
			<threshold> 6.2986846 </threshold>
			<split pos="left">
				<feature> 1 </feature>
				<threshold> 1.1137205 </threshold>
				<split pos="left">
					<feature> 2 </feature>
					<threshold> 0.6630198 </threshold>
					<split pos="left">
						<feature> 1 </feature>
						<threshold> 0.0 </threshold>
						<split pos="left">
							<feature> 3 </feature>
							<threshold> 0.0 </threshold>
							<split pos="left">
								<output> 0.002497223 </output>
							</split>
							<split pos="right">
								<output> 0.008348413 </output>
							</split>
						</split>
						<split pos="right">
							<output> 0.016091939 </output>
						</split>
					</split>
					<split pos="right">
						<feature> 2 </feature>
						<threshold> 1.3260397 </threshold>
						<split pos="left">
							<feature> 1 </feature>
							<threshold> 0.80997854 </threshold>
							<split pos="left">
								<output> 0.022782752 </output>
							</split>
							<split pos="right">
								<output> 0.03193403 </output>
							</split>
						</split>
						<split pos="right">
							<output> 0.037234515 </output>
						</split>
					</split>
				</split>
				<split pos="right">
					<feature> 2 </feature>
					<threshold> 3.6466076 </threshold>
					<split pos="left">
						<feature> 2 </feature>
						<threshold> 2.8730853 </threshold>
						<split pos="left">
							<output> 0.057431173 </output>
						</split>
						<split pos="right">
							<output> 0.097797066 </output>
						</split>
					</split>
					<split pos="right">
						<output> 0.17566997 </output>
					</split>
				</split>
			</split>
			<split pos="right">
				<output> 0.65540314 </output>
			</split>
		</split>
	</tree>
	<tree id="9" weight="0.1">
		<split>
			<feature> 2 </feature>
			<threshold> 6.2986846 </threshold>
			<split pos="left">
				<feature> 2 </feature>
				<threshold> 1.9890596 </threshold>
				<split pos="left">
					<feature> 1 </feature>
					<threshold> 0.55686027 </threshold>
					<split pos="left">
						<feature> 1 </feature>
						<threshold> 0.0 </threshold>
						<split pos="left">
							<feature> 3 </feature>
							<threshold> 0.0 </threshold>
							<split pos="left">
								<output> 0.0022469629 </output>
							</split>
							<split pos="right">
								<output> 0.00793705 </output>
							</split>
						</split>
						<split pos="right">
							<feature> 2 </feature>
							<threshold> 0.11050329 </threshold>
							<split pos="left">
								<output> 0.02473755 </output>
							</split>
							<split pos="right">
								<output> 0.014192145 </output>
							</split>
						</split>
					</split>
					<split pos="right">
						<feature> 1 </feature>
						<threshold> 1.0124732 </threshold>
						<split pos="left">
							<feature> 2 </feature>
							<threshold> 1.3260397 </threshold>
							<split pos="left">
								<output> 0.022677906 </output>
							</split>
							<split pos="right">
								<output> 0.030368969 </output>
							</split>
						</split>
						<split pos="right">
							<output> 0.041475676 </output>
						</split>
					</split>
				</split>
				<split pos="right">
					<feature> 2 </feature>
					<threshold> 4.309627 </threshold>
					<split pos="left">
						<output> 0.068133734 </output>
					</split>
					<split pos="right">
						<output> 0.19422264 </output>
					</split>
				</split>
			</split>
			<split pos="right">
				<output> 0.58989066 </output>
			</split>
		</split>
	</tree>
	<tree id="10" weight="0.1">
		<split>
			<feature> 1 </feature>
			<threshold> 3.3917851 </threshold>
			<split pos="left">
				<feature> 1 </feature>
				<threshold> 1.2655915 </threshold>
				<split pos="left">
					<feature> 1 </feature>
					<threshold> 0.55686027 </threshold>
					<split pos="left">
						<feature> 1 </feature>
						<threshold> 0.0 </threshold>
						<split pos="left">
							<feature> 3 </feature>
							<threshold> 0.0 </threshold>
							<split pos="left">
								<output> 0.002023157 </output>
							</split>
							<split pos="right">
								<output> 0.007883132 </output>
							</split>
						</split>
						<split pos="right">
							<feature> 2 </feature>
							<threshold> 0.11050329 </threshold>
							<split pos="left">
								<output> 0.022259168 </output>
							</split>
							<split pos="right">
								<feature> 1 </feature>
								<threshold> 0.35436562 </threshold>
								<split pos="left">
									<output> 0.010725488 </output>
								</split>
								<split pos="right">
									<output> 0.014542178 </output>
								</split>
							</split>
						</split>
					</split>
					<split pos="right">
						<feature> 1 </feature>
						<threshold> 0.91122586 </threshold>
						<split pos="left">
							<output> 0.021479568 </output>
						</split>
						<split pos="right">
							<output> 0.034029186 </output>
						</split>
					</split>
				</split>
				<split pos="right">
					<feature> 2 </feature>
					<threshold> 3.6466076 </threshold>
					<split pos="left">
						<output> 0.05879703 </output>
					</split>
					<split pos="right">
						<output> 0.14241548 </output>
					</split>
				</split>
			</split>
			<split pos="right">
				<output> 0.50946283 </output>
			</split>
		</split>
	</tree>
	<tree id="11" weight="0.1">
		<split>
			<feature> 2 </feature>
			<threshold> 6.630194 </threshold>
			<split pos="left">
				<feature> 2 </feature>
				<threshold> 2.4310725 </threshold>
				<split pos="left">
					<feature> 1 </feature>
					<threshold> 0.55686027 </threshold>
					<split pos="left">
						<feature> 1 </feature>
						<threshold> 0.0 </threshold>
						<split pos="left">
							<feature> 3 </feature>
							<threshold> 0.0 </threshold>
							<split pos="left">
								<output> 0.001820869 </output>
							</split>
							<split pos="right">
								<output> 0.0072329426 </output>
							</split>
						</split>
						<split pos="right">
							<feature> 2 </feature>
							<threshold> 0.11050329 </threshold>
							<split pos="left">
								<output> 0.020036703 </output>
							</split>
							<split pos="right">
								<output> 0.011573288 </output>
							</split>
						</split>
					</split>
					<split pos="right">
						<feature> 1 </feature>
						<threshold> 1.0124732 </threshold>
						<split pos="left">
							<feature> 2 </feature>
							<threshold> 2.210066 </threshold>
							<split pos="left">
								<feature> 2 </feature>
								<threshold> 1.3260397 </threshold>
								<split pos="left">
									<output> 0.01827493 </output>
								</split>
								<split pos="right">
									<output> 0.024762668 </output>
								</split>
							</split>
							<split pos="right">
								<output> 0.12760514 </output>
							</split>
						</split>
						<split pos="right">
							<output> 0.03546712 </output>
						</split>
					</split>
				</split>
				<split pos="right">
					<output> 0.080459654 </output>
				</split>
			</split>
			<split pos="right">
				<output> 0.53652203 </output>
			</split>
		</split>
	</tree>
	<tree id="12" weight="0.1">
		<split>
			<feature> 1 </feature>
			<threshold> 2.8855486 </threshold>
			<split pos="left">
				<feature> 1 </feature>
				<threshold> 1.0124732 </threshold>
				<split pos="left">
					<feature> 1 </feature>
					<threshold> 0.35436562 </threshold>
					<split pos="left">
						<feature> 1 </feature>
						<threshold> 0.0 </threshold>
						<split pos="left">
							<feature> 3 </feature>
							<threshold> 0.0 </threshold>
							<split pos="left">
								<output> 0.0016385699 </output>
							</split>
							<split pos="right">
								<output> 0.0071017547 </output>
							</split>
						</split>
						<split pos="right">
							<output> 0.009373026 </output>
						</split>
					</split>
					<split pos="right">
						<feature> 2 </feature>
						<threshold> 0.22100659 </threshold>
						<split pos="left">
							<output> 0.24974771 </output>
						</split>
						<split pos="right">
							<feature> 2 </feature>
							<threshold> 1.105033 </threshold>
							<split pos="left">
								<feature> 1 </feature>
								<threshold> 0.80997854 </threshold>
								<split pos="left">
									<output> 0.012699389 </output>
								</split>
								<split pos="right">
									<output> 0.030328438 </output>
								</split>
							</split>
							<split pos="right">
								<output> 0.020646583 </output>
							</split>
						</split>
					</split>
				</split>
				<split pos="right">
					<feature> 2 </feature>
					<threshold> 3.0940917 </threshold>
					<split pos="left">
						<output> 0.035480943 </output>
					</split>
					<split pos="right">
						<output> 0.08951234 </output>
					</split>
				</split>
			</split>
			<split pos="right">
				<output> 0.30401555 </output>
			</split>
		</split>
	</tree>
	<tree id="13" weight="0.1">
		<split>
			<feature> 2 </feature>
			<threshold> 6.630194 </threshold>
			<split pos="left">
				<feature> 2 </feature>
				<threshold> 2.8730853 </threshold>
				<split pos="left">
					<feature> 1 </feature>
					<threshold> 0.55686027 </threshold>
					<split pos="left">
						<feature> 1 </feature>
						<threshold> 0.0 </threshold>
						<split pos="left">
							<feature> 3 </feature>
							<threshold> 0.0 </threshold>
							<split pos="left">
								<output> 0.0014746438 </output>
							</split>
							<split pos="right">
								<output> 0.0052278675 </output>
							</split>
						</split>
						<split pos="right">
							<feature> 2 </feature>
							<threshold> 0.11050329 </threshold>
							<split pos="left">
								<output> 0.01692957 </output>
							</split>
							<split pos="right">
								<output> 0.0093164975 </output>
							</split>
						</split>
					</split>
					<split pos="right">
						<feature> 1 </feature>
						<threshold> 1.0124732 </threshold>
						<split pos="left">
							<feature> 2 </feature>
							<threshold> 2.210066 </threshold>
							<split pos="left">
								<feature> 2 </feature>
								<threshold> 0.11050329 </threshold>
								<split pos="left">
									<output> 1.8893282 </output>
								</split>
								<split pos="right">
									<output> 0.016306292 </output>
								</split>
							</split>
							<split pos="right">
								<output> 0.113005355 </output>
							</split>
						</split>
						<split pos="right">
							<output> 0.03050818 </output>
						</split>
					</split>
				</split>
				<split pos="right">
					<output> 0.0839505 </output>
				</split>
			</split>
			<split pos="right">
				<output> 0.45265877 </output>
			</split>
		</split>
	</tree>
	<tree id="14" weight="0.1">
		<split>
			<feature> 2 </feature>
			<threshold> 4.75164 </threshold>
			<split pos="left">
				<feature> 2 </feature>
				<threshold> 1.436543 </threshold>
				<split pos="left">
					<feature> 1 </feature>
					<threshold> 0.35436562 </threshold>
					<split pos="left">
						<feature> 1 </feature>
						<threshold> 0.0 </threshold>
						<split pos="left">
							<feature> 3 </feature>
							<threshold> 0.0 </threshold>
							<split pos="left">
								<output> 0.0013267939 </output>
							</split>
							<split pos="right">
								<output> 0.0041488893 </output>
							</split>
						</split>
						<split pos="right">
							<output> 0.007398887 </output>
						</split>
					</split>
					<split pos="right">
						<feature> 2 </feature>
						<threshold> 0.11050329 </threshold>
						<split pos="left">
							<output> 0.22700815 </output>
						</split>
						<split pos="right">
							<feature> 1 </feature>
							<threshold> 0.7593549 </threshold>
							<split pos="left">
								<feature> 2 </feature>
								<threshold> 0.6630198 </threshold>
								<split pos="left">
									<output> 0.008981777 </output>
								</split>
								<split pos="right">
									<output> 0.012140942 </output>
								</split>
							</split>
							<split pos="right">
								<output> 0.016443104 </output>
							</split>
						</split>
					</split>
				</split>
				<split pos="right">
					<feature> 1 </feature>
					<threshold> 1.6199571 </threshold>
					<split pos="left">
						<output> 0.024882356 </output>
					</split>
					<split pos="right">
						<output> 0.05827837 </output>
					</split>
				</split>
			</split>
			<split pos="right">
				<output> 0.2133916 </output>
			</split>
		</split>
	</tree>
	<tree id="15" weight="0.1">
		<split>
			<feature> 1 </feature>
			<threshold> 3.7967744 </threshold>
			<split pos="left">
				<feature> 2 </feature>
				<threshold> 2.8730853 </threshold>
				<split pos="left">
					<feature> 2 </feature>
					<threshold> 0.7735231 </threshold>
					<split pos="left">
						<feature> 1 </feature>
						<threshold> 0.0 </threshold>
						<split pos="left">
							<feature> 3 </feature>
							<threshold> 0.0 </threshold>
							<split pos="left">
								<output> 0.0011944841 </output>
							</split>
							<split pos="right">
								<output> 0.004034542 </output>
							</split>
						</split>
						<split pos="right">
							<feature> 3 </feature>
							<threshold> 0.0 </threshold>
							<split pos="left">
								<output> -0.0156493 </output>
							</split>
							<split pos="right">
								<feature> 2 </feature>
								<threshold> 0.11050329 </threshold>
								<split pos="left">
									<output> 0.014386176 </output>
								</split>
								<split pos="right">
									<output> 0.0074947733 </output>
								</split>
							</split>
						</split>
					</split>
					<split pos="right">
						<feature> 1 </feature>
						<threshold> 1.8730754 </threshold>
						<split pos="left">
							<feature> 2 </feature>
							<threshold> 1.436543 </threshold>
							<split pos="left">
								<output> 0.012374491 </output>
							</split>
							<split pos="right">
								<output> 0.022030942 </output>
							</split>
						</split>
						<split pos="right">
							<output> 0.08887888 </output>
						</split>
					</split>
				</split>
				<split pos="right">
					<output> 0.06886366 </output>
				</split>
			</split>
			<split pos="right">
				<output> 0.42895398 </output>
			</split>
		</split>
	</tree>
	<tree id="16" weight="0.1">
		<split>
			<feature> 2 </feature>
			<threshold> 6.630194 </threshold>
			<split pos="left">
				<feature> 1 </feature>
				<threshold> 1.6199571 </threshold>
				<split pos="left">
					<feature> 2 </feature>
					<threshold> 0.6630198 </threshold>
					<split pos="left">
						<feature> 1 </feature>
						<threshold> 0.0 </threshold>
						<split pos="left">
							<feature> 3 </feature>
							<threshold> 0.0 </threshold>
							<split pos="left">
								<output> 0.0010746327 </output>
							</split>
							<split pos="right">
								<output> 0.0040008393 </output>
							</split>
						</split>
						<split pos="right">
							<output> 0.006629122 </output>
						</split>
					</split>
					<split pos="right">
						<feature> 2 </feature>
						<threshold> 2.762582 </threshold>
						<split pos="left">
							<feature> 2 </feature>
							<threshold> 1.436543 </threshold>
							<split pos="left">
								<feature> 1 </feature>
								<threshold> 0.8606022 </threshold>
								<split pos="left">
									<output> 0.010052065 </output>
								</split>
								<split pos="right">
									<output> 0.016040834 </output>
								</split>
							</split>
							<split pos="right">
								<feature> 1 </feature>
								<threshold> 1.4680861 </threshold>
								<split pos="left">
									<output> 0.019704582 </output>
								</split>
								<split pos="right">
									<output> 0.008081981 </output>
								</split>
							</split>
						</split>
						<split pos="right">
							<output> 0.049046688 </output>
						</split>
					</split>
				</split>
				<split pos="right">
					<output> 0.056201156 </output>
				</split>
			</split>
			<split pos="right">
				<output> 0.3538229 </output>
			</split>
		</split>
	</tree>
	<tree id="17" weight="0.1">
		<split>
			<feature> 2 </feature>
			<threshold> 7.9562325 </threshold>
			<split pos="left">
				<feature> 2 </feature>
				<threshold> 3.4256012 </threshold>
				<split pos="left">
					<feature> 2 </feature>
					<threshold> 1.3260397 </threshold>
					<split pos="left">
						<feature> 1 </feature>
						<threshold> 0.35436562 </threshold>
						<split pos="left">
							<feature> 1 </feature>
							<threshold> 0.0 </threshold>
							<split pos="left">
								<feature> 3 </feature>
								<threshold> 0.0 </threshold>
								<split pos="left">
									<output> 9.677042E-4 </output>
								</split>
								<split pos="right">
									<output> 0.0039653317 </output>
								</split>
							</split>
							<split pos="right">
								<output> 0.0051687025 </output>
							</split>
						</split>
						<split pos="right">
							<feature> 2 </feature>
							<threshold> 0.22100659 </threshold>
							<split pos="left">
								<output> 0.19859435 </output>
							</split>
							<split pos="right">
								<feature> 3 </feature>
								<threshold> 0.0 </threshold>
								<split pos="left">
									<output> -0.017636793 </output>
								</split>
								<split pos="right">
									<output> 0.008384712 </output>
								</split>
							</split>
						</split>
					</split>
					<split pos="right">
						<feature> 1 </feature>
						<threshold> 1.2655915 </threshold>
						<split pos="left">
							<output> 0.01490895 </output>
						</split>
						<split pos="right">
							<output> 0.02607749 </output>
						</split>
					</split>
				</split>
				<split pos="right">
					<output> 0.0775645 </output>
				</split>
			</split>
			<split pos="right">
				<output> 0.48239067 </output>
			</split>
		</split>
	</tree>
	<tree id="18" weight="0.1">
		<split>
			<feature> 1 </feature>
			<threshold> 3.3917851 </threshold>
			<split pos="left">
				<feature> 2 </feature>
				<threshold> 2.099563 </threshold>
				<split pos="left">
					<feature> 1 </feature>
					<threshold> 0.45561293 </threshold>
					<split pos="left">
						<feature> 1 </feature>
						<threshold> 0.0 </threshold>
						<split pos="left">
							<feature> 3 </feature>
							<threshold> 0.0 </threshold>
							<split pos="left">
								<output> 8.705203E-4 </output>
							</split>
							<split pos="right">
								<output> 0.0037779137 </output>
							</split>
						</split>
						<split pos="right">
							<output> 0.0050489916 </output>
						</split>
					</split>
					<split pos="right">
						<feature> 1 </feature>
						<threshold> 1.2149678 </threshold>
						<split pos="left">
							<feature> 1 </feature>
							<threshold> 0.80997854 </threshold>
							<split pos="left">
								<output> 0.008131958 </output>
							</split>
							<split pos="right">
								<output> 0.011583802 </output>
							</split>
						</split>
						<split pos="right">
							<output> 0.023115654 </output>
						</split>
					</split>
				</split>
				<split pos="right">
					<feature> 2 </feature>
					<threshold> 6.1881814 </threshold>
					<split pos="left">
						<feature> 2 </feature>
						<threshold> 5.304156 </threshold>
						<split pos="left">
							<output> 0.030237725 </output>
						</split>
						<split pos="right">
							<output> 0.25907978 </output>
						</split>
					</split>
					<split pos="right">
						<output> -0.124941975 </output>
					</split>
				</split>
			</split>
			<split pos="right">
				<output> 0.25981897 </output>
			</split>
		</split>
	</tree>
	<tree id="19" weight="0.1">
		<split>
			<feature> 2 </feature>
			<threshold> 7.9562325 </threshold>
			<split pos="left">
				<feature> 2 </feature>
				<threshold> 4.309627 </threshold>
				<split pos="left">
					<feature> 1 </feature>
					<threshold> 0.8606022 </threshold>
					<split pos="left">
						<feature> 2 </feature>
						<threshold> 0.44201317 </threshold>
						<split pos="left">
							<feature> 1 </feature>
							<threshold> 0.0 </threshold>
							<split pos="left">
								<feature> 3 </feature>
								<threshold> 0.0 </threshold>
								<split pos="left">
									<output> 7.8316405E-4 </output>
								</split>
								<split pos="right">
									<output> 0.00252085 </output>
								</split>
							</split>
							<split pos="right">
								<output> 0.004228721 </output>
							</split>
						</split>
						<split pos="right">
							<output> 0.007004714 </output>
						</split>
					</split>
					<split pos="right">
						<feature> 2 </feature>
						<threshold> 3.2045949 </threshold>
						<split pos="left">
							<feature> 1 </feature>
							<threshold> 2.4299357 </threshold>
							<split pos="left">
								<feature> 1 </feature>
								<threshold> 1.3668388 </threshold>
								<split pos="left">
									<output> 0.01274294 </output>
								</split>
								<split pos="right">
									<output> 0.020548267 </output>
								</split>
							</split>
							<split pos="right">
								<output> 0.21283717 </output>
							</split>
						</split>
						<split pos="right">
							<output> 0.0362025 </output>
						</split>
					</split>
				</split>
				<split pos="right">
					<output> 0.092334956 </output>
				</split>
			</split>
			<split pos="right">
				<output> 0.40877232 </output>
			</split>
		</split>
	</tree>
	<tree id="20" weight="0.1">
		<split>
			<feature> 2 </feature>
			<threshold> 6.2986846 </threshold>
			<split pos="left">
				<feature> 2 </feature>
				<threshold> 3.2045949 </threshold>
				<split pos="left">
					<feature> 1 </feature>
					<threshold> 0.55686027 </threshold>
					<split pos="left">
						<feature> 1 </feature>
						<threshold> 0.30374196 </threshold>
						<split pos="left">
							<feature> 1 </feature>
							<threshold> 0.0 </threshold>
							<split pos="left">
								<feature> 3 </feature>
								<threshold> 0.0 </threshold>
								<split pos="left">
									<output> 7.049526E-4 </output>
								</split>
								<split pos="right">
									<output> 0.0024766435 </output>
								</split>
							</split>
							<split pos="right">
								<output> 0.0035012309 </output>
							</split>
						</split>
						<split pos="right">
							<output> 0.004806184 </output>
						</split>
					</split>
					<split pos="right">
						<feature> 1 </feature>
						<threshold> 1.1137205 </threshold>
						<split pos="left">
							<feature> 2 </feature>
							<threshold> 2.210066 </threshold>
							<split pos="left">
								<feature> 2 </feature>
								<threshold> 0.11050329 </threshold>
								<split pos="left">
									<output> 1.6544976 </output>
								</split>
								<split pos="right">
									<output> 0.00798481 </output>
								</split>
							</split>
							<split pos="right">
								<output> 0.04825747 </output>
							</split>
						</split>
						<split pos="right">
							<output> 0.01627091 </output>
						</split>
					</split>
				</split>
				<split pos="right">
					<output> 0.046174835 </output>
				</split>
			</split>
			<split pos="right">
				<output> 0.22838926 </output>
			</split>
		</split>
	</tree>
	<tree id="21" weight="0.1">
		<split>
			<feature> 2 </feature>
			<threshold> 8.619252 </threshold>
			<split pos="left">
				<feature> 2 </feature>
				<threshold> 4.309627 </threshold>
				<split pos="left">
					<feature> 2 </feature>
					<threshold> 1.3260397 </threshold>
					<split pos="left">
						<feature> 2 </feature>
						<threshold> 0.44201317 </threshold>
						<split pos="left">
							<feature> 1 </feature>
							<threshold> 0.35436562 </threshold>
							<split pos="left">
								<feature> 3 </feature>
								<threshold> 0.0 </threshold>
								<split pos="left">
									<output> -9.853828E-4 </output>
								</split>
								<split pos="right">
									<feature> 1 </feature>
									<threshold> 0.0 </threshold>
									<split pos="left">
										<output> 0.00213494 </output>
									</split>
									<split pos="right">
										<output> 0.0031415424 </output>
									</split>
								</split>
							</split>
							<split pos="right">
								<output> 0.004615804 </output>
							</split>
						</split>
						<split pos="right">
							<feature> 3 </feature>
							<threshold> 0.0 </threshold>
							<split pos="left">
								<output> -0.021566054 </output>
							</split>
							<split pos="right">
								<output> 0.0057256976 </output>
							</split>
						</split>
					</split>
					<split pos="right">
						<feature> 1 </feature>
						<threshold> 1.6199571 </threshold>
						<split pos="left">
							<output> 0.011170706 </output>
						</split>
						<split pos="right">
							<output> 0.023793258 </output>
						</split>
					</split>
				</split>
				<split pos="right">
					<output> 0.078569025 </output>
				</split>
			</split>
			<split pos="right">
				<output> 0.41838294 </output>
			</split>
		</split>
	</tree>
	<tree id="22" weight="0.1">
		<split>
			<feature> 2 </feature>
			<threshold> 9.503278 </threshold>
			<split pos="left">
				<feature> 2 </feature>
				<threshold> 4.309627 </threshold>
				<split pos="left">
					<feature> 1 </feature>
					<threshold> 0.8606022 </threshold>
					<split pos="left">
						<feature> 1 </feature>
						<threshold> 0.45561293 </threshold>
						<split pos="left">
							<feature> 1 </feature>
							<threshold> 0.0 </threshold>
							<split pos="left">
								<feature> 3 </feature>
								<threshold> 0.0 </threshold>
								<split pos="left">
									<output> 7.3317584E-4 </output>
								</split>
								<split pos="right">
									<output> 0.0020518748 </output>
								</split>
							</split>
							<split pos="right">
								<output> 0.0032151358 </output>
							</split>
						</split>
						<split pos="right">
							<output> 0.005420674 </output>
						</split>
					</split>
					<split pos="right">
						<feature> 1 </feature>
						<threshold> 1.771828 </threshold>
						<split pos="left">
							<feature> 2 </feature>
							<threshold> 2.8730853 </threshold>
							<split pos="left">
								<feature> 2 </feature>
								<threshold> 2.762582 </threshold>
								<split pos="left">
									<output> 0.010250281 </output>
								</split>
								<split pos="right">
									<output> -0.010872937 </output>
								</split>
							</split>
							<split pos="right">
								<output> 0.02897417 </output>
							</split>
						</split>
						<split pos="right">
							<output> 0.023921385 </output>
						</split>
					</split>
				</split>
				<split pos="right">
					<output> 0.07367886 </output>
				</split>
			</split>
			<split pos="right">
				<output> 0.47493568 </output>
			</split>
		</split>
	</tree>
	<tree id="23" weight="0.1">
		<split>
			<feature> 1 </feature>
			<threshold> 3.847398 </threshold>
			<split pos="left">
				<feature> 2 </feature>
				<threshold> 3.6466076 </threshold>
				<split pos="left">
					<feature> 2 </feature>
					<threshold> 1.105033 </threshold>
					<split pos="left">
						<feature> 1 </feature>
						<threshold> 0.80997854 </threshold>
						<split pos="left">
							<feature> 1 </feature>
							<threshold> 0.30374196 </threshold>
							<split pos="left">
								<feature> 3 </feature>
								<threshold> 0.0 </threshold>
								<split pos="left">
									<output> -2.8287343E-4 </output>
								</split>
								<split pos="right">
									<feature> 1 </feature>
									<threshold> 0.0 </threshold>
									<split pos="left">
										<output> 0.002041517 </output>
									</split>
									<split pos="right">
										<output> 0.0026044638 </output>
									</split>
								</split>
							</split>
							<split pos="right">
								<output> 0.0036139342 </output>
							</split>
						</split>
						<split pos="right">
							<output> 0.01566232 </output>
						</split>
					</split>
					<split pos="right">
						<feature> 1 </feature>
						<threshold> 2.379312 </threshold>
						<split pos="left">
							<feature> 2 </feature>
							<threshold> 2.099563 </threshold>
							<split pos="left">
								<output> 0.0072512743 </output>
							</split>
							<split pos="right">
								<output> 0.01368021 </output>
							</split>
						</split>
						<split pos="right">
							<output> 0.07628293 </output>
						</split>
					</split>
				</split>
				<split pos="right">
					<output> 0.0431122 </output>
				</split>
			</split>
			<split pos="right">
				<output> 0.22316593 </output>
			</split>
		</split>
	</tree>
	<tree id="24" weight="0.1">
		<split>
			<feature> 1 </feature>
			<threshold> 5.1129947 </threshold>
			<split pos="left">
				<feature> 2 </feature>
				<threshold> 4.309627 </threshold>
				<split pos="left">
					<feature> 2 </feature>
					<threshold> 1.436543 </threshold>
					<split pos="left">
						<feature> 2 </feature>
						<threshold> 0.6630198 </threshold>
						<split pos="left">
							<feature> 1 </feature>
							<threshold> 0.0 </threshold>
							<split pos="left">
								<feature> 3 </feature>
								<threshold> 0.0 </threshold>
								<split pos="left">
									<output> 6.878062E-4 </output>
								</split>
								<split pos="right">
									<output> 0.0019474312 </output>
								</split>
							</split>
							<split pos="right">
								<output> 0.0026355514 </output>
							</split>
						</split>
						<split pos="right">
							<feature> 3 </feature>
							<threshold> 0.0 </threshold>
							<split pos="left">
								<output> -0.025923342 </output>
							</split>
							<split pos="right">
								<output> 0.004821337 </output>
							</split>
						</split>
					</split>
					<split pos="right">
						<feature> 1 </feature>
						<threshold> 3.2905378 </threshold>
						<split pos="left">
							<feature> 1 </feature>
							<threshold> 1.3668388 </threshold>
							<split pos="left">
								<output> 0.0077735623 </output>
							</split>
							<split pos="right">
								<output> 0.014760162 </output>
							</split>
						</split>
						<split pos="right">
							<output> 0.3837514 </output>
						</split>
					</split>
				</split>
				<split pos="right">
					<output> 0.060033273 </output>
				</split>
			</split>
			<split pos="right">
				<output> 0.4178928 </output>
			</split>
		</split>
	</tree>
	<tree id="25" weight="0.1">
		<split>
			<feature> 2 </feature>
			<threshold> 9.613781 </threshold>
			<split pos="left">
				<feature> 1 </feature>
				<threshold> 2.834925 </threshold>
				<split pos="left">
					<feature> 2 </feature>
					<threshold> 6.1881814 </threshold>
					<split pos="left">
						<feature> 2 </feature>
						<threshold> 4.75164 </threshold>
						<split pos="left">
							<feature> 1 </feature>
							<threshold> 1.0124732 </threshold>
							<split pos="left">
								<feature> 2 </feature>
								<threshold> 0.6630198 </threshold>
								<split pos="left">
									<feature> 1 </feature>
									<threshold> 0.30374196 </threshold>
									<split pos="left">
										<feature> 2 </feature>
										<threshold> 0.44201317 </threshold>
										<split pos="left">
											<feature> 3 </feature>
											<threshold> 0.0 </threshold>
											<split pos="left">
												<output> -3.2439313E-4 </output>
											</split>
											<split pos="right">
												<output> 0.001563411 </output>
											</split>
										</split>
										<split pos="right">
											<output> 0.008722604 </output>
										</split>
									</split>
									<split pos="right">
										<output> 0.002558185 </output>
									</split>
								</split>
								<split pos="right">
									<output> 0.0044504255 </output>
								</split>
							</split>
							<split pos="right">
								<output> 0.010790336 </output>
							</split>
						</split>
						<split pos="right">
							<output> 0.13603443 </output>
						</split>
					</split>
					<split pos="right">
						<output> -0.32098174 </output>
					</split>
				</split>
				<split pos="right">
					<output> 0.07587825 </output>
				</split>
			</split>
			<split pos="right">
				<output> 0.38282746 </output>
			</split>
		</split>
	</tree>
	<tree id="26" weight="0.1">
		<split>
			<feature> 2 </feature>
			<threshold> 7.9562325 </threshold>
			<split pos="left">
				<feature> 2 </feature>
				<threshold> 4.0886207 </threshold>
				<split pos="left">
					<feature> 2 </feature>
					<threshold> 1.436543 </threshold>
					<split pos="left">
						<feature> 1 </feature>
						<threshold> 0.45561293 </threshold>
						<split pos="left">
							<feature> 1 </feature>
							<threshold> 0.0 </threshold>
							<split pos="left">
								<feature> 3 </feature>
								<threshold> 0.0 </threshold>
								<split pos="left">
									<output> 6.515543E-4 </output>
								</split>
								<split pos="right">
									<output> 0.0014656609 </output>
								</split>
							</split>
							<split pos="right">
								<output> 0.0020637105 </output>
							</split>
						</split>
						<split pos="right">
							<feature> 1 </feature>
							<threshold> 1.2149678 </threshold>
							<split pos="left">
								<feature> 3 </feature>
								<threshold> 0.0 </threshold>
								<split pos="left">
									<output> -0.01803242 </output>
								</split>
								<split pos="right">
									<output> 0.0037609048 </output>
								</split>
							</split>
							<split pos="right">
								<output> -0.021444509 </output>
							</split>
						</split>
					</split>
					<split pos="right">
						<feature> 1 </feature>
						<threshold> 1.2655915 </threshold>
						<split pos="left">
							<output> 0.005772812 </output>
						</split>
						<split pos="right">
							<output> 0.011289463 </output>
						</split>
					</split>
				</split>
				<split pos="right">
					<output> 0.040716123 </output>
				</split>
			</split>
			<split pos="right">
				<output> 0.22681361 </output>
			</split>
		</split>
	</tree>
	<tree id="27" weight="0.1">
		<split>
			<feature> 1 </feature>
			<threshold> 5.1129947 </threshold>
			<split pos="left">
				<feature> 1 </feature>
				<threshold> 2.834925 </threshold>
				<split pos="left">
					<feature> 2 </feature>
					<threshold> 6.1881814 </threshold>
					<split pos="left">
						<feature> 2 </feature>
						<threshold> 5.304156 </threshold>
						<split pos="left">
							<feature> 2 </feature>
							<threshold> 4.4201303 </threshold>
							<split pos="left">
								<feature> 1 </feature>
								<threshold> 0.91122586 </threshold>
								<split pos="left">
									<feature> 2 </feature>
									<threshold> 0.44201317 </threshold>
									<split pos="left">
										<feature> 1 </feature>
										<threshold> 0.55686027 </threshold>
										<split pos="left">
											<feature> 1 </feature>
											<threshold> 0.5062366 </threshold>
											<split pos="left">
												<output> 0.0014531084 </output>
											</split>
											<split pos="right">
												<output> 0.015010531 </output>
											</split>
										</split>
										<split pos="right">
											<output> -0.02079414 </output>
										</split>
									</split>
									<split pos="right">
										<output> 0.003052842 </output>
									</split>
								</split>
								<split pos="right">
									<output> 0.0076084896 </output>
								</split>
							</split>
							<split pos="right">
								<output> 0.054071065 </output>
							</split>
						</split>
						<split pos="right">
							<output> 0.21747386 </output>
						</split>
					</split>
					<split pos="right">
						<output> -0.29294774 </output>
					</split>
				</split>
				<split pos="right">
					<output> 0.062148206 </output>
				</split>
			</split>
			<split pos="right">
				<output> 0.32327738 </output>
			</split>
		</split>
	</tree>
	<tree id="28" weight="0.1">
		<split>
			<feature> 2 </feature>
			<threshold> 9.613781 </threshold>
			<split pos="left">
				<feature> 2 </feature>
				<threshold> 5.304156 </threshold>
				<split pos="left">
					<feature> 2 </feature>
					<threshold> 2.099563 </threshold>
					<split pos="left">
						<feature> 2 </feature>
						<threshold> 0.6630198 </threshold>
						<split pos="left">
							<feature> 1 </feature>
							<threshold> 0.0 </threshold>
							<split pos="left">
								<feature> 3 </feature>
								<threshold> 0.0 </threshold>
								<split pos="left">
									<output> 4.4134603E-4 </output>
								</split>
								<split pos="right">
									<output> 0.0013239613 </output>
								</split>
							</split>
							<split pos="right">
								<output> 0.00171879 </output>
							</split>
						</split>
						<split pos="right">
							<feature> 1 </feature>
							<threshold> 1.2149678 </threshold>
							<split pos="left">
								<feature> 3 </feature>
								<threshold> 0.0 </threshold>
								<split pos="left">
									<output> -0.027580353 </output>
								</split>
								<split pos="right">
									<feature> 2 </feature>
									<threshold> 1.7680529 </threshold>
									<split pos="left">
										<output> 0.0034084064 </output>
									</split>
									<split pos="right">
										<output> -1.7041483E-4 </output>
									</split>
								</split>
							</split>
							<split pos="right">
								<output> 0.011108202 </output>
							</split>
						</split>
					</split>
					<split pos="right">
						<output> 0.010491624 </output>
					</split>
				</split>
				<split pos="right">
					<output> 0.06064001 </output>
				</split>
			</split>
			<split pos="right">
				<output> 0.29575613 </output>
			</split>
		</split>
	</tree>
	<tree id="29" weight="0.1">
		<split>
			<feature> 1 </feature>
			<threshold> 4.910499 </threshold>
			<split pos="left">
				<feature> 2 </feature>
				<threshold> 5.304156 </threshold>
				<split pos="left">
					<feature> 2 </feature>
					<threshold> 2.099563 </threshold>
					<split pos="left">
						<feature> 1 </feature>
						<threshold> 0.55686027 </threshold>
						<split pos="left">
							<feature> 2 </feature>
							<threshold> 0.9945297 </threshold>
							<split pos="left">
								<feature> 3 </feature>
								<threshold> 0.0 </threshold>
								<split pos="left">
									<output> -0.0024574457 </output>
								</split>
								<split pos="right">
									<feature> 1 </feature>
									<threshold> 0.0 </threshold>
									<split pos="left">
										<output> 8.720635E-4 </output>
									</split>
									<split pos="right">
										<output> 0.0015750409 </output>
									</split>
								</split>
							</split>
							<split pos="right">
								<output> 0.019707944 </output>
							</split>
						</split>
						<split pos="right">
							<feature> 2 </feature>
							<threshold> 0.11050329 </threshold>
							<split pos="left">
								<output> 1.4886948 </output>
							</split>
							<split pos="right">
								<feature> 1 </feature>
								<threshold> 1.3668388 </threshold>
								<split pos="left">
									<output> 0.003116132 </output>
								</split>
								<split pos="right">
									<output> 0.015589985 </output>
								</split>
							</split>
						</split>
					</split>
					<split pos="right">
						<output> 0.009432924 </output>
					</split>
				</split>
				<split pos="right">
					<output> 0.053077333 </output>
				</split>
			</split>
			<split pos="right">
				<output> 0.24321221 </output>
			</split>
		</split>
	</tree>
	<tree id="30" weight="0.1">
		<split>
			<feature> 2 </feature>
			<threshold> 9.613781 </threshold>
			<split pos="left">
				<feature> 1 </feature>
				<threshold> 2.834925 </threshold>
				<split pos="left">
					<feature> 2 </feature>
					<threshold> 6.1881814 </threshold>
					<split pos="left">
						<feature> 2 </feature>
						<threshold> 4.75164 </threshold>
						<split pos="left">
							<feature> 1 </feature>
							<threshold> 1.1137205 </threshold>
							<split pos="left">
								<feature> 2 </feature>
								<threshold> 2.210066 </threshold>
								<split pos="left">
									<feature> 2 </feature>
									<threshold> 0.6630198 </threshold>
									<split pos="left">
										<feature> 3 </feature>
										<threshold> 0.0 </threshold>
										<split pos="left">
											<output> -0.001980121 </output>
										</split>
										<split pos="right">
											<feature> 1 </feature>
											<threshold> 0.0 </threshold>
											<split pos="left">
												<output> 8.391666E-4 </output>
											</split>
											<split pos="right">
												<output> 0.0014651844 </output>
											</split>
										</split>
									</split>
									<split pos="right">
										<output> 0.0025235047 </output>
									</split>
								</split>
								<split pos="right">
									<output> 0.03484831 </output>
								</split>
							</split>
							<split pos="right">
								<output> 0.0071189078 </output>
							</split>
						</split>
						<split pos="right">
							<output> 0.103212975 </output>
						</split>
					</split>
					<split pos="right">
						<output> -0.27502626 </output>
					</split>
				</split>
				<split pos="right">
					<output> 0.04709318 </output>
				</split>
			</split>
			<split pos="right">
				<output> 0.24504589 </output>
			</split>
		</split>
	</tree>
	<tree id="31" weight="0.1">
		<split>
			<feature> 2 </feature>
			<threshold> 6.2986846 </threshold>
			<split pos="left">
				<feature> 2 </feature>
				<threshold> 6.1881814 </threshold>
				<split pos="left">
					<feature> 2 </feature>
					<threshold> 5.304156 </threshold>
					<split pos="left">
						<feature> 1 </feature>
						<threshold> 2.986796 </threshold>
						<split pos="left">
							<feature> 2 </feature>
							<threshold> 3.4256012 </threshold>
							<split pos="left">
								<feature> 1 </feature>
								<threshold> 2.379312 </threshold>
								<split pos="left">
									<feature> 1 </feature>
									<threshold> 0.6581076 </threshold>
									<split pos="left">
										<feature> 2 </feature>
										<threshold> 1.105033 </threshold>
										<split pos="left">
											<feature> 2 </feature>
											<threshold> 0.8840264 </threshold>
											<split pos="left">
												<output> 7.0803205E-4 </output>
											</split>
											<split pos="right">
												<output> -0.002316645 </output>
											</split>
										</split>
										<split pos="right">
											<output> 0.008531459 </output>
										</split>
									</split>
									<split pos="right">
										<output> 0.003437468 </output>
									</split>
								</split>
								<split pos="right">
									<output> 0.087203585 </output>
								</split>
							</split>
							<split pos="right">
								<output> 0.01976919 </output>
							</split>
						</split>
						<split pos="right">
							<output> -0.06622371 </output>
						</split>
					</split>
					<split pos="right">
						<output> 0.12350526 </output>
					</split>
				</split>
				<split pos="right">
					<output> -0.19623955 </output>
				</split>
			</split>
			<split pos="right">
				<output> 0.08979753 </output>
			</split>
		</split>
	</tree>
	<tree id="32" weight="0.1">
		<split>
			<feature> 1 </feature>
			<threshold> 5.1129947 </threshold>
			<split pos="left">
				<feature> 2 </feature>
				<threshold> 5.304156 </threshold>
				<split pos="left">
					<feature> 1 </feature>
					<threshold> 2.986796 </threshold>
					<split pos="left">
						<feature> 1 </feature>
						<threshold> 1.771828 </threshold>
						<split pos="left">
							<feature> 2 </feature>
							<threshold> 2.8730853 </threshold>
							<split pos="left">
								<feature> 2 </feature>
								<threshold> 2.762582 </threshold>
								<split pos="left">
									<feature> 1 </feature>
									<threshold> 1.6199571 </threshold>
									<split pos="left">
										<feature> 1 </feature>
										<threshold> 1.4680861 </threshold>
										<split pos="left">
											<feature> 1 </feature>
											<threshold> 1.3668388 </threshold>
											<split pos="left">
												<output> 7.4591534E-4 </output>
											</split>
											<split pos="right">
												<output> 0.0147599485 </output>
											</split>
										</split>
										<split pos="right">
											<output> -0.01293445 </output>
										</split>
									</split>
									<split pos="right">
										<output> 0.03228815 </output>
									</split>
								</split>
								<split pos="right">
									<output> -0.018504223 </output>
								</split>
							</split>
							<split pos="right">
								<output> 0.016872698 </output>
							</split>
						</split>
						<split pos="right">
							<output> 0.0140424855 </output>
						</split>
					</split>
					<split pos="right">
						<output> -0.060637772 </output>
					</split>
				</split>
				<split pos="right">
					<output> 0.041750267 </output>
				</split>
			</split>
			<split pos="right">
				<output> 0.21437348 </output>
			</split>
		</split>
	</tree>
	<tree id="33" weight="0.1">
		<split>
			<feature> 2 </feature>
			<threshold> 9.613781 </threshold>
			<split pos="left">
				<feature> 2 </feature>
				<threshold> 5.304156 </threshold>
				<split pos="left">
					<feature> 1 </feature>
					<threshold> 3.8980217 </threshold>
					<split pos="left">
						<feature> 1 </feature>
						<threshold> 2.986796 </threshold>
						<split pos="left">
							<feature> 2 </feature>
							<threshold> 4.309627 </threshold>
							<split pos="left">
								<feature> 2 </feature>
								<threshold> 1.3260397 </threshold>
								<split pos="left">
									<feature> 1 </feature>
									<threshold> 0.35436562 </threshold>
									<split pos="left">
										<feature> 2 </feature>
										<threshold> 0.44201317 </threshold>
										<split pos="left">
											<feature> 2 </feature>
											<threshold> 0.11050329 </threshold>
											<split pos="left">
												<output> 7.130677E-4 </output>
											</split>
											<split pos="right">
												<output> -1.6990004E-4 </output>
											</split>
										</split>
										<split pos="right">
											<output> 0.0039673815 </output>
										</split>
									</split>
									<split pos="right">
										<output> 0.001629811 </output>
									</split>
								</split>
								<split pos="right">
									<output> 0.00389408 </output>
								</split>
							</split>
							<split pos="right">
								<output> 0.030358762 </output>
							</split>
						</split>
						<split pos="right">
							<output> -0.0611072 </output>
						</split>
					</split>
					<split pos="right">
						<output> 0.5405567 </output>
					</split>
				</split>
				<split pos="right">
					<output> 0.03744063 </output>
				</split>
			</split>
			<split pos="right">
				<output> 0.19423573 </output>
			</split>
		</split>
	</tree>
	<tree id="34" weight="0.1">
		<split>
			<feature> 1 </feature>
			<threshold> 5.1129947 </threshold>
			<split pos="left">
				<feature> 1 </feature>
				<threshold> 2.9361722 </threshold>
				<split pos="left">
					<feature> 2 </feature>
					<threshold> 6.1881814 </threshold>
					<split pos="left">
						<feature> 2 </feature>
						<threshold> 5.304156 </threshold>
						<split pos="left">
							<feature> 2 </feature>
							<threshold> 4.309627 </threshold>
							<split pos="left">
								<feature> 1 </feature>
								<threshold> 0.55686027 </threshold>
								<split pos="left">
									<feature> 2 </feature>
									<threshold> 0.9945297 </threshold>
									<split pos="left">
										<feature> 3 </feature>
										<threshold> 0.0 </threshold>
										<split pos="left">
											<output> -0.0022409975 </output>
										</split>
										<split pos="right">
											<feature> 2 </feature>
											<threshold> 0.7735231 </threshold>
											<split pos="left">
												<output> 3.5265114E-4 </output>
											</split>
											<split pos="right">
												<output> 0.0023252862 </output>
											</split>
										</split>
									</split>
									<split pos="right">
										<output> 0.017410215 </output>
									</split>
								</split>
								<split pos="right">
									<output> 0.0026975602 </output>
								</split>
							</split>
							<split pos="right">
								<output> 0.027985327 </output>
							</split>
						</split>
						<split pos="right">
							<output> 0.14525346 </output>
						</split>
					</split>
					<split pos="right">
						<output> -0.22140239 </output>
					</split>
				</split>
				<split pos="right">
					<output> 0.035691462 </output>
				</split>
			</split>
			<split pos="right">
				<output> 0.17718937 </output>
			</split>
		</split>
	</tree>
	<tree id="35" weight="0.1">
		<split>
			<feature> 1 </feature>
			<threshold> 6.1760964 </threshold>
			<split pos="left">
				<feature> 2 </feature>
				<threshold> 5.304156 </threshold>
				<split pos="left">
					<feature> 1 </feature>
					<threshold> 3.8980217 </threshold>
					<split pos="left">
						<feature> 1 </feature>
						<threshold> 2.986796 </threshold>
						<split pos="left">
							<feature> 2 </feature>
							<threshold> 3.4256012 </threshold>
							<split pos="left">
								<feature> 1 </feature>
								<threshold> 2.379312 </threshold>
								<split pos="left">
									<feature> 1 </feature>
									<threshold> 0.55686027 </threshold>
									<split pos="left">
										<feature> 2 </feature>
										<threshold> 0.9945297 </threshold>
										<split pos="left">
											<feature> 2 </feature>
											<threshold> 0.8840264 </threshold>
											<split pos="left">
												<output> 3.59159E-4 </output>
											</split>
											<split pos="right">
												<output> -0.0027062735 </output>
											</split>
										</split>
										<split pos="right">
											<output> 0.01566612 </output>
										</split>
									</split>
									<split pos="right">
										<output> 0.0021443446 </output>
									</split>
								</split>
								<split pos="right">
									<output> 0.07639372 </output>
								</split>
							</split>
							<split pos="right">
								<output> 0.014143726 </output>
							</split>
						</split>
						<split pos="right">
							<output> -0.05856568 </output>
						</split>
					</split>
					<split pos="right">
						<output> 0.4812339 </output>
					</split>
				</split>
				<split pos="right">
					<output> 0.035285857 </output>
				</split>
			</split>
			<split pos="right">
				<output> 0.2765672 </output>
			</split>
		</split>
	</tree>
	<tree id="36" weight="0.1">
		<split>
			<feature> 2 </feature>
			<threshold> 7.9562325 </threshold>
			<split pos="left">
				<feature> 1 </feature>
				<threshold> 4.454884 </threshold>
				<split pos="left">
					<feature> 1 </feature>
					<threshold> 3.847398 </threshold>
					<split pos="left">
						<feature> 2 </feature>
						<threshold> 6.1881814 </threshold>
						<split pos="left">
							<feature> 2 </feature>
							<threshold> 5.304156 </threshold>
							<split pos="left">
								<feature> 1 </feature>
								<threshold> 2.986796 </threshold>
								<split pos="left">
									<feature> 2 </feature>
									<threshold> 4.309627 </threshold>
									<split pos="left">
										<feature> 2 </feature>
										<threshold> 2.099563 </threshold>
										<split pos="left">
											<feature> 1 </feature>
											<threshold> 1.2149678 </threshold>
											<split pos="left">
												<output> 3.857921E-4 </output>
											</split>
											<split pos="right">
												<output> 0.007045155 </output>
											</split>
										</split>
										<split pos="right">
											<output> 0.004515135 </output>
										</split>
									</split>
									<split pos="right">
										<output> 0.023074662 </output>
									</split>
								</split>
								<split pos="right">
									<output> -0.053171445 </output>
								</split>
							</split>
							<split pos="right">
								<output> 0.091836326 </output>
							</split>
						</split>
						<split pos="right">
							<output> -0.057347983 </output>
						</split>
					</split>
					<split pos="right">
						<output> 0.0971553 </output>
					</split>
				</split>
				<split pos="right">
					<output> -0.14774565 </output>
				</split>
			</split>
			<split pos="right">
				<output> 0.096654974 </output>
			</split>
		</split>
	</tree>
	<tree id="37" weight="0.1">
		<split>
			<feature> 1 </feature>
			<threshold> 6.1760964 </threshold>
			<split pos="left">
				<feature> 1 </feature>
				<threshold> 2.9361722 </threshold>
				<split pos="left">
					<feature> 2 </feature>
					<threshold> 6.1881814 </threshold>
					<split pos="left">
						<feature> 2 </feature>
						<threshold> 5.304156 </threshold>
						<split pos="left">
							<feature> 2 </feature>
							<threshold> 5.1936526 </threshold>
							<split pos="left">
								<feature> 2 </feature>
								<threshold> 4.75164 </threshold>
								<split pos="left">
									<feature> 2 </feature>
									<threshold> 4.6411366 </threshold>
									<split pos="left">
										<feature> 2 </feature>
										<threshold> 4.5306334 </threshold>
										<split pos="left">
											<feature> 1 </feature>
											<threshold> 1.771828 </threshold>
											<split pos="left">
												<output> 4.0856662E-4 </output>
											</split>
											<split pos="right">
												<output> 0.007623661 </output>
											</split>
										</split>
										<split pos="right">
											<output> 0.09110664 </output>
										</split>
									</split>
									<split pos="right">
										<output> -0.06484258 </output>
									</split>
								</split>
								<split pos="right">
									<output> 0.059334826 </output>
								</split>
							</split>
							<split pos="right">
								<output> -0.089490846 </output>
							</split>
						</split>
						<split pos="right">
							<output> 0.118015885 </output>
						</split>
					</split>
					<split pos="right">
						<output> -0.197056 </output>
					</split>
				</split>
				<split pos="right">
					<output> 0.031665586 </output>
				</split>
			</split>
			<split pos="right">
				<output> 0.23924556 </output>
			</split>
		</split>
	</tree>
	<tree id="38" weight="0.1">
		<split>
			<feature> 2 </feature>
			<threshold> 6.2986846 </threshold>
			<split pos="left">
				<feature> 2 </feature>
				<threshold> 6.1881814 </threshold>
				<split pos="left">
					<feature> 2 </feature>
					<threshold> 5.304156 </threshold>
					<split pos="left">
						<feature> 1 </feature>
						<threshold> 3.8980217 </threshold>
						<split pos="left">
							<feature> 1 </feature>
							<threshold> 2.986796 </threshold>
							<split pos="left">
								<feature> 2 </feature>
								<threshold> 3.7571108 </threshold>
								<split pos="left">
									<feature> 1 </feature>
									<threshold> 2.379312 </threshold>
									<split pos="left">
										<feature> 1 </feature>
										<threshold> 2.1261938 </threshold>
										<split pos="left">
											<feature> 2 </feature>
											<threshold> 3.6466076 </threshold>
											<split pos="left">
												<output> 3.9158884E-4 </output>
											</split>
											<split pos="right">
												<output> 0.038124792 </output>
											</split>
										</split>
										<split pos="right">
											<output> -0.020371247 </output>
										</split>
									</split>
									<split pos="right">
										<output> 0.0441786 </output>
									</split>
								</split>
								<split pos="right">
									<output> 0.013192256 </output>
								</split>
							</split>
							<split pos="right">
								<output> -0.050641544 </output>
							</split>
						</split>
						<split pos="right">
							<output> 0.4241468 </output>
						</split>
					</split>
					<split pos="right">
						<output> 0.07660492 </output>
					</split>
				</split>
				<split pos="right">
					<output> -0.14792039 </output>
				</split>
			</split>
			<split pos="right">
				<output> 0.0518589 </output>
			</split>
		</split>
	</tree>
	<tree id="39" weight="0.1">
		<split>
			<feature> 1 </feature>
			<threshold> 6.1760964 </threshold>
			<split pos="left">
				<feature> 2 </feature>
				<threshold> 13.03938 </threshold>
				<split pos="left">
					<feature> 2 </feature>
					<threshold> 12.597367 </threshold>
					<split pos="left">
						<feature> 2 </feature>
						<threshold> 6.2986846 </threshold>
						<split pos="left">
							<feature> 2 </feature>
							<threshold> 6.1881814 </threshold>
							<split pos="left">
								<feature> 2 </feature>
								<threshold> 5.6356654 </threshold>
								<split pos="left">
									<feature> 1 </feature>
									<threshold> 4.049893 </threshold>
									<split pos="left">
										<feature> 1 </feature>
										<threshold> 2.986796 </threshold>
										<split pos="left">
											<feature> 2 </feature>
											<threshold> 4.75164 </threshold>
											<split pos="left">
												<output> 3.9532842E-4 </output>
											</split>
											<split pos="right">
												<output> 0.03617855 </output>
											</split>
										</split>
										<split pos="right">
											<output> -0.030259974 </output>
										</split>
									</split>
									<split pos="right">
										<output> 0.3977531 </output>
									</split>
								</split>
								<split pos="right">
									<output> 0.09553209 </output>
								</split>
							</split>
							<split pos="right">
								<output> -0.13312446 </output>
							</split>
						</split>
						<split pos="right">
							<output> 0.038245678 </output>
						</split>
					</split>
					<split pos="right">
						<output> 0.9063365 </output>
					</split>
				</split>
				<split pos="right">
					<output> -0.6688268 </output>
				</split>
			</split>
			<split pos="right">
				<output> 0.21013525 </output>
			</split>
		</split>
	</tree>
	<tree id="40" weight="0.1">
		<split>
			<feature> 2 </feature>
			<threshold> 9.613781 </threshold>
			<split pos="left">
				<feature> 1 </feature>
				<threshold> 6.0748487 </threshold>
				<split pos="left">
					<feature> 1 </feature>
					<threshold> 4.556132 </threshold>
					<split pos="left">
						<feature> 1 </feature>
						<threshold> 3.847398 </threshold>
						<split pos="left">
							<feature> 2 </feature>
							<threshold> 6.1881814 </threshold>
							<split pos="left">
								<feature> 2 </feature>
								<threshold> 5.304156 </threshold>
								<split pos="left">
									<feature> 1 </feature>
									<threshold> 2.986796 </threshold>
									<split pos="left">
										<feature> 2 </feature>
										<threshold> 5.1936526 </threshold>
										<split pos="left">
											<feature> 2 </feature>
											<threshold> 4.75164 </threshold>
											<split pos="left">
												<output> 3.3121326E-4 </output>
											</split>
											<split pos="right">
												<output> 0.04289294 </output>
											</split>
										</split>
										<split pos="right">
											<output> -0.06811303 </output>
										</split>
									</split>
									<split pos="right">
										<output> -0.04293154 </output>
									</split>
								</split>
								<split pos="right">
									<output> 0.06336515 </output>
								</split>
							</split>
							<split pos="right">
								<output> -0.03374202 </output>
							</split>
						</split>
						<split pos="right">
							<output> 0.0840611 </output>
						</split>
					</split>
					<split pos="right">
						<output> -0.084015325 </output>
					</split>
				</split>
				<split pos="right">
					<output> -0.9949871 </output>
				</split>
			</split>
			<split pos="right">
				<output> 0.11461203 </output>
			</split>
		</split>
	</tree>
	<tree id="41" weight="0.1">
		<split>
			<feature> 1 </feature>
			<threshold> 4.961123 </threshold>
			<split pos="left">
				<feature> 1 </feature>
				<threshold> 4.556132 </threshold>
				<split pos="left">
					<feature> 1 </feature>
					<threshold> 3.847398 </threshold>
					<split pos="left">
						<feature> 2 </feature>
						<threshold> 6.2986846 </threshold>
						<split pos="left">
							<feature> 2 </feature>
							<threshold> 6.1881814 </threshold>
							<split pos="left">
								<feature> 2 </feature>
								<threshold> 5.6356654 </threshold>
								<split pos="left">
									<feature> 1 </feature>
									<threshold> 3.3411615 </threshold>
									<split pos="left">
										<feature> 2 </feature>
										<threshold> 5.0831494 </threshold>
										<split pos="left">
											<feature> 1 </feature>
											<threshold> 2.9361722 </threshold>
											<split pos="left">
												<output> 3.2994934E-4 </output>
											</split>
											<split pos="right">
												<output> -0.059761226 </output>
											</split>
										</split>
										<split pos="right">
											<output> 0.03280461 </output>
										</split>
									</split>
									<split pos="right">
										<output> -0.05734413 </output>
									</split>
								</split>
								<split pos="right">
									<output> 0.079946004 </output>
								</split>
							</split>
							<split pos="right">
								<output> -0.12706597 </output>
							</split>
						</split>
						<split pos="right">
							<output> 0.042616628 </output>
						</split>
					</split>
					<split pos="right">
						<output> 0.08012118 </output>
					</split>
				</split>
				<split pos="right">
					<output> -0.16480818 </output>
				</split>
			</split>
			<split pos="right">
				<output> 0.1006801 </output>
			</split>
		</split>
	</tree>
	<tree id="42" weight="0.1">
		<split>
			<feature> 1 </feature>
			<threshold> 6.1760964 </threshold>
			<split pos="left">
				<feature> 2 </feature>
				<threshold> 13.03938 </threshold>
				<split pos="left">
					<feature> 2 </feature>
					<threshold> 12.597367 </threshold>
					<split pos="left">
						<feature> 2 </feature>
						<threshold> 11.823845 </threshold>
						<split pos="left">
							<feature> 2 </feature>
							<threshold> 10.718813 </threshold>
							<split pos="left">
								<feature> 2 </feature>
								<threshold> 10.497807 </threshold>
								<split pos="left">
									<feature> 2 </feature>
									<threshold> 6.2986846 </threshold>
									<split pos="left">
										<feature> 2 </feature>
										<threshold> 6.1881814 </threshold>
										<split pos="left">
											<feature> 2 </feature>
											<threshold> 5.6356654 </threshold>
											<split pos="left">
												<output> 3.1158744E-4 </output>
											</split>
											<split pos="right">
												<output> 0.071553476 </output>
											</split>
										</split>
										<split pos="right">
											<output> -0.10447425 </output>
										</split>
									</split>
									<split pos="right">
										<output> 0.031751074 </output>
									</split>
								</split>
								<split pos="right">
									<output> -0.29799762 </output>
								</split>
							</split>
							<split pos="right">
								<output> 0.21890588 </output>
							</split>
						</split>
						<split pos="right">
							<output> -0.38062397 </output>
						</split>
					</split>
					<split pos="right">
						<output> 0.79417354 </output>
					</split>
				</split>
				<split pos="right">
					<output> -0.62347364 </output>
				</split>
			</split>
			<split pos="right">
				<output> 0.17067395 </output>
			</split>
		</split>
	</tree>
	<tree id="43" weight="0.1">
		<split>
			<feature> 2 </feature>
			<threshold> 12.818374 </threshold>
			<split pos="left">
				<feature> 2 </feature>
				<threshold> 12.376361 </threshold>
				<split pos="left">
					<feature> 1 </feature>
					<threshold> 5.1129947 </threshold>
					<split pos="left">
						<feature> 1 </feature>
						<threshold> 4.556132 </threshold>
						<split pos="left">
							<feature> 2 </feature>
							<threshold> 7.9562325 </threshold>
							<split pos="left">
								<feature> 2 </feature>
								<threshold> 7.735226 </threshold>
								<split pos="left">
									<feature> 2 </feature>
									<threshold> 6.2986846 </threshold>
									<split pos="left">
										<feature> 2 </feature>
										<threshold> 6.1881814 </threshold>
										<split pos="left">
											<feature> 2 </feature>
											<threshold> 5.304156 </threshold>
											<split pos="left">
												<output> 2.9612525E-4 </output>
											</split>
											<split pos="right">
												<output> 0.04863742 </output>
											</split>
										</split>
										<split pos="right">
											<output> -0.094757 </output>
										</split>
									</split>
									<split pos="right">
										<output> 0.04297279 </output>
									</split>
								</split>
								<split pos="right">
									<output> -0.112540185 </output>
								</split>
							</split>
							<split pos="right">
								<output> 0.11745121 </output>
							</split>
						</split>
						<split pos="right">
							<output> -0.11424528 </output>
						</split>
					</split>
					<split pos="right">
						<output> 0.09845962 </output>
					</split>
				</split>
				<split pos="right">
					<output> -0.37918586 </output>
				</split>
			</split>
			<split pos="right">
				<output> 0.20467648 </output>
			</split>
		</split>
	</tree>
	<tree id="44" weight="0.1">
		<split>
			<feature> 2 </feature>
			<threshold> 13.923406 </threshold>
			<split pos="left">
				<feature> 2 </feature>
				<threshold> 13.260386 </threshold>
				<split pos="left">
					<feature> 2 </feature>
					<threshold> 12.818374 </threshold>
					<split pos="left">
						<feature> 1 </feature>
						<threshold> 6.935455 </threshold>
						<split pos="left">
							<feature> 1 </feature>
							<threshold> 6.884831 </threshold>
							<split pos="left">
								<feature> 1 </feature>
								<threshold> 4.910499 </threshold>
								<split pos="left">
									<feature> 1 </feature>
									<threshold> 4.556132 </threshold>
									<split pos="left">
										<feature> 2 </feature>
										<threshold> 8.619252 </threshold>
										<split pos="left">
											<feature> 1 </feature>
											<threshold> 3.847398 </threshold>
											<split pos="left">
												<output> 2.8084524E-4 </output>
											</split>
											<split pos="right">
												<output> 0.04999935 </output>
											</split>
										</split>
										<split pos="right">
											<output> 0.17596701 </output>
										</split>
									</split>
									<split pos="right">
										<output> -0.16136864 </output>
									</split>
								</split>
								<split pos="right">
									<output> 0.075749464 </output>
								</split>
							</split>
							<split pos="right">
								<output> 1.5697719 </output>
							</split>
						</split>
						<split pos="right">
							<output> -0.35931286 </output>
						</split>
					</split>
					<split pos="right">
						<output> 0.5921826 </output>
					</split>
				</split>
				<split pos="right">
					<output> -0.39188105 </output>
				</split>
			</split>
			<split pos="right">
				<output> 0.2704792 </output>
			</split>
		</split>
	</tree>
	<tree id="45" weight="0.1">
		<split>
			<feature> 1 </feature>
			<threshold> 6.2267203 </threshold>
			<split pos="left">
				<feature> 2 </feature>
				<threshold> 13.03938 </threshold>
				<split pos="left">
					<feature> 2 </feature>
					<threshold> 12.597367 </threshold>
					<split pos="left">
						<feature> 2 </feature>
						<threshold> 11.823845 </threshold>
						<split pos="left">
							<feature> 2 </feature>
							<threshold> 11.271329 </threshold>
							<split pos="left">
								<feature> 1 </feature>
								<threshold> 1.771828 </threshold>
								<split pos="left">
									<feature> 2 </feature>
									<threshold> 2.8730853 </threshold>
									<split pos="left">
										<feature> 2 </feature>
										<threshold> 2.762582 </threshold>
										<split pos="left">
											<feature> 1 </feature>
											<threshold> 1.7212044 </threshold>
											<split pos="left">
												<output> 2.1848966E-4 </output>
											</split>
											<split pos="right">
												<output> 0.052890524 </output>
											</split>
										</split>
										<split pos="right">
											<output> -0.018253308 </output>
										</split>
									</split>
									<split pos="right">
										<output> 0.013252562 </output>
									</split>
								</split>
								<split pos="right">
									<output> 0.0070176916 </output>
								</split>
							</split>
							<split pos="right">
								<output> 0.2867366 </output>
							</split>
						</split>
						<split pos="right">
							<output> -0.3059029 </output>
						</split>
					</split>
					<split pos="right">
						<output> 0.67657125 </output>
					</split>
				</split>
				<split pos="right">
					<output> -0.63040906 </output>
				</split>
			</split>
			<split pos="right">
				<output> 0.14037845 </output>
			</split>
		</split>
	</tree>
	<tree id="46" weight="0.1">
		<split>
			<feature> 1 </feature>
			<threshold> 9.112282 </threshold>
			<split pos="left">
				<feature> 1 </feature>
				<threshold> 7.5935655 </threshold>
				<split pos="left">
					<feature> 1 </feature>
					<threshold> 7.1379504 </threshold>
					<split pos="left">
						<feature> 1 </feature>
						<threshold> 6.2267203 </threshold>
						<split pos="left">
							<feature> 2 </feature>
							<threshold> 13.03938 </threshold>
							<split pos="left">
								<feature> 2 </feature>
								<threshold> 12.597367 </threshold>
								<split pos="left">
									<feature> 2 </feature>
									<threshold> 11.823845 </threshold>
									<split pos="left">
										<feature> 2 </feature>
										<threshold> 11.271329 </threshold>
										<split pos="left">
											<feature> 1 </feature>
											<threshold> 1.771828 </threshold>
											<split pos="left">
												<output> 2.3477156E-4 </output>
											</split>
											<split pos="right">
												<output> 0.006317188 </output>
											</split>
										</split>
										<split pos="right">
											<output> 0.25806287 </output>
										</split>
									</split>
									<split pos="right">
										<output> -0.2753123 </output>
									</split>
								</split>
								<split pos="right">
									<output> 0.608914 </output>
								</split>
							</split>
							<split pos="right">
								<output> -0.56736827 </output>
							</split>
						</split>
						<split pos="right">
							<output> 0.20952393 </output>
						</split>
					</split>
					<split pos="right">
						<output> -0.28409436 </output>
					</split>
				</split>
				<split pos="right">
					<output> 0.41591305 </output>
				</split>
			</split>
			<split pos="right">
				<output> -0.6753119 </output>
			</split>
		</split>
	</tree>
	<tree id="47" weight="0.1">
		<split>
			<feature> 2 </feature>
			<threshold> 13.923406 </threshold>
			<split pos="left">
				<feature> 1 </feature>
				<threshold> 8.04918 </threshold>
				<split pos="left">
					<feature> 2 </feature>
					<threshold> 13.260386 </threshold>
					<split pos="left">
						<feature> 2 </feature>
						<threshold> 12.818374 </threshold>
						<split pos="left">
							<feature> 2 </feature>
							<threshold> 12.376361 </threshold>
							<split pos="left">
								<feature> 2 </feature>
								<threshold> 9.613781 </threshold>
								<split pos="left">
									<feature> 1 </feature>
									<threshold> 6.0748487 </threshold>
									<split pos="left">
										<feature> 2 </feature>
										<threshold> 9.282271 </threshold>
										<split pos="left">
											<feature> 2 </feature>
											<threshold> 8.619252 </threshold>
											<split pos="left">
												<output> 2.5431125E-4 </output>
											</split>
											<split pos="right">
												<output> 0.14774571 </output>
											</split>
										</split>
										<split pos="right">
											<output> -0.17699705 </output>
										</split>
									</split>
									<split pos="right">
										<output> -0.95646995 </output>
									</split>
								</split>
								<split pos="right">
									<output> 0.08284106 </output>
								</split>
							</split>
							<split pos="right">
								<output> -0.31626225 </output>
							</split>
						</split>
						<split pos="right">
							<output> 0.5095319 </output>
						</split>
					</split>
					<split pos="right">
						<output> -0.28144997 </output>
					</split>
				</split>
				<split pos="right">
					<output> -1.0426488 </output>
				</split>
			</split>
			<split pos="right">
				<output> 0.22387142 </output>
			</split>
		</split>
	</tree>
	<tree id="48" weight="0.1">
		<split>
			<feature> 1 </feature>
			<threshold> 9.112282 </threshold>
			<split pos="left">
				<feature> 1 </feature>
				<threshold> 7.5935655 </threshold>
				<split pos="left">
					<feature> 1 </feature>
					<threshold> 7.1379504 </threshold>
					<split pos="left">
						<feature> 1 </feature>
						<threshold> 6.2267203 </threshold>
						<split pos="left">
							<feature> 2 </feature>
							<threshold> 13.03938 </threshold>
							<split pos="left">
								<feature> 2 </feature>
								<threshold> 12.597367 </threshold>
								<split pos="left">
									<feature> 2 </feature>
									<threshold> 11.823845 </threshold>
									<split pos="left">
										<feature> 1 </feature>
										<threshold> 4.910499 </threshold>
										<split pos="left">
											<feature> 1 </feature>
											<threshold> 4.556132 </threshold>
											<split pos="left">
												<output> 2.5611185E-4 </output>
											</split>
											<split pos="right">
												<output> -0.14813226 </output>
											</split>
										</split>
										<split pos="right">
											<output> 0.071602486 </output>
										</split>
									</split>
									<split pos="right">
										<output> -0.2463093 </output>
									</split>
								</split>
								<split pos="right">
									<output> 0.5383592 </output>
								</split>
							</split>
							<split pos="right">
								<output> -0.5141005 </output>
							</split>
						</split>
						<split pos="right">
							<output> 0.1827871 </output>
						</split>
					</split>
					<split pos="right">
						<output> -0.25176194 </output>
					</split>
				</split>
				<split pos="right">
					<output> 0.36680812 </output>
				</split>
			</split>
			<split pos="right">
				<output> -0.61750257 </output>
			</split>
		</split>
	</tree>
	<tree id="49" weight="0.1">
		<split>
			<feature> 1 </feature>
			<threshold> 9.112282 </threshold>
			<split pos="left">
				<feature> 1 </feature>
				<threshold> 7.5935655 </threshold>
				<split pos="left">
					<feature> 1 </feature>
					<threshold> 7.1379504 </threshold>
					<split pos="left">
						<feature> 1 </feature>
						<threshold> 6.2267203 </threshold>
						<split pos="left">
							<feature> 2 </feature>
							<threshold> 13.03938 </threshold>
							<split pos="left">
								<feature> 2 </feature>
								<threshold> 12.597367 </threshold>
								<split pos="left">
									<feature> 2 </feature>
									<threshold> 11.823845 </threshold>
									<split pos="left">
										<feature> 2 </feature>
										<threshold> 11.6028385 </threshold>
										<split pos="left">
											<feature> 2 </feature>
											<threshold> 6.2986846 </threshold>
											<split pos="left">
												<output> 2.4128343E-4 </output>
											</split>
											<split pos="right">
												<output> 0.021470686 </output>
											</split>
										</split>
										<split pos="right">
											<output> 0.38894626 </output>
										</split>
									</split>
									<split pos="right">
										<output> -0.2216786 </output>
									</split>
								</split>
								<split pos="right">
									<output> 0.48452336 </output>
								</split>
							</split>
							<split pos="right">
								<output> -0.4626904 </output>
							</split>
						</split>
						<split pos="right">
							<output> 0.16450836 </output>
						</split>
					</split>
					<split pos="right">
						<output> -0.2265858 </output>
					</split>
				</split>
				<split pos="right">
					<output> 0.33012733 </output>
				</split>
			</split>
			<split pos="right">
				<output> -0.55575234 </output>
			</split>
		</split>
	</tree>
	<tree id="50" weight="0.1">
		<split>
			<feature> 1 </feature>
			<threshold> 9.770392 </threshold>
			<split pos="left">
				<feature> 2 </feature>
				<threshold> 13.923406 </threshold>
				<split pos="left">
					<feature> 1 </feature>
					<threshold> 7.9479327 </threshold>
					<split pos="left">
						<feature> 1 </feature>
						<threshold> 7.846685 </threshold>
						<split pos="left">
							<feature> 2 </feature>
							<threshold> 2.210066 </threshold>
							<split pos="left">
								<feature> 1 </feature>
								<threshold> 1.5187098 </threshold>
								<split pos="left">
									<feature> 1 </feature>
									<threshold> 1.4680861 </threshold>
									<split pos="left">
										<feature> 1 </feature>
										<threshold> 1.3668388 </threshold>
										<split pos="left">
											<feature> 2 </feature>
											<threshold> 1.7680529 </threshold>
											<split pos="left">
												<output> 1.9725572E-4 </output>
											</split>
											<split pos="right">
												<output> -0.0025860292 </output>
											</split>
										</split>
										<split pos="right">
											<output> 0.011256896 </output>
										</split>
									</split>
									<split pos="right">
										<output> -0.018486628 </output>
									</split>
								</split>
								<split pos="right">
									<output> 0.017492604 </output>
								</split>
							</split>
							<split pos="right">
								<output> 0.0037750173 </output>
							</split>
						</split>
						<split pos="right">
							<output> 1.3236561 </output>
						</split>
					</split>
					<split pos="right">
						<output> -0.7937358 </output>
					</split>
				</split>
				<split pos="right">
					<output> 0.24029176 </output>
				</split>
			</split>
			<split pos="right">
				<output> -0.8194659 </output>
			</split>
		</split>
	</tree>
	<tree id="51" weight="0.1">
		<split>
			<feature> 2 </feature>
			<threshold> 12.818374 </threshold>
			<split pos="left">
				<feature> 1 </feature>
				<threshold> 6.834207 </threshold>
				<split pos="left">
					<feature> 2 </feature>
					<threshold> 9.503278 </threshold>
					<split pos="left">
						<feature> 2 </feature>
						<threshold> 9.282271 </threshold>
						<split pos="left">
							<feature> 1 </feature>
							<threshold> 6.0748487 </threshold>
							<split pos="left">
								<feature> 2 </feature>
								<threshold> 8.619252 </threshold>
								<split pos="left">
									<feature> 2 </feature>
									<threshold> 8.508749 </threshold>
									<split pos="left">
										<feature> 1 </feature>
										<threshold> 4.556132 </threshold>
										<split pos="left">
											<feature> 1 </feature>
											<threshold> 3.847398 </threshold>
											<split pos="left">
												<output> 2.3180836E-4 </output>
											</split>
											<split pos="right">
												<output> 0.048998088 </output>
											</split>
										</split>
										<split pos="right">
											<output> -0.08645999 </output>
										</split>
									</split>
									<split pos="right">
										<output> -0.22270362 </output>
									</split>
								</split>
								<split pos="right">
									<output> 0.13149394 </output>
								</split>
							</split>
							<split pos="right">
								<output> -1.1022335 </output>
							</split>
						</split>
						<split pos="right">
							<output> -0.24175258 </output>
						</split>
					</split>
					<split pos="right">
						<output> 0.06767105 </output>
					</split>
				</split>
				<split pos="right">
					<output> -0.30907497 </output>
				</split>
			</split>
			<split pos="right">
				<output> 0.12160292 </output>
			</split>
		</split>
	</tree>
	<tree id="52" weight="0.1">
		<split>
			<feature> 1 </feature>
			<threshold> 9.112282 </threshold>
			<split pos="left">
				<feature> 1 </feature>
				<threshold> 7.441694 </threshold>
				<split pos="left">
					<feature> 1 </feature>
					<threshold> 7.1379504 </threshold>
					<split pos="left">
						<feature> 1 </feature>
						<threshold> 6.1760964 </threshold>
						<split pos="left">
							<feature> 1 </feature>
							<threshold> 6.1254725 </threshold>
							<split pos="left">
								<feature> 2 </feature>
								<threshold> 13.923406 </threshold>
								<split pos="left">
									<feature> 2 </feature>
									<threshold> 1.3260397 </threshold>
									<split pos="left">
										<feature> 1 </feature>
										<threshold> 0.80997854 </threshold>
										<split pos="left">
											<feature> 2 </feature>
											<threshold> 1.105033 </threshold>
											<split pos="left">
												<output> 1.1607372E-4 </output>
											</split>
											<split pos="right">
												<output> 0.0018926467 </output>
											</split>
										</split>
										<split pos="right">
											<output> 0.0026837615 </output>
										</split>
									</split>
									<split pos="right">
										<output> 0.0021406298 </output>
									</split>
								</split>
								<split pos="right">
									<output> -0.69682026 </output>
								</split>
							</split>
							<split pos="right">
								<output> -0.6274932 </output>
							</split>
						</split>
						<split pos="right">
							<output> 0.13736773 </output>
						</split>
					</split>
					<split pos="right">
						<output> -0.3782484 </output>
					</split>
				</split>
				<split pos="right">
					<output> 0.25428572 </output>
				</split>
			</split>
			<split pos="right">
				<output> -0.48363596 </output>
			</split>
		</split>
	</tree>
	<tree id="53" weight="0.1">
		<split>
			<feature> 1 </feature>
			<threshold> 9.770392 </threshold>
			<split pos="left">
				<feature> 2 </feature>
				<threshold> 13.923406 </threshold>
				<split pos="left">
					<feature> 1 </feature>
					<threshold> 7.9479327 </threshold>
					<split pos="left">
						<feature> 1 </feature>
						<threshold> 7.846685 </threshold>
						<split pos="left">
							<feature> 2 </feature>
							<threshold> 13.260386 </threshold>
							<split pos="left">
								<feature> 2 </feature>
								<threshold> 12.818374 </threshold>
								<split pos="left">
									<feature> 2 </feature>
									<threshold> 12.376361 </threshold>
									<split pos="left">
										<feature> 2 </feature>
										<threshold> 11.934348 </threshold>
										<split pos="left">
											<feature> 2 </feature>
											<threshold> 11.823845 </threshold>
											<split pos="left">
												<output> 2.1159387E-4 </output>
											</split>
											<split pos="right">
												<output> -0.7279352 </output>
											</split>
										</split>
										<split pos="right">
											<output> 0.2562385 </output>
										</split>
									</split>
									<split pos="right">
										<output> -0.2761147 </output>
									</split>
								</split>
								<split pos="right">
									<output> 0.3759395 </output>
								</split>
							</split>
							<split pos="right">
								<output> -0.2213845 </output>
							</split>
						</split>
						<split pos="right">
							<output> 1.1537017 </output>
						</split>
					</split>
					<split pos="right">
						<output> -0.73196006 </output>
					</split>
				</split>
				<split pos="right">
					<output> 0.19700265 </output>
				</split>
			</split>
			<split pos="right">
				<output> -0.701316 </output>
			</split>
		</split>
	</tree>
	<tree id="54" weight="0.1">
		<split>
			<feature> 2 </feature>
			<threshold> 7.8457294 </threshold>
			<split pos="left">
				<feature> 1 </feature>
				<threshold> 4.100517 </threshold>
				<split pos="left">
					<feature> 1 </feature>
					<threshold> 3.8980217 </threshold>
					<split pos="left">
						<feature> 2 </feature>
						<threshold> 6.519691 </threshold>
						<split pos="left">
							<feature> 2 </feature>
							<threshold> 6.1881814 </threshold>
							<split pos="left">
								<feature> 2 </feature>
								<threshold> 5.7461686 </threshold>
								<split pos="left">
									<feature> 1 </feature>
									<threshold> 3.3411615 </threshold>
									<split pos="left">
										<feature> 2 </feature>
										<threshold> 5.304156 </threshold>
										<split pos="left">
											<feature> 1 </feature>
											<threshold> 2.7843013 </threshold>
											<split pos="left">
												<output> 2.0420963E-4 </output>
											</split>
											<split pos="right">
												<output> -0.019920148 </output>
											</split>
										</split>
										<split pos="right">
											<output> 0.043314874 </output>
										</split>
									</split>
									<split pos="right">
										<output> -0.07380226 </output>
									</split>
								</split>
								<split pos="right">
									<output> 0.07084768 </output>
								</split>
							</split>
							<split pos="right">
								<output> -0.067920685 </output>
							</split>
						</split>
						<split pos="right">
							<output> 0.04584037 </output>
						</split>
					</split>
					<split pos="right">
						<output> 0.14428808 </output>
					</split>
				</split>
				<split pos="right">
					<output> -0.115235314 </output>
				</split>
			</split>
			<split pos="right">
				<output> 0.031960294 </output>
			</split>
		</split>
	</tree>
	<tree id="55" weight="0.1">
		<split>
			<feature> 2 </feature>
			<threshold> 17.680529 </threshold>
			<split pos="left">
				<feature> 1 </feature>
				<threshold> 7.441694 </threshold>
				<split pos="left">
					<feature> 1 </feature>
					<threshold> 7.1379504 </threshold>
					<split pos="left">
						<feature> 1 </feature>
						<threshold> 6.1760964 </threshold>
						<split pos="left">
							<feature> 1 </feature>
							<threshold> 6.1254725 </threshold>
							<split pos="left">
								<feature> 2 </feature>
								<threshold> 13.923406 </threshold>
								<split pos="left">
									<feature> 2 </feature>
									<threshold> 13.481393 </threshold>
									<split pos="left">
										<feature> 2 </feature>
										<threshold> 13.37089 </threshold>
										<split pos="left">
											<feature> 1 </feature>
											<threshold> 4.910499 </threshold>
											<split pos="left">
												<output> 1.8791745E-4 </output>
											</split>
											<split pos="right">
												<output> 0.047027685 </output>
											</split>
										</split>
										<split pos="right">
											<output> -0.93767196 </output>
										</split>
									</split>
									<split pos="right">
										<output> 0.7289946 </output>
									</split>
								</split>
								<split pos="right">
									<output> -0.65003455 </output>
								</split>
							</split>
							<split pos="right">
								<output> -0.57931244 </output>
							</split>
						</split>
						<split pos="right">
							<output> 0.117508575 </output>
						</split>
					</split>
					<split pos="right">
						<output> -0.34070885 </output>
					</split>
				</split>
				<split pos="right">
					<output> 0.20026055 </output>
				</split>
			</split>
