## MART
## No. of trees = 1000
## No. of leaves = 10
## No. of threshold candidates = 256
## Learning rate = 0.1
## Stop early = 100

<ensemble>
	<tree id="1" weight="0.1">
		<split>
			<feature> 2 </feature>
			<threshold> 3.2045949 </threshold>
			<split pos="left">
				<feature> 1 </feature>
				<threshold> 0.7593549 </threshold>
				<split pos="left">
					<feature> 4 </feature>
					<threshold> 0.0037213496 </threshold>
					<split pos="left">
						<output> 0.010777646 </output>
					</split>
					<split pos="right">
						<feature> 1 </feature>
						<threshold> 0.0 </threshold>
						<split pos="left">
							<feature> 4 </feature>
							<threshold> 0.028530352 </threshold>
							<split pos="left">
								<feature> 4 </feature>
								<threshold> 0.014265169 </threshold>
								<split pos="left">
									<feature> 4 </feature>
									<threshold> 0.0055820243 </threshold>
									<split pos="left">
										<output> 0.018843552 </output>
									</split>
									<split pos="right">
										<feature> 3 </feature>
										<threshold> 0.0 </threshold>
										<split pos="left">
											<output> 0.0070319367 </output>
										</split>
										<split pos="right">
											<output> 0.021574637 </output>
										</split>
									</split>
								</split>
								<split pos="right">
									<feature> 4 </feature>
									<threshold> 0.022328097 </threshold>
									<split pos="left">
										<output> 0.023880392 </output>
									</split>
									<split pos="right">
										<output> 0.026982665 </output>
									</split>
								</split>
							</split>
							<split pos="right">
								<output> 0.03728036 </output>
							</split>
						</split>
						<split pos="right">
							<output> 0.04592664 </output>
						</split>
					</split>
				</split>
				<split pos="right">
					<output> 0.09397896 </output>
				</split>
			</split>
			<split pos="right">
				<output> 0.40618974 </output>
			</split>
		</split>
	</tree>
	<tree id="2" weight="0.1">
		<split>
			<feature> 2 </feature>
			<threshold> 3.7571108 </threshold>
			<split pos="left">
				<feature> 1 </feature>
				<threshold> 1.0124732 </threshold>
				<split pos="left">
					<feature> 1 </feature>
					<threshold> 0.35436562 </threshold>
					<split pos="left">
						<feature> 4 </feature>
						<threshold> 0.0031011247 </threshold>
						<split pos="left">
							<output> 0.008554444 </output>
						</split>
						<split pos="right">
							<feature> 4 </feature>
							<threshold> 0.031011254 </threshold>
							<split pos="left">
								<feature> 2 </feature>
								<threshold> 0.0 </threshold>
								<split pos="left">
									<feature> 4 </feature>
									<threshold> 0.014885394 </threshold>
									<split pos="left">
										<feature> 4 </feature>
										<threshold> 0.0055820243 </threshold>
										<split pos="left">
											<output> 0.016749013 </output>
										</split>
										<split pos="right">
											<output> 0.019085111 </output>
										</split>
									</split>
									<split pos="right">
										<feature> 4 </feature>
										<threshold> 0.024809 </threshold>
										<split pos="left">
											<output> 0.022220276 </output>
										</split>
										<split pos="right">
											<output> 0.025604527 </output>
										</split>
									</split>
								</split>
								<split pos="right">
									<output> 0.032293987 </output>
								</split>
							</split>
							<split pos="right">
								<output> 0.036621895 </output>
							</split>
						</split>
					</split>
					<split pos="right">
						<output> 0.043219544 </output>
					</split>
				</split>
				<split pos="right">
					<output> 0.11721316 </output>
				</split>
			</split>
			<split pos="right">
				<output> 0.46123526 </output>
			</split>
		</split>
	</tree>
	<tree id="3" weight="0.1">
		<split>
			<feature> 2 </feature>
			<threshold> 2.8730853 </threshold>
			<split pos="left">
				<feature> 1 </feature>
				<threshold> 0.6581076 </threshold>
				<split pos="left">
					<feature> 4 </feature>
					<threshold> 0.0024808997 </threshold>
					<split pos="left">
						<output> 0.0073285196 </output>
					</split>
					<split pos="right">
						<feature> 2 </feature>
						<threshold> 0.0 </threshold>
						<split pos="left">
							<feature> 4 </feature>
							<threshold> 0.034732595 </threshold>
							<split pos="left">
								<feature> 4 </feature>
								<threshold> 0.022328097 </threshold>
								<split pos="left">
									<feature> 4 </feature>
									<threshold> 0.012404496 </threshold>
									<split pos="left">
										<feature> 4 </feature>
										<threshold> 0.0055820243 </threshold>
										<split pos="left">
											<output> 0.014730201 </output>
										</split>
										<split pos="right">
											<output> 0.017363094 </output>
										</split>
									</split>
									<split pos="right">
										<feature> 3 </feature>
										<threshold> 0.0 </threshold>
										<split pos="left">
											<output> 0.0067295725 </output>
										</split>
										<split pos="right">
											<output> 0.019575529 </output>
										</split>
									</split>
								</split>
								<split pos="right">
									<output> 0.022954969 </output>
								</split>
							</split>
							<split pos="right">
								<output> 0.037285496 </output>
							</split>
						</split>
						<split pos="right">
							<output> 0.033731695 </output>
						</split>
					</split>
				</split>
				<split pos="right">
					<output> 0.06591129 </output>
				</split>
			</split>
			<split pos="right">
				<output> 0.29068312 </output>
			</split>
		</split>
	</tree>
	<tree id="4" weight="0.1">
		<split>
			<feature> 2 </feature>
			<threshold> 3.867614 </threshold>
			<split pos="left">
				<feature> 1 </feature>
				<threshold> 0.9618495 </threshold>
				<split pos="left">
					<feature> 4 </feature>
					<threshold> 0.0049617994 </threshold>
					<split pos="left">
						<output> 0.008587529 </output>
					</split>
					<split pos="right">
						<feature> 2 </feature>
						<threshold> 0.44201317 </threshold>
						<split pos="left">
							<feature> 4 </feature>
							<threshold> 0.03535282 </threshold>
							<split pos="left">
								<feature> 1 </feature>
								<threshold> 0.0 </threshold>
								<split pos="left">
									<feature> 4 </feature>
									<threshold> 0.02604945 </threshold>
									<split pos="left">
										<feature> 4 </feature>
										<threshold> 0.012404496 </threshold>
										<split pos="left">
											<output> 0.015295506 </output>
										</split>
										<split pos="right">
											<feature> 4 </feature>
											<threshold> 0.021707872 </threshold>
											<split pos="left">
												<output> 0.017542755 </output>
											</split>
											<split pos="right">
												<output> 0.018736882 </output>
											</split>
										</split>
									</split>
									<split pos="right">
										<output> 0.022220476 </output>
									</split>
								</split>
								<split pos="right">
									<output> 0.027196804 </output>
								</split>
							</split>
							<split pos="right">
								<output> 0.034940254 </output>
							</split>
						</split>
						<split pos="right">
							<output> 0.042127483 </output>
						</split>
					</split>
				</split>
				<split pos="right">
					<output> 0.092201896 </output>
				</split>
			</split>
			<split pos="right">
				<output> 0.40324843 </output>
			</split>
		</split>
	</tree>
	<tree id="5" weight="0.1">
		<split>
			<feature> 1 </feature>
			<threshold> 2.9361722 </threshold>
			<split pos="left">
				<feature> 2 </feature>
				<threshold> 2.099563 </threshold>
				<split pos="left">
					<feature> 2 </feature>
					<threshold> 0.6630198 </threshold>
					<split pos="left">
						<feature> 4 </feature>
						<threshold> 0.0018606747 </threshold>
						<split pos="left">
							<output> 0.0050602998 </output>
						</split>
						<split pos="right">
							<feature> 4 </feature>
							<threshold> 0.03535282 </threshold>
							<split pos="left">
								<feature> 1 </feature>
								<threshold> 0.0 </threshold>
								<split pos="left">
									<feature> 4 </feature>
									<threshold> 0.022328097 </threshold>
									<split pos="left">
										<feature> 4 </feature>
										<threshold> 0.0062022493 </threshold>
										<split pos="left">
											<output> 0.012155252 </output>
										</split>
										<split pos="right">
											<feature> 4 </feature>
											<threshold> 0.01302472 </threshold>
											<split pos="left">
												<output> 0.013691709 </output>
											</split>
											<split pos="right">
												<output> 0.015731085 </output>
											</split>
										</split>
									</split>
									<split pos="right">
										<output> 0.018734112 </output>
									</split>
								</split>
								<split pos="right">
									<output> 0.023741513 </output>
								</split>
							</split>
							<split pos="right">
								<output> 0.032729387 </output>
							</split>
						</split>
					</split>
					<split pos="right">
						<output> 0.03938597 </output>
					</split>
				</split>
				<split pos="right">
					<output> 0.1260241 </output>
				</split>
			</split>
			<split pos="right">
				<output> 0.62108016 </output>
			</split>
		</split>
	</tree>
	<tree id="6" weight="0.1">
		<split>
			<feature> 2 </feature>
			<threshold> 4.309627 </threshold>
			<split pos="left">
				<feature> 1 </feature>
				<threshold> 1.0124732 </threshold>
				<split pos="left">
					<feature> 4 </feature>
					<threshold> 0.0043415744 </threshold>
					<split pos="left">
						<output> 0.0064131776 </output>
					</split>
					<split pos="right">
						<feature> 2 </feature>
						<threshold> 0.44201317 </threshold>
						<split pos="left">
							<feature> 4 </feature>
							<threshold> 0.03535282 </threshold>
							<split pos="left">
								<feature> 1 </feature>
								<threshold> 0.0 </threshold>
								<split pos="left">
									<feature> 4 </feature>
									<threshold> 0.02604945 </threshold>
									<split pos="left">
										<feature> 4 </feature>
										<threshold> 0.013644945 </threshold>
										<split pos="left">
											<feature> 3 </feature>
											<threshold> 0.0 </threshold>
											<split pos="left">
												<output> -5.707243E-4 </output>
											</split>
											<split pos="right">
												<output> 0.012927668 </output>
											</split>
										</split>
										<split pos="right">
											<output> 0.014133692 </output>
										</split>
									</split>
									<split pos="right">
										<output> 0.018173056 </output>
									</split>
								</split>
								<split pos="right">
									<output> 0.02180163 </output>
								</split>
							</split>
							<split pos="right">
								<output> 0.028199777 </output>
							</split>
						</split>
						<split pos="right">
							<output> 0.034244716 </output>
						</split>
					</split>
				</split>
				<split pos="right">
					<output> 0.082057185 </output>
				</split>
			</split>
			<split pos="right">
				<output> 0.3939033 </output>
			</split>
		</split>
	</tree>
	<tree id="7" weight="0.1">
		<split>
			<feature> 2 </feature>
			<threshold> 6.2986846 </threshold>
			<split pos="left">
				<feature> 2 </feature>
				<threshold> 2.4310725 </threshold>
				<split pos="left">
					<feature> 1 </feature>
					<threshold> 0.55686027 </threshold>
					<split pos="left">
						<feature> 4 </feature>
						<threshold> 0.0018606747 </threshold>
						<split pos="left">
							<output> 0.003838284 </output>
						</split>
						<split pos="right">
							<feature> 4 </feature>
							<threshold> 0.026669675 </threshold>
							<split pos="left">
								<feature> 1 </feature>
								<threshold> 0.0 </threshold>
								<split pos="left">
									<feature> 4 </feature>
									<threshold> 0.012404496 </threshold>
									<split pos="left">
										<feature> 4 </feature>
										<threshold> 0.0031011247 </threshold>
										<split pos="left">
											<output> 0.009202439 </output>
										</split>
										<split pos="right">
											<output> 0.011156225 </output>
										</split>
									</split>
									<split pos="right">
										<feature> 4 </feature>
										<threshold> 0.01798652 </threshold>
										<split pos="left">
											<output> 0.0120085 </output>
										</split>
										<split pos="right">
											<output> 0.013052354 </output>
										</split>
									</split>
								</split>
								<split pos="right">
									<output> 0.0180362 </output>
								</split>
							</split>
							<split pos="right">
								<output> 0.020649975 </output>
							</split>
						</split>
					</split>
					<split pos="right">
						<output> 0.035835575 </output>
					</split>
				</split>
				<split pos="right">
					<output> 0.12795544 </output>
				</split>
			</split>
			<split pos="right">
				<output> 0.74810314 </output>
			</split>
		</split>
	</tree>
	<tree id="8" weight="0.1">
		<split>
			<feature> 1 </feature>
			<threshold> 2.9361722 </threshold>
			<split pos="left">
				<feature> 1 </feature>
				<threshold> 1.2655915 </threshold>
				<split pos="left">
					<feature> 1 </feature>
					<threshold> 0.55686027 </threshold>
					<split pos="left">
						<feature> 4 </feature>
						<threshold> 0.0024808997 </threshold>
						<split pos="left">
							<output> 0.004096352 </output>
						</split>
						<split pos="right">
							<feature> 4 </feature>
							<threshold> 0.03535282 </threshold>
							<split pos="left">
								<feature> 2 </feature>
								<threshold> 0.0 </threshold>
								<split pos="left">
									<feature> 4 </feature>
									<threshold> 0.022328097 </threshold>
									<split pos="left">
										<feature> 4 </feature>
										<threshold> 0.012404496 </threshold>
										<split pos="left">
											<feature> 3 </feature>
											<threshold> 0.0 </threshold>
											<split pos="left">
												<output> -0.0027618208 </output>
											</split>
											<split pos="right">
												<output> 0.009611296 </output>
											</split>
										</split>
										<split pos="right">
											<output> 0.011455174 </output>
										</split>
									</split>
									<split pos="right">
										<output> 0.01350803 </output>
									</split>
								</split>
								<split pos="right">
									<output> 0.01752851 </output>
								</split>
							</split>
							<split pos="right">
								<output> 0.024918351 </output>
							</split>
						</split>
					</split>
					<split pos="right">
						<output> 0.029922625 </output>
					</split>
				</split>
				<split pos="right">
					<output> 0.09222483 </output>
				</split>
			</split>
			<split pos="right">
				<output> 0.4787144 </output>
			</split>
		</split>
	</tree>
	<tree id="9" weight="0.1">
		<split>
			<feature> 2 </feature>
			<threshold> 6.2986846 </threshold>
			<split pos="left">
				<feature> 2 </feature>
				<threshold> 2.8730853 </threshold>
				<split pos="left">
					<feature> 2 </feature>
					<threshold> 1.3260397 </threshold>
					<split pos="left">
						<feature> 4 </feature>
						<threshold> 0.0062022493 </threshold>
						<split pos="left">
							<output> 0.004922349 </output>
						</split>
						<split pos="right">
							<feature> 1 </feature>
							<threshold> 0.30374196 </threshold>
							<split pos="left">
								<feature> 4 </feature>
								<threshold> 0.03721349 </threshold>
								<split pos="left">
									<feature> 4 </feature>
									<threshold> 0.024809 </threshold>
									<split pos="left">
										<feature> 1 </feature>
										<threshold> 0.0 </threshold>
										<split pos="left">
											<feature> 4 </feature>
											<threshold> 0.016125843 </threshold>
											<split pos="left">
												<output> 0.009541389 </output>
											</split>
											<split pos="right">
												<output> 0.010609992 </output>
											</split>
										</split>
										<split pos="right">
											<output> 0.016465753 </output>
										</split>
									</split>
									<split pos="right">
										<output> 0.012939092 </output>
									</split>
								</split>
								<split pos="right">
									<output> 0.021929748 </output>
								</split>
							</split>
							<split pos="right">
								<output> 0.023997018 </output>
							</split>
						</split>
					</split>
					<split pos="right">
						<output> 0.04148574 </output>
					</split>
				</split>
				<split pos="right">
					<output> 0.13676283 </output>
				</split>
			</split>
			<split pos="right">
				<output> 0.62651163 </output>
			</split>
		</split>
	</tree>
	<tree id="10" weight="0.1">
		<split>
			<feature> 2 </feature>
			<threshold> 3.6466076 </threshold>
			<split pos="left">
				<feature> 1 </feature>
				<threshold> 0.91122586 </threshold>
				<split pos="left">
					<feature> 4 </feature>
					<threshold> 0.0031011247 </threshold>
					<split pos="left">
						<output> 0.0034252577 </output>
					</split>
					<split pos="right">
						<feature> 1 </feature>
						<threshold> 0.35436562 </threshold>
						<split pos="left">
							<feature> 4 </feature>
							<threshold> 0.031011254 </threshold>
							<split pos="left">
								<feature> 1 </feature>
								<threshold> 0.0 </threshold>
								<split pos="left">
									<feature> 4 </feature>
									<threshold> 0.01798652 </threshold>
									<split pos="left">
										<feature> 3 </feature>
										<threshold> 0.0 </threshold>
										<split pos="left">
											<output> -0.0031666143 </output>
										</split>
										<split pos="right">
											<feature> 4 </feature>
											<threshold> 0.008683149 </threshold>
											<split pos="left">
												<output> 0.0080694575 </output>
											</split>
											<split pos="right">
												<output> 0.008753777 </output>
											</split>
										</split>
									</split>
									<split pos="right">
										<output> 0.010050079 </output>
									</split>
								</split>
								<split pos="right">
									<output> 0.013180515 </output>
								</split>
							</split>
							<split pos="right">
								<output> 0.016275104 </output>
							</split>
						</split>
						<split pos="right">
							<output> 0.019938942 </output>
						</split>
					</split>
				</split>
				<split pos="right">
					<output> 0.04530386 </output>
				</split>
			</split>
			<split pos="right">
				<output> 0.2173061 </output>
			</split>
		</split>
	</tree>
	<tree id="11" weight="0.1">
		<split>
			<feature> 2 </feature>
			<threshold> 6.2986846 </threshold>
			<split pos="left">
				<feature> 2 </feature>
				<threshold> 2.8730853 </threshold>
				<split pos="left">
					<feature> 4 </feature>
					<threshold> 0.031011254 </threshold>
					<split pos="left">
						<feature> 4 </feature>
						<threshold> 0.008683149 </threshold>
						<split pos="left">
							<feature> 2 </feature>
							<threshold> 1.2155364 </threshold>
							<split pos="left">
								<output> 0.0048014782 </output>
							</split>
							<split pos="right">
								<output> -0.010350102 </output>
							</split>
						</split>
						<split pos="right">
							<feature> 1 </feature>
							<threshold> 0.6581076 </threshold>
							<split pos="left">
								<feature> 1 </feature>
								<threshold> 0.0 </threshold>
								<split pos="left">
									<feature> 4 </feature>
									<threshold> 0.021707872 </threshold>
									<split pos="left">
										<feature> 3 </feature>
										<threshold> 0.0 </threshold>
										<split pos="left">
											<output> -3.5694873E-4 </output>
										</split>
										<split pos="right">
											<output> 0.008025146 </output>
										</split>
									</split>
									<split pos="right">
										<output> 0.009383047 </output>
									</split>
								</split>
								<split pos="right">
									<output> 0.015202918 </output>
								</split>
							</split>
							<split pos="right">
								<output> 0.02998938 </output>
							</split>
						</split>
					</split>
					<split pos="right">
						<output> 0.028865635 </output>
					</split>
				</split>
				<split pos="right">
					<output> 0.110494114 </output>
				</split>
			</split>
			<split pos="right">
				<output> 0.5421648 </output>
			</split>
		</split>
	</tree>
	<tree id="12" weight="0.1">
		<split>
			<feature> 1 </feature>
			<threshold> 3.3917851 </threshold>
			<split pos="left">
				<feature> 2 </feature>
				<threshold> 2.099563 </threshold>
				<split pos="left">
					<feature> 4 </feature>
					<threshold> 0.02604945 </threshold>
					<split pos="left">
						<feature> 4 </feature>
						<threshold> 0.0012404498 </threshold>
						<split pos="left">
							<output> 0.0011712984 </output>
						</split>
						<split pos="right">
							<feature> 4 </feature>
							<threshold> 0.012404496 </threshold>
							<split pos="left">
								<feature> 2 </feature>
								<threshold> 0.9945297 </threshold>
								<split pos="left">
									<feature> 4 </feature>
									<threshold> 0.0049617994 </threshold>
									<split pos="left">
										<output> 0.0059459303 </output>
									</split>
									<split pos="right">
										<output> 0.007046563 </output>
									</split>
								</split>
								<split pos="right">
									<output> -7.2528387E-4 </output>
								</split>
							</split>
							<split pos="right">
								<feature> 1 </feature>
								<threshold> 0.45561293 </threshold>
								<split pos="left">
									<feature> 1 </feature>
									<threshold> 0.0 </threshold>
									<split pos="left">
										<output> 0.0074319323 </output>
									</split>
									<split pos="right">
										<output> 0.01271722 </output>
									</split>
								</split>
								<split pos="right">
									<output> 0.021482388 </output>
								</split>
							</split>
						</split>
					</split>
					<split pos="right">
						<output> 0.017385013 </output>
					</split>
				</split>
				<split pos="right">
					<output> 0.06748251 </output>
				</split>
			</split>
			<split pos="right">
				<output> 0.47165322 </output>
			</split>
		</split>
	</tree>
	<tree id="13" weight="0.1">
		<split>
			<feature> 2 </feature>
			<threshold> 6.630194 </threshold>
			<split pos="left">
				<feature> 1 </feature>
				<threshold> 1.6199571 </threshold>
				<split pos="left">
					<feature> 4 </feature>
					<threshold> 0.03721349 </threshold>
					<split pos="left">
						<feature> 4 </feature>
						<threshold> 0.014265169 </threshold>
						<split pos="left">
							<feature> 2 </feature>
							<threshold> 2.099563 </threshold>
							<split pos="left">
								<feature> 4 </feature>
								<threshold> 0.0012404498 </threshold>
								<split pos="left">
									<output> 0.0010559525 </output>
								</split>
								<split pos="right">
									<feature> 2 </feature>
									<threshold> 0.9945297 </threshold>
									<split pos="left">
										<feature> 3 </feature>
										<threshold> 0.0 </threshold>
										<split pos="left">
											<output> -0.006011078 </output>
										</split>
										<split pos="right">
											<output> 0.006057242 </output>
										</split>
									</split>
									<split pos="right">
										<output> 6.4323156E-4 </output>
									</split>
								</split>
							</split>
							<split pos="right">
								<output> -0.025865585 </output>
							</split>
						</split>
						<split pos="right">
							<feature> 1 </feature>
							<threshold> 0.6581076 </threshold>
							<split pos="left">
								<output> 0.0076849214 </output>
							</split>
							<split pos="right">
								<output> 0.03690219 </output>
							</split>
						</split>
					</split>
					<split pos="right">
						<output> 0.03587073 </output>
					</split>
				</split>
				<split pos="right">
					<output> 0.08661317 </output>
				</split>
			</split>
			<split pos="right">
				<output> 0.49772578 </output>
			</split>
		</split>
	</tree>
	<tree id="14" weight="0.1">
		<split>
			<feature> 1 </feature>
			<threshold> 2.834925 </threshold>
			<split pos="left">
				<feature> 1 </feature>
				<threshold> 1.1137205 </threshold>
				<split pos="left">
					<feature> 4 </feature>
					<threshold> 0.036593266 </threshold>
					<split pos="left">
						<feature> 4 </feature>
						<threshold> 0.0055820243 </threshold>
						<split pos="left">
							<output> 0.0026206279 </output>
						</split>
						<split pos="right">
							<feature> 2 </feature>
							<threshold> 0.44201317 </threshold>
							<split pos="left">
								<feature> 1 </feature>
								<threshold> 0.0 </threshold>
								<split pos="left">
									<feature> 3 </feature>
									<threshold> 0.0 </threshold>
									<split pos="left">
										<output> -0.0059797494 </output>
									</split>
									<split pos="right">
										<feature> 4 </feature>
										<threshold> 0.016746068 </threshold>
										<split pos="left">
											<feature> 4 </feature>
											<threshold> 0.0074426993 </threshold>
											<split pos="left">
												<output> 0.005844658 </output>
											</split>
											<split pos="right">
												<output> 0.0056564608 </output>
											</split>
										</split>
										<split pos="right">
											<output> 0.0062469877 </output>
										</split>
									</split>
								</split>
								<split pos="right">
									<output> 0.009812412 </output>
								</split>
							</split>
							<split pos="right">
								<output> 0.014745983 </output>
							</split>
						</split>
					</split>
					<split pos="right">
						<output> 0.02243752 </output>
					</split>
				</split>
				<split pos="right">
					<output> 0.0447847 </output>
				</split>
			</split>
			<split pos="right">
				<output> 0.2708459 </output>
			</split>
		</split>
	</tree>
	<tree id="15" weight="0.1">
		<split>
			<feature> 2 </feature>
			<threshold> 6.630194 </threshold>
			<split pos="left">
				<feature> 4 </feature>
				<threshold> 0.040314607 </threshold>
				<split pos="left">
					<feature> 4 </feature>
					<threshold> 0.021707872 </threshold>
					<split pos="left">
						<feature> 2 </feature>
						<threshold> 2.762582 </threshold>
						<split pos="left">
							<feature> 4 </feature>
							<threshold> 0.0 </threshold>
							<split pos="left">
								<output> -4.8813797E-4 </output>
							</split>
							<split pos="right">
								<feature> 1 </feature>
								<threshold> 1.7212044 </threshold>
								<split pos="left">
									<feature> 2 </feature>
									<threshold> 2.099563 </threshold>
									<split pos="left">
										<feature> 4 </feature>
										<threshold> 0.0068224743 </threshold>
										<split pos="left">
											<output> 0.0037059553 </output>
										</split>
										<split pos="right">
											<feature> 1 </feature>
											<threshold> 0.0 </threshold>
											<split pos="left">
												<output> 0.0052122395 </output>
											</split>
											<split pos="right">
												<output> 0.009480522 </output>
											</split>
										</split>
									</split>
									<split pos="right">
										<output> -0.013587213 </output>
									</split>
								</split>
								<split pos="right">
									<output> 0.049663894 </output>
								</split>
							</split>
						</split>
						<split pos="right">
							<output> -0.03545447 </output>
						</split>
					</split>
					<split pos="right">
						<output> 0.013040479 </output>
					</split>
				</split>
				<split pos="right">
					<output> 0.05610598 </output>
				</split>
			</split>
			<split pos="right">
				<output> 0.42095652 </output>
			</split>
		</split>
	</tree>
	<tree id="16" weight="0.1">
		<split>
			<feature> 2 </feature>
			<threshold> 4.309627 </threshold>
			<split pos="left">
				<feature> 1 </feature>
				<threshold> 1.0124732 </threshold>
				<split pos="left">
					<feature> 1 </feature>
					<threshold> 0.45561293 </threshold>
					<split pos="left">
						<feature> 4 </feature>
						<threshold> 0.0 </threshold>
						<split pos="left">
							<output> -4.14039E-4 </output>
						</split>
						<split pos="right">
							<feature> 4 </feature>
							<threshold> 0.0018606747 </threshold>
							<split pos="left">
								<output> 0.0027795627 </output>
							</split>
							<split pos="right">
								<feature> 1 </feature>
								<threshold> 0.0 </threshold>
								<split pos="left">
									<feature> 4 </feature>
									<threshold> 0.07504713 </threshold>
									<split pos="left">
										<feature> 4 </feature>
										<threshold> 0.047137067 </threshold>
										<split pos="left">
											<feature> 3 </feature>
											<threshold> 0.0 </threshold>
											<split pos="left">
												<output> -0.0070379726 </output>
											</split>
											<split pos="right">
												<output> 0.0044643995 </output>
											</split>
										</split>
										<split pos="right">
											<output> 0.011535951 </output>
										</split>
									</split>
									<split pos="right">
										<output> -0.016328167 </output>
									</split>
								</split>
								<split pos="right">
									<output> 0.007377768 </output>
								</split>
							</split>
						</split>
					</split>
					<split pos="right">
						<output> 0.011378752 </output>
					</split>
				</split>
				<split pos="right">
					<output> 0.033809565 </output>
				</split>
			</split>
			<split pos="right">
				<output> 0.1755571 </output>
			</split>
		</split>
	</tree>
	<tree id="17" weight="0.1">
		<split>
			<feature> 1 </feature>
			<threshold> 3.7967744 </threshold>
			<split pos="left">
				<feature> 2 </feature>
				<threshold> 2.8730853 </threshold>
				<split pos="left">
					<feature> 2 </feature>
					<threshold> 1.3260397 </threshold>
					<split pos="left">
						<feature> 4 </feature>
						<threshold> 0.0012404498 </threshold>
						<split pos="left">
							<output> 5.123275E-4 </output>
						</split>
						<split pos="right">
							<feature> 2 </feature>
							<threshold> 0.0 </threshold>
							<split pos="left">
								<feature> 4 </feature>
								<threshold> 0.07504713 </threshold>
								<split pos="left">
									<feature> 4 </feature>
									<threshold> 0.047137067 </threshold>
									<split pos="left">
										<feature> 3 </feature>
										<threshold> 0.0 </threshold>
										<split pos="left">
											<output> -0.006223863 </output>
										</split>
										<split pos="right">
											<feature> 4 </feature>
											<threshold> 0.03721349 </threshold>
											<split pos="left">
												<output> 0.0040959227 </output>
											</split>
											<split pos="right">
												<output> 0.0015210452 </output>
											</split>
										</split>
									</split>
									<split pos="right">
										<output> 0.010379374 </output>
									</split>
								</split>
								<split pos="right">
									<output> -0.014695402 </output>
								</split>
							</split>
							<split pos="right">
								<output> 0.008016641 </output>
							</split>
						</split>
					</split>
					<split pos="right">
						<output> 0.020783216 </output>
					</split>
				</split>
				<split pos="right">
					<output> 0.07342236 </output>
				</split>
			</split>
			<split pos="right">
				<output> 0.40385866 </output>
			</split>
		</split>
	</tree>
	<tree id="18" weight="0.1">
		<split>
			<feature> 2 </feature>
			<threshold> 3.867614 </threshold>
			<split pos="left">
				<feature> 4 </feature>
				<threshold> 0.037833713 </threshold>
				<split pos="left">
					<feature> 4 </feature>
					<threshold> 0.021087646 </threshold>
					<split pos="left">
						<feature> 2 </feature>
						<threshold> 2.3205693 </threshold>
						<split pos="left">
							<feature> 4 </feature>
							<threshold> 0.0 </threshold>
							<split pos="left">
								<output> -4.310188E-4 </output>
							</split>
							<split pos="right">
								<feature> 2 </feature>
								<threshold> 1.6575496 </threshold>
								<split pos="left">
									<feature> 4 </feature>
									<threshold> 0.0062022493 </threshold>
									<split pos="left">
										<output> 0.002573581 </output>
									</split>
									<split pos="right">
										<feature> 1 </feature>
										<threshold> 1.0124732 </threshold>
										<split pos="left">
											<feature> 1 </feature>
											<threshold> 0.0 </threshold>
											<split pos="left">
												<output> 0.0038344993 </output>
											</split>
											<split pos="right">
												<output> 0.0058004954 </output>
											</split>
										</split>
										<split pos="right">
											<output> 0.021111397 </output>
										</split>
									</split>
								</split>
								<split pos="right">
									<output> -0.0064124647 </output>
								</split>
							</split>
						</split>
						<split pos="right">
							<output> -0.024708837 </output>
						</split>
					</split>
					<split pos="right">
						<output> 0.008676177 </output>
					</split>
				</split>
				<split pos="right">
					<output> 0.032844 </output>
				</split>
			</split>
			<split pos="right">
				<output> 0.124731705 </output>
			</split>
		</split>
	</tree>
	<tree id="19" weight="0.1">
		<split>
			<feature> 2 </feature>
			<threshold> 7.9562325 </threshold>
			<split pos="left">
				<feature> 4 </feature>
				<threshold> 0.045276396 </threshold>
				<split pos="left">
					<feature> 4 </feature>
					<threshold> 0.029150577 </threshold>
					<split pos="left">
						<feature> 2 </feature>
						<threshold> 3.7571108 </threshold>
						<split pos="left">
							<feature> 4 </feature>
							<threshold> 0.011784271 </threshold>
							<split pos="left">
								<feature> 2 </feature>
								<threshold> 1.7680529 </threshold>
								<split pos="left">
									<feature> 2 </feature>
									<threshold> 0.8840264 </threshold>
									<split pos="left">
										<output> 0.002274008 </output>
									</split>
									<split pos="right">
										<output> -0.004679237 </output>
									</split>
								</split>
								<split pos="right">
									<output> -0.029765643 </output>
								</split>
							</split>
							<split pos="right">
								<feature> 1 </feature>
								<threshold> 0.80997854 </threshold>
								<split pos="left">
									<feature> 1 </feature>
									<threshold> 0.0 </threshold>
									<split pos="left">
										<output> 0.0031993636 </output>
									</split>
									<split pos="right">
										<output> 0.0078369975 </output>
									</split>
								</split>
								<split pos="right">
									<output> 0.019871423 </output>
								</split>
							</split>
						</split>
						<split pos="right">
							<output> -0.048182108 </output>
						</split>
					</split>
					<split pos="right">
						<output> 0.016169187 </output>
					</split>
				</split>
				<split pos="right">
					<output> 0.06457857 </output>
				</split>
			</split>
			<split pos="right">
				<output> 0.4784041 </output>
			</split>
		</split>
	</tree>
	<tree id="20" weight="0.1">
		<split>
			<feature> 2 </feature>
			<threshold> 3.0940917 </threshold>
			<split pos="left">
				<feature> 2 </feature>
				<threshold> 1.3260397 </threshold>
				<split pos="left">
					<feature> 4 </feature>
					<threshold> 0.0 </threshold>
					<split pos="left">
						<output> -6.099021E-4 </output>
					</split>
					<split pos="right">
						<feature> 1 </feature>
						<threshold> 0.5062366 </threshold>
						<split pos="left">
							<feature> 4 </feature>
							<threshold> 0.03721349 </threshold>
							<split pos="left">
								<feature> 3 </feature>
								<threshold> 0.0 </threshold>
								<split pos="left">
									<output> -0.0082917055 </output>
								</split>
								<split pos="right">
									<feature> 4 </feature>
									<threshold> 0.0018606747 </threshold>
									<split pos="left">
										<output> 0.0019034608 </output>
									</split>
									<split pos="right">
										<feature> 1 </feature>
										<threshold> 0.0 </threshold>
										<split pos="left">
											<feature> 4 </feature>
											<threshold> 0.029150577 </threshold>
											<split pos="left">
												<output> 0.0029846795 </output>
											</split>
											<split pos="right">
												<output> 0.0011237919 </output>
											</split>
										</split>
										<split pos="right">
											<output> 0.004448822 </output>
										</split>
									</split>
								</split>
							</split>
							<split pos="right">
								<output> -0.0018906281 </output>
							</split>
						</split>
						<split pos="right">
							<output> 0.0074716792 </output>
						</split>
					</split>
				</split>
				<split pos="right">
					<output> 0.018709874 </output>
				</split>
			</split>
			<split pos="right">
				<output> 0.08324434 </output>
			</split>
		</split>
	</tree>
	<tree id="21" weight="0.1">
		<split>
			<feature> 1 </feature>
			<threshold> 3.3917851 </threshold>
			<split pos="left">
				<feature> 4 </feature>
				<threshold> 0.036593266 </threshold>
				<split pos="left">
					<feature> 4 </feature>
					<threshold> 0.022328097 </threshold>
					<split pos="left">
						<feature> 2 </feature>
						<threshold> 2.9835885 </threshold>
						<split pos="left">
							<feature> 2 </feature>
							<threshold> 1.7680529 </threshold>
							<split pos="left">
								<feature> 4 </feature>
								<threshold> 0.0 </threshold>
								<split pos="left">
									<output> -5.502858E-4 </output>
								</split>
								<split pos="right">
									<feature> 1 </feature>
									<threshold> 1.2655915 </threshold>
									<split pos="left">
										<feature> 2 </feature>
										<threshold> 0.9945297 </threshold>
										<split pos="left">
											<feature> 1 </feature>
											<threshold> 0.80997854 </threshold>
											<split pos="left">
												<output> 0.0026792523 </output>
											</split>
											<split pos="right">
												<output> 0.021392262 </output>
											</split>
										</split>
										<split pos="right">
											<output> -0.0020845828 </output>
										</split>
									</split>
									<split pos="right">
										<output> 0.027921123 </output>
									</split>
								</split>
							</split>
							<split pos="right">
								<output> -0.0103703085 </output>
							</split>
						</split>
						<split pos="right">
							<output> -0.054257255 </output>
						</split>
					</split>
					<split pos="right">
						<output> 0.0074256165 </output>
					</split>
				</split>
				<split pos="right">
					<output> 0.030797577 </output>
				</split>
			</split>
			<split pos="right">
				<output> 0.25194144 </output>
			</split>
		</split>
	</tree>
	<tree id="22" weight="0.1">
		<split>
			<feature> 2 </feature>
			<threshold> 2.9835885 </threshold>
			<split pos="left">
				<feature> 2 </feature>
				<threshold> 1.436543 </threshold>
				<split pos="left">
					<feature> 1 </feature>
					<threshold> 0.45561293 </threshold>
					<split pos="left">
						<feature> 4 </feature>
						<threshold> 0.036593266 </threshold>
						<split pos="left">
							<feature> 4 </feature>
							<threshold> 0.0 </threshold>
							<split pos="left">
								<output> -5.0594384E-4 </output>
							</split>
							<split pos="right">
								<feature> 3 </feature>
								<threshold> 0.0 </threshold>
								<split pos="left">
									<output> -0.0073487693 </output>
								</split>
								<split pos="right">
									<feature> 4 </feature>
									<threshold> 0.022948323 </threshold>
									<split pos="left">
										<feature> 4 </feature>
										<threshold> 0.0018606747 </threshold>
										<split pos="left">
											<output> 0.0014257579 </output>
										</split>
										<split pos="right">
											<feature> 1 </feature>
											<threshold> 0.0 </threshold>
											<split pos="left">
												<output> 0.0024565922 </output>
											</split>
											<split pos="right">
												<output> 0.0033473095 </output>
											</split>
										</split>
									</split>
									<split pos="right">
										<output> 0.001353721 </output>
									</split>
								</split>
							</split>
						</split>
						<split pos="right">
							<output> -0.005194472 </output>
						</split>
					</split>
					<split pos="right">
						<output> 0.006218321 </output>
					</split>
				</split>
				<split pos="right">
					<output> 0.017828397 </output>
				</split>
			</split>
			<split pos="right">
				<output> 0.07098791 </output>
			</split>
		</split>
	</tree>
	<tree id="23" weight="0.1">
		<split>
			<feature> 2 </feature>
			<threshold> 7.9562325 </threshold>
			<split pos="left">
				<feature> 4 </feature>
				<threshold> 0.047137067 </threshold>
				<split pos="left">
					<feature> 4 </feature>
					<threshold> 0.031631477 </threshold>
					<split pos="left">
						<feature> 2 </feature>
						<threshold> 3.7571108 </threshold>
						<split pos="left">
							<feature> 4 </feature>
							<threshold> 0.014885394 </threshold>
							<split pos="left">
								<feature> 2 </feature>
								<threshold> 2.4310725 </threshold>
								<split pos="left">
									<feature> 2 </feature>
									<threshold> 1.2155364 </threshold>
									<split pos="left">
										<feature> 4 </feature>
										<threshold> 0.0012404498 </threshold>
										<split pos="left">
											<output> 4.6996065E-5 </output>
										</split>
										<split pos="right">
											<feature> 2 </feature>
											<threshold> 0.44201317 </threshold>
											<split pos="left">
												<output> 0.0022539927 </output>
											</split>
											<split pos="right">
												<output> -7.9257705E-5 </output>
											</split>
										</split>
									</split>
									<split pos="right">
										<output> -0.009636734 </output>
									</split>
								</split>
								<split pos="right">
									<output> -0.04200787 </output>
								</split>
							</split>
							<split pos="right">
								<output> 0.0037690322 </output>
							</split>
						</split>
						<split pos="right">
							<output> -0.04326109 </output>
						</split>
					</split>
					<split pos="right">
						<output> 0.0149893565 </output>
					</split>
				</split>
				<split pos="right">
					<output> 0.06055962 </output>
				</split>
			</split>
			<split pos="right">
				<output> 0.39029348 </output>
			</split>
		</split>
	</tree>
	<tree id="24" weight="0.1">
		<split>
			<feature> 1 </feature>
			<threshold> 1.771828 </threshold>
			<split pos="left">
				<feature> 1 </feature>
				<threshold> 0.8606022 </threshold>
				<split pos="left">
					<feature> 4 </feature>
					<threshold> 0.1283864 </threshold>
					<split pos="left">
						<feature> 1 </feature>
						<threshold> 0.5062366 </threshold>
						<split pos="left">
							<feature> 4 </feature>
							<threshold> 0.036593266 </threshold>
							<split pos="left">
								<feature> 4 </feature>
								<threshold> 0.0 </threshold>
								<split pos="left">
									<output> -4.6155442E-4 </output>
								</split>
								<split pos="right">
									<feature> 4 </feature>
									<threshold> 0.029770803 </threshold>
									<split pos="left">
										<feature> 3 </feature>
										<threshold> 0.0 </threshold>
										<split pos="left">
											<output> -0.006187768 </output>
										</split>
										<split pos="right">
											<feature> 4 </feature>
											<threshold> 0.0012404498 </threshold>
											<split pos="left">
												<output> 0.0010542296 </output>
											</split>
											<split pos="right">
												<output> 0.0019935668 </output>
											</split>
										</split>
									</split>
									<split pos="right">
										<output> -5.1624834E-4 </output>
									</split>
								</split>
							</split>
							<split pos="right">
								<output> -0.006746724 </output>
							</split>
						</split>
						<split pos="right">
							<output> 0.005551927 </output>
						</split>
					</split>
					<split pos="right">
						<output> 0.47284713 </output>
					</split>
				</split>
				<split pos="right">
					<output> 0.015591301 </output>
				</split>
			</split>
			<split pos="right">
				<output> 0.0654366 </output>
			</split>
		</split>
	</tree>
	<tree id="25" weight="0.1">
		<split>
			<feature> 1 </feature>
			<threshold> 3.847398 </threshold>
			<split pos="left">
				<feature> 4 </feature>
				<threshold> 0.045276396 </threshold>
				<split pos="left">
					<feature> 4 </feature>
					<threshold> 0.0272899 </threshold>
					<split pos="left">
						<feature> 2 </feature>
						<threshold> 2.9835885 </threshold>
						<split pos="left">
							<feature> 4 </feature>
							<threshold> 0.009303373 </threshold>
							<split pos="left">
								<output> 3.908703E-4 </output>
							</split>
							<split pos="right">
								<feature> 1 </feature>
								<threshold> 1.8224517 </threshold>
								<split pos="left">
									<feature> 2 </feature>
									<threshold> 0.44201317 </threshold>
									<split pos="left">
										<feature> 1 </feature>
										<threshold> 0.0 </threshold>
										<split pos="left">
											<feature> 4 </feature>
											<threshold> 0.021087646 </threshold>
											<split pos="left">
												<output> 0.0018132608 </output>
											</split>
											<split pos="right">
												<output> 7.379748E-4 </output>
											</split>
										</split>
										<split pos="right">
											<output> 0.0033275152 </output>
										</split>
									</split>
									<split pos="right">
										<output> 0.0059735808 </output>
									</split>
								</split>
								<split pos="right">
									<output> 0.055389468 </output>
								</split>
							</split>
						</split>
						<split pos="right">
							<output> -0.04443375 </output>
						</split>
					</split>
					<split pos="right">
						<output> 0.009699325 </output>
					</split>
				</split>
				<split pos="right">
					<output> 0.046895787 </output>
				</split>
			</split>
			<split pos="right">
				<output> 0.26896757 </output>
			</split>
		</split>
	</tree>
	<tree id="26" weight="0.1">
		<split>
			<feature> 2 </feature>
			<threshold> 2.9835885 </threshold>
			<split pos="left">
				<feature> 1 </feature>
				<threshold> 1.0124732 </threshold>
				<split pos="left">
					<feature> 1 </feature>
					<threshold> 0.55686027 </threshold>
					<split pos="left">
						<feature> 4 </feature>
						<threshold> 0.036593266 </threshold>
						<split pos="left">
							<feature> 4 </feature>
							<threshold> 0.0 </threshold>
							<split pos="left">
								<output> -4.4742547E-4 </output>
							</split>
							<split pos="right">
								<feature> 4 </feature>
								<threshold> 0.029150577 </threshold>
								<split pos="left">
									<feature> 3 </feature>
									<threshold> 0.0 </threshold>
									<split pos="left">
										<output> -0.0057148635 </output>
									</split>
									<split pos="right">
										<feature> 2 </feature>
										<threshold> 0.9945297 </threshold>
										<split pos="left">
											<feature> 4 </feature>
											<threshold> 0.0012404498 </threshold>
											<split pos="left">
												<output> 8.6539716E-4 </output>
											</split>
											<split pos="right">
												<output> 0.0016769281 </output>
											</split>
										</split>
										<split pos="right">
											<output> 0.0138729215 </output>
										</split>
									</split>
								</split>
								<split pos="right">
									<output> -9.839894E-4 </output>
								</split>
							</split>
						</split>
						<split pos="right">
							<output> -0.0077123237 </output>
						</split>
					</split>
					<split pos="right">
						<output> 0.0056574238 </output>
					</split>
				</split>
				<split pos="right">
					<output> 0.016275706 </output>
				</split>
			</split>
			<split pos="right">
				<output> 0.059559338 </output>
			</split>
		</split>
	</tree>
	<tree id="27" weight="0.1">
		<split>
			<feature> 2 </feature>
			<threshold> 9.503278 </threshold>
			<split pos="left">
				<feature> 4 </feature>
				<threshold> 0.048377514 </threshold>
				<split pos="left">
					<feature> 4 </feature>
					<threshold> 0.031631477 </threshold>
					<split pos="left">
						<feature> 2 </feature>
						<threshold> 3.7571108 </threshold>
						<split pos="left">
							<feature> 2 </feature>
							<threshold> 2.6520789 </threshold>
							<split pos="left">
								<feature> 1 </feature>
								<threshold> 1.5693334 </threshold>
								<split pos="left">
									<feature> 2 </feature>
									<threshold> 1.7680529 </threshold>
									<split pos="left">
										<feature> 1 </feature>
										<threshold> 1.2655915 </threshold>
										<split pos="left">
											<feature> 4 </feature>
											<threshold> 0.0055820243 </threshold>
											<split pos="left">
												<output> 3.2613694E-4 </output>
											</split>
											<split pos="right">
												<output> 0.0016647605 </output>
											</split>
										</split>
										<split pos="right">
											<output> 0.03498157 </output>
										</split>
									</split>
									<split pos="right">
										<output> -0.0061510135 </output>
									</split>
								</split>
								<split pos="right">
									<output> 0.03253676 </output>
								</split>
							</split>
							<split pos="right">
								<output> -0.013758282 </output>
							</split>
						</split>
						<split pos="right">
							<output> -0.052043963 </output>
						</split>
					</split>
					<split pos="right">
						<output> 0.012895898 </output>
					</split>
				</split>
				<split pos="right">
					<output> 0.056452554 </output>
				</split>
			</split>
			<split pos="right">
				<output> 0.48684695 </output>
			</split>
		</split>
	</tree>
	<tree id="28" weight="0.1">
		<split>
			<feature> 2 </feature>
			<threshold> 3.4256012 </threshold>
			<split pos="left">
				<feature> 2 </feature>
				<threshold> 1.9890596 </threshold>
				<split pos="left">
					<feature> 1 </feature>
					<threshold> 0.6581076 </threshold>
					<split pos="left">
						<feature> 4 </feature>
						<threshold> 0.04589662 </threshold>
						<split pos="left">
							<feature> 4 </feature>
							<threshold> 0.0322517 </threshold>
							<split pos="left">
								<feature> 4 </feature>
								<threshold> 0.0 </threshold>
								<split pos="left">
									<output> -4.3242288E-4 </output>
								</split>
								<split pos="right">
									<feature> 3 </feature>
									<threshold> 0.0 </threshold>
									<split pos="left">
										<output> -0.00614906 </output>
									</split>
									<split pos="right">
										<feature> 2 </feature>
										<threshold> 1.3260397 </threshold>
										<split pos="left">
											<feature> 2 </feature>
											<threshold> 0.8840264 </threshold>
											<split pos="left">
												<output> 0.0012737862 </output>
											</split>
											<split pos="right">
												<output> -0.0015048969 </output>
											</split>
										</split>
										<split pos="right">
											<output> 0.021418413 </output>
										</split>
									</split>
								</split>
							</split>
							<split pos="right">
								<output> -0.0033691924 </output>
							</split>
						</split>
						<split pos="right">
							<output> -0.015508695 </output>
						</split>
					</split>
					<split pos="right">
						<output> 0.006421847 </output>
					</split>
				</split>
				<split pos="right">
					<output> 0.021116598 </output>
				</split>
			</split>
			<split pos="right">
				<output> 0.06703198 </output>
			</split>
		</split>
	</tree>
	<tree id="29" weight="0.1">
		<split>
			<feature> 1 </feature>
			<threshold> 2.834925 </threshold>
			<split pos="left">
				<feature> 2 </feature>
				<threshold> 6.1881814 </threshold>
				<split pos="left">
					<feature> 2 </feature>
					<threshold> 4.75164 </threshold>
					<split pos="left">
						<feature> 4 </feature>
						<threshold> 0.03907416 </threshold>
						<split pos="left">
							<feature> 4 </feature>
							<threshold> 0.02604945 </threshold>
							<split pos="left">
								<feature> 2 </feature>
								<threshold> 2.9835885 </threshold>
								<split pos="left">
									<feature> 2 </feature>
									<threshold> 1.6575496 </threshold>
									<split pos="left">
										<feature> 2 </feature>
										<threshold> 0.9945297 </threshold>
										<split pos="left">
											<feature> 1 </feature>
											<threshold> 0.80997854 </threshold>
											<split pos="left">
												<output> 8.87319E-4 </output>
											</split>
											<split pos="right">
												<output> 0.018183855 </output>
											</split>
										</split>
										<split pos="right">
											<output> -0.002426561 </output>
										</split>
									</split>
									<split pos="right">
										<output> -0.009487078 </output>
									</split>
								</split>
								<split pos="right">
									<output> -0.04612402 </output>
								</split>
							</split>
							<split pos="right">
								<output> 0.0053042164 </output>
							</split>
						</split>
						<split pos="right">
							<output> 0.022515664 </output>
						</split>
					</split>
					<split pos="right">
						<output> 0.1648071 </output>
					</split>
				</split>
				<split pos="right">
					<output> -0.3335405 </output>
				</split>
			</split>
			<split pos="right">
				<output> 0.11969138 </output>
			</split>
		</split>
	</tree>
	<tree id="30" weight="0.1">
		<split>
			<feature> 2 </feature>
			<threshold> 2.8730853 </threshold>
			<split pos="left">
				<feature> 2 </feature>
				<threshold> 1.436543 </threshold>
				<split pos="left">
					<feature> 4 </feature>
					<threshold> 0.038453937 </threshold>
					<split pos="left">
						<feature> 4 </feature>
						<threshold> 0.0024808997 </threshold>
						<split pos="left">
							<output> -3.695467E-5 </output>
						</split>
						<split pos="right">
							<feature> 1 </feature>
							<threshold> 0.5062366 </threshold>
							<split pos="left">
								<feature> 4 </feature>
								<threshold> 0.029150577 </threshold>
								<split pos="left">
									<feature> 4 </feature>
									<threshold> 0.022948323 </threshold>
									<split pos="left">
										<feature> 2 </feature>
										<threshold> 0.55251646 </threshold>
										<split pos="left">
											<feature> 1 </feature>
											<threshold> 0.45561293 </threshold>
											<split pos="left">
												<output> 0.0011834898 </output>
											</split>
											<split pos="right">
												<output> 0.0088637695 </output>
											</split>
										</split>
										<split pos="right">
											<output> -0.0011046227 </output>
										</split>
									</split>
									<split pos="right">
										<output> 6.835521E-5 </output>
									</split>
								</split>
								<split pos="right">
									<output> -0.00271299 </output>
								</split>
							</split>
							<split pos="right">
								<output> 0.003521721 </output>
							</split>
						</split>
					</split>
					<split pos="right">
						<output> -0.0064717596 </output>
					</split>
				</split>
				<split pos="right">
					<output> 0.011530001 </output>
				</split>
			</split>
			<split pos="right">
				<output> 0.04673807 </output>
			</split>
		</split>
	</tree>
	<tree id="31" weight="0.1">
		<split>
			<feature> 4 </feature>
			<threshold> 0.047137067 </threshold>
			<split pos="left">
				<feature> 4 </feature>
				<threshold> 0.032871924 </threshold>
				<split pos="left">
					<feature> 1 </feature>
					<threshold> 3.0880432 </threshold>
					<split pos="left">
						<feature> 2 </feature>
						<threshold> 2.9835885 </threshold>
						<split pos="left">
							<feature> 4 </feature>
							<threshold> 0.016125843 </threshold>
							<split pos="left">
								<feature> 2 </feature>
								<threshold> 1.436543 </threshold>
								<split pos="left">
									<feature> 2 </feature>
									<threshold> 0.8840264 </threshold>
									<split pos="left">
										<feature> 4 </feature>
										<threshold> 0.0 </threshold>
										<split pos="left">
											<output> -4.723315E-4 </output>
										</split>
										<split pos="right">
											<feature> 2 </feature>
											<threshold> 0.44201317 </threshold>
											<split pos="left">
												<output> 0.0010485187 </output>
											</split>
											<split pos="right">
												<output> -7.228229E-4 </output>
											</split>
										</split>
									</split>
									<split pos="right">
										<output> -0.0047882665 </output>
									</split>
								</split>
								<split pos="right">
									<output> -0.017543945 </output>
								</split>
							</split>
							<split pos="right">
								<output> 0.0019694772 </output>
							</split>
						</split>
						<split pos="right">
							<output> -0.025087768 </output>
						</split>
					</split>
					<split pos="right">
						<output> -0.117821574 </output>
					</split>
				</split>
				<split pos="right">
					<output> 0.011805901 </output>
				</split>
			</split>
			<split pos="right">
				<output> 0.049833007 </output>
			</split>
		</split>
	</tree>
	<tree id="32" weight="0.1">
		<split>
			<feature> 1 </feature>
			<threshold> 5.1129947 </threshold>
			<split pos="left">
				<feature> 1 </feature>
				<threshold> 1.3668388 </threshold>
				<split pos="left">
					<feature> 1 </feature>
					<threshold> 0.6581076 </threshold>
					<split pos="left">
						<feature> 4 </feature>
						<threshold> 0.038453937 </threshold>
						<split pos="left">
							<feature> 4 </feature>
							<threshold> 0.031631477 </threshold>
							<split pos="left">
								<feature> 4 </feature>
								<threshold> 0.0 </threshold>
								<split pos="left">
									<output> -4.2863569E-4 </output>
								</split>
								<split pos="right">
									<feature> 3 </feature>
									<threshold> 0.0 </threshold>
									<split pos="left">
										<output> -0.00561316 </output>
									</split>
									<split pos="right">
										<feature> 4 </feature>
										<threshold> 0.024188774 </threshold>
										<split pos="left">
											<feature> 2 </feature>
											<threshold> 0.8840264 </threshold>
											<split pos="left">
												<output> 8.5664145E-4 </output>
											</split>
											<split pos="right">
												<output> -0.0026745687 </output>
											</split>
										</split>
										<split pos="right">
											<output> 3.2582047E-5 </output>
										</split>
									</split>
								</split>
							</split>
							<split pos="right">
								<output> -0.0032514427 </output>
							</split>
						</split>
						<split pos="right">
							<output> -0.012212948 </output>
						</split>
					</split>
					<split pos="right">
						<output> 0.006310402 </output>
					</split>
				</split>
				<split pos="right">
					<output> 0.029848082 </output>
				</split>
			</split>
			<split pos="right">
				<output> 0.4251084 </output>
			</split>
		</split>
	</tree>
	<tree id="33" weight="0.1">
		<split>
			<feature> 4 </feature>
			<threshold> 0.048377514 </threshold>
			<split pos="left">
				<feature> 4 </feature>
				<threshold> 0.034732595 </threshold>
				<split pos="left">
					<feature> 1 </feature>
					<threshold> 3.3411615 </threshold>
					<split pos="left">
						<feature> 2 </feature>
						<threshold> 2.9835885 </threshold>
						<split pos="left">
							<feature> 4 </feature>
							<threshold> 0.016125843 </threshold>
							<split pos="left">
								<feature> 2 </feature>
								<threshold> 1.436543 </threshold>
								<split pos="left">
									<feature> 2 </feature>
									<threshold> 0.9945297 </threshold>
									<split pos="left">
										<feature> 4 </feature>
										<threshold> 0.0018606747 </threshold>
										<split pos="left">
											<output> -1.014573E-4 </output>
										</split>
										<split pos="right">
											<feature> 1 </feature>
											<threshold> 0.8606022 </threshold>
											<split pos="left">
												<output> 8.9297054E-4 </output>
											</split>
											<split pos="right">
												<output> 0.021060111 </output>
											</split>
										</split>
									</split>
									<split pos="right">
										<output> -0.0056435172 </output>
									</split>
								</split>
								<split pos="right">
									<output> -0.017020062 </output>
								</split>
							</split>
							<split pos="right">
								<output> 0.0016949539 </output>
							</split>
						</split>
						<split pos="right">
							<output> -0.020403583 </output>
						</split>
					</split>
					<split pos="right">
						<output> -0.11972345 </output>
					</split>
				</split>
				<split pos="right">
					<output> 0.013222505 </output>
				</split>
			</split>
			<split pos="right">
				<output> 0.04899385 </output>
			</split>
		</split>
	</tree>
	<tree id="34" weight="0.1">
		<split>
			<feature> 1 </feature>
			<threshold> 3.1892905 </threshold>
			<split pos="left">
				<feature> 2 </feature>
				<threshold> 6.1881814 </threshold>
				<split pos="left">
					<feature> 2 </feature>
					<threshold> 5.304156 </threshold>
					<split pos="left">
						<feature> 2 </feature>
						<threshold> 1.9890596 </threshold>
						<split pos="left">
							<feature> 1 </feature>
							<threshold> 0.55686027 </threshold>
							<split pos="left">
								<feature> 4 </feature>
								<threshold> 0.04589662 </threshold>
								<split pos="left">
									<feature> 4 </feature>
									<threshold> 0.0322517 </threshold>
									<split pos="left">
										<feature> 2 </feature>
										<threshold> 0.9945297 </threshold>
										<split pos="left">
											<feature> 4 </feature>
											<threshold> 0.0 </threshold>
											<split pos="left">
												<output> -3.7368824E-4 </output>
											</split>
											<split pos="right">
												<output> 5.9160276E-4 </output>
											</split>
										</split>
										<split pos="right">
											<output> 0.015895505 </output>
										</split>
									</split>
									<split pos="right">
										<output> -0.0059885415 </output>
									</split>
								</split>
								<split pos="right">
									<output> -0.024509488 </output>
								</split>
							</split>
							<split pos="right">
								<output> 0.0045158933 </output>
							</split>
						</split>
						<split pos="right">
							<output> 0.02120205 </output>
						</split>
					</split>
					<split pos="right">
						<output> 0.24016045 </output>
					</split>
				</split>
				<split pos="right">
					<output> -0.2251732 </output>
				</split>
			</split>
			<split pos="right">
				<output> 0.13709982 </output>
			</split>
		</split>
	</tree>
	<tree id="35" weight="0.1">
		<split>
			<feature> 2 </feature>
			<threshold> 9.503278 </threshold>
			<split pos="left">
				<feature> 4 </feature>
				<threshold> 0.0427955 </threshold>
				<split pos="left">
					<feature> 4 </feature>
					<threshold> 0.029150577 </threshold>
					<split pos="left">
						<feature> 2 </feature>
						<threshold> 3.7571108 </threshold>
						<split pos="left">
							<feature> 2 </feature>
							<threshold> 2.5415757 </threshold>
							<split pos="left">
								<feature> 1 </feature>
								<threshold> 1.7212044 </threshold>
								<split pos="left">
									<feature> 2 </feature>
									<threshold> 1.7680529 </threshold>
									<split pos="left">
										<feature> 1 </feature>
										<threshold> 1.2655915 </threshold>
										<split pos="left">
											<feature> 2 </feature>
											<threshold> 1.2155364 </threshold>
											<split pos="left">
												<output> 4.1549982E-4 </output>
											</split>
											<split pos="right">
												<output> -0.003078784 </output>
											</split>
										</split>
										<split pos="right">
											<output> 0.02787184 </output>
										</split>
									</split>
									<split pos="right">
										<output> -0.008126325 </output>
									</split>
								</split>
								<split pos="right">
									<output> 0.038465053 </output>
								</split>
							</split>
							<split pos="right">
								<output> -0.020581251 </output>
							</split>
						</split>
						<split pos="right">
							<output> -0.076439336 </output>
						</split>
					</split>
					<split pos="right">
						<output> 0.006897169 </output>
					</split>
				</split>
				<split pos="right">
					<output> 0.03033093 </output>
				</split>
			</split>
			<split pos="right">
				<output> 0.37105542 </output>
			</split>
		</split>
	</tree>
	<tree id="36" weight="0.1">
		<split>
			<feature> 2 </feature>
			<threshold> 2.9835885 </threshold>
			<split pos="left">
				<feature> 2 </feature>
				<threshold> 1.436543 </threshold>
				<split pos="left">
					<feature> 4 </feature>
					<threshold> 0.04589662 </threshold>
					<split pos="left">
						<feature> 4 </feature>
						<threshold> 0.0322517 </threshold>
						<split pos="left">
							<feature> 3 </feature>
							<threshold> 0.0 </threshold>
							<split pos="left">
								<output> -0.0064949202 </output>
							</split>
							<split pos="right">
								<feature> 4 </feature>
								<threshold> 0.0031011247 </threshold>
								<split pos="left">
									<output> -1.1620508E-4 </output>
								</split>
								<split pos="right">
									<feature> 1 </feature>
									<threshold> 0.8606022 </threshold>
									<split pos="left">
										<feature> 2 </feature>
										<threshold> 1.2155364 </threshold>
										<split pos="left">
											<feature> 1 </feature>
											<threshold> 0.80997854 </threshold>
											<split pos="left">
												<output> 5.0494284E-4 </output>
											</split>
											<split pos="right">
												<output> 0.011942044 </output>
											</split>
										</split>
										<split pos="right">
											<output> -0.0036148475 </output>
										</split>
									</split>
									<split pos="right">
										<output> 0.0074335416 </output>
									</split>
								</split>
							</split>
						</split>
						<split pos="right">
							<output> -0.0034185476 </output>
						</split>
					</split>
					<split pos="right">
						<output> -0.018270463 </output>
					</split>
				</split>
				<split pos="right">
					<output> 0.010023121 </output>
				</split>
			</split>
			<split pos="right">
				<output> 0.04342029 </output>
			</split>
		</split>
	</tree>
	<tree id="37" weight="0.1">
		<split>
			<feature> 4 </feature>
			<threshold> 0.050238185 </threshold>
			<split pos="left">
				<feature> 4 </feature>
				<threshold> 0.035973042 </threshold>
				<split pos="left">
					<feature> 1 </feature>
					<threshold> 3.3411615 </threshold>
					<split pos="left">
						<feature> 2 </feature>
						<threshold> 7.4037166 </threshold>
						<split pos="left">
							<feature> 2 </feature>
							<threshold> 2.9835885 </threshold>
							<split pos="left">
								<feature> 1 </feature>
								<threshold> 1.923699 </threshold>
								<split pos="left">
									<feature> 2 </feature>
									<threshold> 2.5415757 </threshold>
									<split pos="left">
										<feature> 1 </feature>
										<threshold> 1.5693334 </threshold>
										<split pos="left">
											<feature> 4 </feature>
											<threshold> 0.011784271 </threshold>
											<split pos="left">
												<output> -1.3793536E-4 </output>
											</split>
											<split pos="right">
												<output> 8.1018213E-4 </output>
											</split>
										</split>
										<split pos="right">
											<output> 0.029367495 </output>
										</split>
									</split>
									<split pos="right">
										<output> -0.010336313 </output>
									</split>
								</split>
								<split pos="right">
									<output> 0.035608336 </output>
								</split>
							</split>
							<split pos="right">
								<output> -0.01958058 </output>
							</split>
						</split>
						<split pos="right">
							<output> 0.89281744 </output>
						</split>
					</split>
					<split pos="right">
						<output> -0.10811276 </output>
					</split>
				</split>
				<split pos="right">
					<output> 0.0130079575 </output>
				</split>
			</split>
			<split pos="right">
				<output> 0.048743356 </output>
			</split>
		</split>
	</tree>
	<tree id="38" weight="0.1">
		<split>
			<feature> 2 </feature>
			<threshold> 3.0940917 </threshold>
			<split pos="left">
				<feature> 2 </feature>
				<threshold> 1.436543 </threshold>
				<split pos="left">
					<feature> 4 </feature>
					<threshold> 0.04589662 </threshold>
					<split pos="left">
						<feature> 4 </feature>
						<threshold> 0.034732595 </threshold>
						<split pos="left">
							<feature> 3 </feature>
							<threshold> 0.0 </threshold>
							<split pos="left">
								<output> -0.0061951 </output>
							</split>
							<split pos="right">
								<feature> 1 </feature>
								<threshold> 1.2149678 </threshold>
								<split pos="left">
									<feature> 1 </feature>
									<threshold> 1.1137205 </threshold>
									<split pos="left">
										<feature> 1 </feature>
										<threshold> 0.0 </threshold>
										<split pos="left">
											<feature> 4 </feature>
											<threshold> 0.026669675 </threshold>
											<split pos="left">
												<output> 2.9539925E-4 </output>
											</split>
											<split pos="right">
												<output> -0.0026881353 </output>
											</split>
										</split>
										<split pos="right">
											<output> 9.865228E-4 </output>
										</split>
									</split>
									<split pos="right">
										<output> 0.016488645 </output>
									</split>
								</split>
								<split pos="right">
									<output> -0.020000242 </output>
								</split>
							</split>
						</split>
						<split pos="right">
							<output> -0.00480629 </output>
						</split>
					</split>
					<split pos="right">
						<output> -0.019870913 </output>
					</split>
				</split>
				<split pos="right">
					<output> 0.009081231 </output>
				</split>
			</split>
			<split pos="right">
				<output> 0.042889223 </output>
			</split>
		</split>
	</tree>
	<tree id="39" weight="0.1">
		<split>
			<feature> 1 </feature>
			<threshold> 3.1892905 </threshold>
			<split pos="left">
				<feature> 2 </feature>
				<threshold> 6.1881814 </threshold>
				<split pos="left">
					<feature> 2 </feature>
					<threshold> 5.304156 </threshold>
					<split pos="left">
						<feature> 2 </feature>
						<threshold> 1.9890596 </threshold>
						<split pos="left">
							<feature> 4 </feature>
							<threshold> 0.07752802 </threshold>
							<split pos="left">
								<feature> 2 </feature>
								<threshold> 0.6630198 </threshold>
								<split pos="left">
									<feature> 4 </feature>
									<threshold> 0.036593266 </threshold>
									<split pos="left">
										<feature> 4 </feature>
										<threshold> 0.029150577 </threshold>
										<split pos="left">
											<feature> 4 </feature>
											<threshold> 0.0 </threshold>
											<split pos="left">
												<output> -3.7944524E-4 </output>
											</split>
											<split pos="right">
												<output> 4.1179935E-4 </output>
											</split>
										</split>
										<split pos="right">
											<output> -0.0029940938 </output>
										</split>
									</split>
									<split pos="right">
										<output> -0.012838389 </output>
									</split>
								</split>
								<split pos="right">
									<output> 0.0029995472 </output>
								</split>
							</split>
							<split pos="right">
								<output> -0.041538436 </output>
							</split>
						</split>
						<split pos="right">
							<output> 0.016822344 </output>
						</split>
					</split>
					<split pos="right">
						<output> 0.21155004 </output>
					</split>
				</split>
				<split pos="right">
					<output> -0.21336482 </output>
				</split>
			</split>
			<split pos="right">
				<output> 0.117788866 </output>
			</split>
		</split>
	</tree>
	<tree id="40" weight="0.1">
		<split>
			<feature> 4 </feature>
			<threshold> 0.045276396 </threshold>
			<split pos="left">
				<feature> 4 </feature>
				<threshold> 0.029150577 </threshold>
				<split pos="left">
					<feature> 2 </feature>
					<threshold> 2.9835885 </threshold>
					<split pos="left">
						<feature> 2 </feature>
						<threshold> 1.7680529 </threshold>
						<split pos="left">
							<feature> 1 </feature>
							<threshold> 1.2655915 </threshold>
							<split pos="left">
								<feature> 2 </feature>
								<threshold> 0.9945297 </threshold>
								<split pos="left">
									<feature> 1 </feature>
									<threshold> 0.70873123 </threshold>
									<split pos="left">
										<feature> 4 </feature>
										<threshold> 0.0 </threshold>
										<split pos="left">
											<output> -3.4053685E-4 </output>
										</split>
										<split pos="right">
											<feature> 2 </feature>
											<threshold> 0.8840264 </threshold>
											<split pos="left">
												<output> 3.9329435E-4 </output>
											</split>
											<split pos="right">
												<output> -0.0026710015 </output>
											</split>
										</split>
									</split>
									<split pos="right">
										<output> 0.007502833 </output>
									</split>
								</split>
								<split pos="right">
									<output> -0.0033068755 </output>
								</split>
							</split>
							<split pos="right">
								<output> 0.02254406 </output>
							</split>
						</split>
						<split pos="right">
							<output> -0.010833458 </output>
						</split>
					</split>
					<split pos="right">
						<output> -0.05426128 </output>
					</split>
				</split>
				<split pos="right">
					<output> 0.0067465072 </output>
				</split>
			</split>
			<split pos="right">
				<output> 0.03498884 </output>
			</split>
		</split>
	</tree>
	<tree id="41" weight="0.1">
		<split>
			<feature> 2 </feature>
			<threshold> 2.9835885 </threshold>
			<split pos="left">
				<feature> 2 </feature>
				<threshold> 1.3260397 </threshold>
				<split pos="left">
					<feature> 4 </feature>
					<threshold> 0.04775729 </threshold>
					<split pos="left">
						<feature> 4 </feature>
						<threshold> 0.0322517 </threshold>
						<split pos="left">
							<feature> 3 </feature>
							<threshold> 0.0 </threshold>
							<split pos="left">
								<output> -0.0050838934 </output>
							</split>
							<split pos="right">
								<feature> 2 </feature>
								<threshold> 0.8840264 </threshold>
								<split pos="left">
									<feature> 1 </feature>
									<threshold> 0.70873123 </threshold>
									<split pos="left">
										<feature> 4 </feature>
										<threshold> 0.024188774 </threshold>
										<split pos="left">
											<feature> 4 </feature>
											<threshold> 0.0012404498 </threshold>
											<split pos="left">
												<output> -1.4803944E-4 </output>
											</split>
											<split pos="right">
												<output> 4.607503E-4 </output>
											</split>
										</split>
										<split pos="right">
											<output> -7.80784E-4 </output>
										</split>
									</split>
									<split pos="right">
										<output> 0.01132471 </output>
									</split>
								</split>
								<split pos="right">
									<output> -0.0011958086 </output>
								</split>
							</split>
						</split>
						<split pos="right">
							<output> -0.004294428 </output>
						</split>
					</split>
					<split pos="right">
						<output> -0.024015315 </output>
					</split>
				</split>
				<split pos="right">
					<output> 0.007003153 </output>
				</split>
			</split>
			<split pos="right">
				<output> 0.037201047 </output>
			</split>
		</split>
	</tree>
	<tree id="42" weight="0.1">
		<split>
			<feature> 4 </feature>
			<threshold> 0.050238185 </threshold>
			<split pos="left">
				<feature> 4 </feature>
				<threshold> 0.036593266 </threshold>
				<split pos="left">
					<feature> 1 </feature>
					<threshold> 3.3411615 </threshold>
					<split pos="left">
						<feature> 2 </feature>
						<threshold> 2.762582 </threshold>
						<split pos="left">
							<feature> 1 </feature>
							<threshold> 1.7212044 </threshold>
							<split pos="left">
								<feature> 2 </feature>
								<threshold> 2.5415757 </threshold>
								<split pos="left">
									<feature> 1 </feature>
									<threshold> 1.5693334 </threshold>
									<split pos="left">
										<feature> 2 </feature>
										<threshold> 1.7680529 </threshold>
										<split pos="left">
											<feature> 1 </feature>
											<threshold> 1.3668388 </threshold>
											<split pos="left">
												<output> 6.2160594E-5 </output>
											</split>
											<split pos="right">
												<output> 0.044720557 </output>
											</split>
										</split>
										<split pos="right">
											<output> -0.0053808545 </output>
										</split>
									</split>
									<split pos="right">
										<output> 0.018534424 </output>
									</split>
								</split>
								<split pos="right">
									<output> -0.015352336 </output>
								</split>
							</split>
							<split pos="right">
								<output> 0.03207059 </output>
							</split>
						</split>
						<split pos="right">
							<output> -0.018332323 </output>
						</split>
					</split>
					<split pos="right">
						<output> -0.10678967 </output>
					</split>
				</split>
				<split pos="right">
					<output> 0.012747206 </output>
				</split>
			</split>
			<split pos="right">
				<output> 0.044328496 </output>
			</split>
		</split>
	</tree>
	<tree id="43" weight="0.1">
		<split>
			<feature> 2 </feature>
			<threshold> 6.2986846 </threshold>
			<split pos="left">
				<feature> 2 </feature>
				<threshold> 6.1881814 </threshold>
				<split pos="left">
					<feature> 2 </feature>
					<threshold> 5.304156 </threshold>
					<split pos="left">
						<feature> 2 </feature>
						<threshold> 2.099563 </threshold>
						<split pos="left">
							<feature> 4 </feature>
							<threshold> 0.07752802 </threshold>
							<split pos="left">
								<feature> 2 </feature>
								<threshold> 1.105033 </threshold>
								<split pos="left">
									<feature> 4 </feature>
									<threshold> 0.03721349 </threshold>
									<split pos="left">
										<feature> 4 </feature>
										<threshold> 0.029770803 </threshold>
										<split pos="left">
											<feature> 1 </feature>
											<threshold> 0.80997854 </threshold>
											<split pos="left">
												<output> 1.4074845E-4 </output>
											</split>
											<split pos="right">
												<output> 0.007735638 </output>
											</split>
										</split>
										<split pos="right">
											<output> -0.0025401697 </output>
										</split>
									</split>
									<split pos="right">
										<output> -0.012433836 </output>
									</split>
								</split>
								<split pos="right">
									<output> 0.003845231 </output>
								</split>
							</split>
							<split pos="right">
								<output> -0.042820286 </output>
							</split>
						</split>
						<split pos="right">
							<output> 0.016405864 </output>
						</split>
					</split>
					<split pos="right">
						<output> 0.14622642 </output>
					</split>
				</split>
				<split pos="right">
					<output> -0.22642447 </output>
				</split>
			</split>
			<split pos="right">
				<output> 0.13185441 </output>
			</split>
		</split>
	</tree>
	<tree id="44" weight="0.1">
		<split>
			<feature> 1 </feature>
			<threshold> 5.1129947 </threshold>
			<split pos="left">
				<feature> 4 </feature>
				<threshold> 0.037833713 </threshold>
				<split pos="left">
					<feature> 1 </feature>
					<threshold> 2.834925 </threshold>
					<split pos="left">
						<feature> 2 </feature>
						<threshold> 2.762582 </threshold>
						<split pos="left">
							<feature> 1 </feature>
							<threshold> 1.7212044 </threshold>
							<split pos="left">
								<feature> 2 </feature>
								<threshold> 2.5415757 </threshold>
								<split pos="left">
									<feature> 4 </feature>
									<threshold> 0.016125843 </threshold>
									<split pos="left">
										<feature> 2 </feature>
										<threshold> 1.436543 </threshold>
										<split pos="left">
											<feature> 1 </feature>
											<threshold> 0.5062366 </threshold>
											<split pos="left">
												<output> 3.1884786E-4 </output>
											</split>
											<split pos="right">
												<output> -0.004011722 </output>
											</split>
										</split>
										<split pos="right">
											<output> -0.01729188 </output>
										</split>
									</split>
									<split pos="right">
										<output> 8.2598487E-4 </output>
									</split>
								</split>
								<split pos="right">
									<output> -0.013839104 </output>
								</split>
							</split>
							<split pos="right">
								<output> 0.028892547 </output>
							</split>
						</split>
						<split pos="right">
							<output> -0.013339256 </output>
						</split>
					</split>
					<split pos="right">
						<output> -0.059953794 </output>
					</split>
				</split>
				<split pos="right">
					<output> 0.017737404 </output>
				</split>
			</split>
			<split pos="right">
				<output> 0.3108109 </output>
			</split>
		</split>
	</tree>
	<tree id="45" weight="0.1">
		<split>
			<feature> 2 </feature>
			<threshold> 2.9835885 </threshold>
			<split pos="left">
				<feature> 2 </feature>
				<threshold> 1.105033 </threshold>
				<split pos="left">
					<feature> 4 </feature>
					<threshold> 0.04775729 </threshold>
					<split pos="left">
						<feature> 4 </feature>
						<threshold> 0.036593266 </threshold>
						<split pos="left">
							<feature> 4 </feature>
							<threshold> 0.029770803 </threshold>
							<split pos="left">
								<feature> 1 </feature>
								<threshold> 0.80997854 </threshold>
								<split pos="left">
									<feature> 2 </feature>
									<threshold> 0.9945297 </threshold>
									<split pos="left">
										<feature> 4 </feature>
										<threshold> 0.0 </threshold>
										<split pos="left">
											<output> -3.392591E-4 </output>
										</split>
										<split pos="right">
											<feature> 4 </feature>
											<threshold> 0.022948323 </threshold>
											<split pos="left">
												<output> 3.4284664E-4 </output>
											</split>
											<split pos="right">
												<output> -3.9313314E-4 </output>
											</split>
										</split>
									</split>
									<split pos="right">
										<output> -0.004466098 </output>
									</split>
								</split>
								<split pos="right">
									<output> 0.0072450656 </output>
								</split>
							</split>
							<split pos="right">
								<output> -0.002260919 </output>
							</split>
						</split>
						<split pos="right">
							<output> -0.008531939 </output>
						</split>
					</split>
					<split pos="right">
						<output> -0.028960856 </output>
					</split>
				</split>
				<split pos="right">
					<output> 0.005435149 </output>
				</split>
			</split>
			<split pos="right">
				<output> 0.033377793 </output>
			</split>
		</split>
	</tree>
	<tree id="46" weight="0.1">
		<split>
			<feature> 4 </feature>
			<threshold> 0.046516843 </threshold>
			<split pos="left">
				<feature> 2 </feature>
				<threshold> 6.1881814 </threshold>
				<split pos="left">
					<feature> 4 </feature>
					<threshold> 0.030391028 </threshold>
					<split pos="left">
						<feature> 2 </feature>
						<threshold> 2.9835885 </threshold>
						<split pos="left">
							<feature> 2 </feature>
							<threshold> 1.6575496 </threshold>
							<split pos="left">
								<feature> 2 </feature>
								<threshold> 0.9945297 </threshold>
								<split pos="left">
									<feature> 1 </feature>
									<threshold> 0.70873123 </threshold>
									<split pos="left">
										<feature> 4 </feature>
										<threshold> 0.022948323 </threshold>
										<split pos="left">
											<feature> 2 </feature>
											<threshold> 0.55251646 </threshold>
											<split pos="left">
												<output> 2.4885053E-4 </output>
											</split>
											<split pos="right">
												<output> -0.0012735622 </output>
											</split>
										</split>
										<split pos="right">
											<output> -4.8122706E-4 </output>
										</split>
									</split>
									<split pos="right">
										<output> 0.005861556 </output>
									</split>
								</split>
								<split pos="right">
									<output> -0.0023567423 </output>
								</split>
							</split>
							<split pos="right">
								<output> -0.00842229 </output>
							</split>
						</split>
						<split pos="right">
							<output> -0.04345913 </output>
						</split>
					</split>
					<split pos="right">
						<output> 0.006698352 </output>
					</split>
				</split>
				<split pos="right">
					<output> -0.071853526 </output>
				</split>
			</split>
			<split pos="right">
				<output> 0.033192962 </output>
			</split>
		</split>
	</tree>
	<tree id="47" weight="0.1">
		<split>
			<feature> 2 </feature>
			<threshold> 2.9835885 </threshold>
			<split pos="left">
				<feature> 2 </feature>
				<threshold> 1.436543 </threshold>
				<split pos="left">
					<feature> 4 </feature>
					<threshold> 0.04589662 </threshold>
					<split pos="left">
						<feature> 4 </feature>
						<threshold> 0.03535282 </threshold>
						<split pos="left">
							<feature> 1 </feature>
							<threshold> 1.2655915 </threshold>
							<split pos="left">
								<feature> 4 </feature>
								<threshold> 0.029770803 </threshold>
								<split pos="left">
									<feature> 2 </feature>
									<threshold> 1.2155364 </threshold>
									<split pos="left">
										<feature> 4 </feature>
										<threshold> 0.0024808997 </threshold>
										<split pos="left">
											<output> -2.0423841E-4 </output>
										</split>
										<split pos="right">
											<feature> 1 </feature>
											<threshold> 0.80997854 </threshold>
											<split pos="left">
												<output> 2.2553754E-4 </output>
											</split>
											<split pos="right">
												<output> 0.007557774 </output>
											</split>
										</split>
									</split>
									<split pos="right">
										<output> -0.0036460469 </output>
									</split>
								</split>
								<split pos="right">
									<output> -0.0015121493 </output>
								</split>
							</split>
							<split pos="right">
								<output> -0.03307304 </output>
							</split>
						</split>
						<split pos="right">
							<output> -0.005191848 </output>
						</split>
					</split>
					<split pos="right">
						<output> -0.022105811 </output>
					</split>
				</split>
				<split pos="right">
					<output> 0.006770364 </output>
				</split>
			</split>
			<split pos="right">
				<output> 0.03319585 </output>
			</split>
		</split>
	</tree>
	<tree id="48" weight="0.1">
		<split>
			<feature> 4 </feature>
			<threshold> 0.050238185 </threshold>
			<split pos="left">
				<feature> 4 </feature>
				<threshold> 0.031631477 </threshold>
				<split pos="left">
					<feature> 2 </feature>
					<threshold> 3.2045949 </threshold>
					<split pos="left">
						<feature> 2 </feature>
						<threshold> 1.7680529 </threshold>
						<split pos="left">
							<feature> 1 </feature>
							<threshold> 1.2655915 </threshold>
							<split pos="left">
								<feature> 2 </feature>
								<threshold> 1.2155364 </threshold>
								<split pos="left">
									<feature> 3 </feature>
									<threshold> 0.0 </threshold>
									<split pos="left">
										<output> -0.004190542 </output>
									</split>
									<split pos="right">
										<feature> 2 </feature>
										<threshold> 0.0 </threshold>
										<split pos="left">
											<feature> 4 </feature>
											<threshold> 0.021087646 </threshold>
											<split pos="left">
												<output> 2.283468E-4 </output>
											</split>
											<split pos="right">
												<output> -0.0011046468 </output>
											</split>
										</split>
										<split pos="right">
											<output> 7.063838E-4 </output>
										</split>
									</split>
								</split>
								<split pos="right">
									<output> -0.0034583448 </output>
								</split>
							</split>
							<split pos="right">
								<output> 0.01950097 </output>
							</split>
						</split>
						<split pos="right">
							<output> -0.009131057 </output>
						</split>
					</split>
					<split pos="right">
						<output> -0.05089736 </output>
					</split>
				</split>
				<split pos="right">
					<output> 0.0075815697 </output>
				</split>
			</split>
			<split pos="right">
				<output> 0.0392605 </output>
			</split>
		</split>
	</tree>
	<tree id="49" weight="0.1">
		<split>
			<feature> 2 </feature>
			<threshold> 3.4256012 </threshold>
			<split pos="left">
				<feature> 1 </feature>
				<threshold> 1.1137205 </threshold>
				<split pos="left">
					<feature> 4 </feature>
					<threshold> 0.048997737 </threshold>
					<split pos="left">
						<feature> 2 </feature>
						<threshold> 2.210066 </threshold>
						<split pos="left">
							<feature> 4 </feature>
							<threshold> 0.038453937 </threshold>
							<split pos="left">
								<feature> 2 </feature>
								<threshold> 2.099563 </threshold>
								<split pos="left">
									<feature> 3 </feature>
									<threshold> 0.0 </threshold>
									<split pos="left">
										<output> -0.005690622 </output>
									</split>
									<split pos="right">
										<feature> 2 </feature>
										<threshold> 0.0 </threshold>
										<split pos="left">
											<feature> 4 </feature>
											<threshold> 0.031011254 </threshold>
											<split pos="left">
												<output> 4.330372E-5 </output>
											</split>
											<split pos="right">
												<output> -0.0054894183 </output>
											</split>
										</split>
										<split pos="right">
											<output> 5.691883E-4 </output>
										</split>
									</split>
								</split>
								<split pos="right">
									<output> -0.017368967 </output>
								</split>
							</split>
							<split pos="right">
								<output> -0.0045265704 </output>
							</split>
						</split>
						<split pos="right">
							<output> 0.03545455 </output>
						</split>
					</split>
					<split pos="right">
						<output> -0.020596407 </output>
					</split>
				</split>
				<split pos="right">
					<output> 0.009750328 </output>
				</split>
			</split>
			<split pos="right">
				<output> 0.0400005 </output>
			</split>
		</split>
	</tree>
	<tree id="50" weight="0.1">
		<split>
			<feature> 2 </feature>
			<threshold> 6.519691 </threshold>
			<split pos="left">
				<feature> 2 </feature>
				<threshold> 6.1881814 </threshold>
				<split pos="left">
					<feature> 2 </feature>
					<threshold> 5.304156 </threshold>
					<split pos="left">
						<feature> 4 </feature>
						<threshold> 0.036593266 </threshold>
						<split pos="left">
							<feature> 2 </feature>
							<threshold> 2.9835885 </threshold>
							<split pos="left">
								<feature> 4 </feature>
								<threshold> 0.021087646 </threshold>
								<split pos="left">
									<feature> 2 </feature>
									<threshold> 1.436543 </threshold>
									<split pos="left">
										<feature> 2 </feature>
										<threshold> 0.9945297 </threshold>
										<split pos="left">
											<feature> 2 </feature>
											<threshold> 0.55251646 </threshold>
											<split pos="left">
												<output> 2.4054278E-4 </output>
											</split>
											<split pos="right">
												<output> -0.0012618637 </output>
											</split>
										</split>
										<split pos="right">
											<output> -0.004772957 </output>
										</split>
									</split>
									<split pos="right">
										<output> -0.01493233 </output>
									</split>
								</split>
								<split pos="right">
									<output> 0.0013595459 </output>
								</split>
							</split>
							<split pos="right">
								<output> -0.024827829 </output>
							</split>
						</split>
						<split pos="right">
							<output> 0.011217617 </output>
						</split>
					</split>
					<split pos="right">
						<output> 0.12870026 </output>
					</split>
				</split>
				<split pos="right">
					<output> -0.13590631 </output>
				</split>
			</split>
			<split pos="right">
				<output> 0.11911585 </output>
			</split>
		</split>
	</tree>
	<tree id="51" weight="0.1">
		<split>
			<feature> 2 </feature>
			<threshold> 2.8730853 </threshold>
			<split pos="left">
				<feature> 1 </feature>
				<threshold> 1.8730754 </threshold>
				<split pos="left">
					<feature> 2 </feature>
					<threshold> 1.105033 </threshold>
					<split pos="left">
						<feature> 4 </feature>
						<threshold> 0.04775729 </threshold>
						<split pos="left">
							<feature> 4 </feature>
							<threshold> 0.036593266 </threshold>
							<split pos="left">
								<feature> 4 </feature>
								<threshold> 0.031011254 </threshold>
								<split pos="left">
									<feature> 1 </feature>
									<threshold> 1.1137205 </threshold>
									<split pos="left">
										<feature> 2 </feature>
										<threshold> 0.9945297 </threshold>
										<split pos="left">
											<feature> 1 </feature>
											<threshold> 0.80997854 </threshold>
											<split pos="left">
												<output> 7.217237E-5 </output>
											</split>
											<split pos="right">
												<output> 0.009573948 </output>
											</split>
										</split>
										<split pos="right">
											<output> -0.003084011 </output>
										</split>
									</split>
									<split pos="right">
										<output> 0.039047576 </output>
									</split>
								</split>
								<split pos="right">
									<output> -0.0031456274 </output>
								</split>
							</split>
							<split pos="right">
								<output> -0.009260094 </output>
							</split>
						</split>
						<split pos="right">
							<output> -0.02958946 </output>
						</split>
					</split>
					<split pos="right">
						<output> 0.0048311306 </output>
					</split>
				</split>
				<split pos="right">
					<output> 0.06210114 </output>
				</split>
			</split>
			<split pos="right">
				<output> 0.028675638 </output>
			</split>
		</split>
	</tree>
	<tree id="52" weight="0.1">
		<split>
			<feature> 4 </feature>
			<threshold> 0.048377514 </threshold>
			<split pos="left">
				<feature> 2 </feature>
				<threshold> 6.1881814 </threshold>
				<split pos="left">
					<feature> 4 </feature>
					<threshold> 0.02604945 </threshold>
					<split pos="left">
						<feature> 2 </feature>
						<threshold> 2.9835885 </threshold>
						<split pos="left">
							<feature> 2 </feature>
							<threshold> 1.7680529 </threshold>
							<split pos="left">
								<feature> 2 </feature>
								<threshold> 0.8840264 </threshold>
								<split pos="left">
									<feature> 1 </feature>
									<threshold> 0.80997854 </threshold>
									<split pos="left">
										<feature> 4 </feature>
										<threshold> 0.0012404498 </threshold>
										<split pos="left">
											<output> -2.526651E-4 </output>
										</split>
										<split pos="right">
											<feature> 4 </feature>
											<threshold> 0.021707872 </threshold>
											<split pos="left">
												<output> 2.9722237E-4 </output>
											</split>
											<split pos="right">
												<output> -3.7849217E-4 </output>
											</split>
										</split>
									</split>
									<split pos="right">
										<output> 0.013985175 </output>
									</split>
								</split>
								<split pos="right">
									<output> -0.003236914 </output>
								</split>
							</split>
							<split pos="right">
								<output> -0.013379329 </output>
							</split>
						</split>
						<split pos="right">
							<output> -0.056387737 </output>
						</split>
					</split>
					<split pos="right">
						<output> 0.0044097896 </output>
					</split>
				</split>
				<split pos="right">
					<output> -0.07393799 </output>
				</split>
			</split>
			<split pos="right">
				<output> 0.034128383 </output>
			</split>
		</split>
	</tree>
	<tree id="53" weight="0.1">
		<split>
			<feature> 2 </feature>
			<threshold> 2.9835885 </threshold>
			<split pos="left">
				<feature> 2 </feature>
				<threshold> 1.436543 </threshold>
				<split pos="left">
					<feature> 4 </feature>
					<threshold> 0.04589662 </threshold>
					<split pos="left">
						<feature> 4 </feature>
						<threshold> 0.0322517 </threshold>
						<split pos="left">
							<feature> 1 </feature>
							<threshold> 1.2655915 </threshold>
							<split pos="left">
								<feature> 2 </feature>
								<threshold> 1.2155364 </threshold>
								<split pos="left">
									<feature> 4 </feature>
									<threshold> 0.029770803 </threshold>
									<split pos="left">
										<feature> 1 </feature>
										<threshold> 1.0124732 </threshold>
										<split pos="left">
											<feature> 1 </feature>
											<threshold> 0.8606022 </threshold>
											<split pos="left">
												<output> 3.5711488E-5 </output>
											</split>
											<split pos="right">
												<output> 0.0071766004 </output>
											</split>
										</split>
										<split pos="right">
											<output> -0.010172969 </output>
										</split>
									</split>
									<split pos="right">
										<output> -0.0018545217 </output>
									</split>
								</split>
								<split pos="right">
									<output> -0.0018106799 </output>
								</split>
							</split>
							<split pos="right">
								<output> -0.03196489 </output>
							</split>
						</split>
						<split pos="right">
							<output> -0.0043150852 </output>
						</split>
					</split>
					<split pos="right">
						<output> -0.022301994 </output>
					</split>
				</split>
				<split pos="right">
					<output> 0.006864034 </output>
				</split>
			</split>
			<split pos="right">
				<output> 0.030919835 </output>
			</split>
		</split>
	</tree>
	<tree id="54" weight="0.1">
		<split>
			<feature> 4 </feature>
			<threshold> 0.046516843 </threshold>
			<split pos="left">
				<feature> 2 </feature>
				<threshold> 6.1881814 </threshold>
				<split pos="left">
					<feature> 4 </feature>
					<threshold> 0.032871924 </threshold>
					<split pos="left">
						<feature> 2 </feature>
						<threshold> 2.9835885 </threshold>
						<split pos="left">
							<feature> 2 </feature>
							<threshold> 2.099563 </threshold>
							<split pos="left">
								<feature> 1 </feature>
								<threshold> 1.3668388 </threshold>
								<split pos="left">
									<feature> 2 </feature>
									<threshold> 1.6575496 </threshold>
									<split pos="left">
										<feature> 1 </feature>
										<threshold> 1.2655915 </threshold>
										<split pos="left">
											<feature> 2 </feature>
											<threshold> 1.2155364 </threshold>
											<split pos="left">
