## MART
## No. of trees = 1000
## No. of leaves = 10
## No. of threshold candidates = 256
## Learning rate = 0.1
## Stop early = 100

<ensemble>
	<tree id="1" weight="0.1">
		<split>
			<feature> 2 </feature>
			<threshold> 3.3645551 </threshold>
			<split pos="left">
				<feature> 1 </feature>
				<threshold> 0.80997854 </threshold>
				<split pos="left">
					<feature> 5 </feature>
					<threshold> 0.0037213496 </threshold>
					<split pos="left">
						<output> 0.01086032 </output>
					</split>
					<split pos="right">
						<feature> 1 </feature>
						<threshold> 0.0 </threshold>
						<split pos="left">
							<feature> 5 </feature>
							<threshold> 0.028530352 </threshold>
							<split pos="left">
								<feature> 7 </feature>
								<threshold> 0.84886324 </threshold>
								<split pos="left">
									<output> 0.016872779 </output>
								</split>
								<split pos="right">
									<feature> 7 </feature>
									<threshold> 0.9356905 </threshold>
									<split pos="left">
										<feature> 5 </feature>
										<threshold> 0.013644945 </threshold>
										<split pos="left">
											<output> 0.022724997 </output>
										</split>
										<split pos="right">
											<output> 0.02728535 </output>
										</split>
									</split>
									<split pos="right">
										<output> 0.020633036 </output>
									</split>
								</split>
							</split>
							<split pos="right">
								<output> 0.037589774 </output>
							</split>
						</split>
						<split pos="right">
							<feature> 5 </feature>
							<threshold> 0.035973042 </threshold>
							<split pos="left">
								<output> 0.045065142 </output>
							</split>
							<split pos="right">
								<output> 0.08612582 </output>
							</split>
						</split>
					</split>
				</split>
				<split pos="right">
					<output> 0.10100967 </output>
				</split>
			</split>
			<split pos="right">
				<output> 0.43352 </output>
			</split>
		</split>
	</tree>
	<tree id="2" weight="0.1">
		<split>
			<feature> 2 </feature>
			<threshold> 3.890267 </threshold>
			<split pos="left">
				<feature> 1 </feature>
				<threshold> 1.0124732 </threshold>
				<split pos="left">
					<feature> 1 </feature>
					<threshold> 0.35436562 </threshold>
					<split pos="left">
						<feature> 5 </feature>
						<threshold> 0.0031011247 </threshold>
						<split pos="left">
							<output> 0.008608875 </output>
						</split>
						<split pos="right">
							<feature> 5 </feature>
							<threshold> 0.031011254 </threshold>
							<split pos="left">
								<feature> 2 </feature>
								<threshold> 0.0 </threshold>
								<split pos="left">
									<feature> 7 </feature>
									<threshold> 0.82281506 </threshold>
									<split pos="left">
										<output> 0.012077362 </output>
									</split>
									<split pos="right">
										<feature> 5 </feature>
										<threshold> 0.022328097 </threshold>
										<split pos="left">
											<feature> 7 </feature>
											<threshold> 0.9356905 </threshold>
											<split pos="left">
												<output> 0.020261778 </output>
											</split>
											<split pos="right">
												<output> 0.018086849 </output>
											</split>
										</split>
										<split pos="right">
											<output> 0.02533764 </output>
										</split>
									</split>
								</split>
								<split pos="right">
									<output> 0.03252894 </output>
								</split>
							</split>
							<split pos="right">
								<output> 0.036804937 </output>
							</split>
						</split>
					</split>
					<split pos="right">
						<output> 0.043547712 </output>
					</split>
				</split>
				<split pos="right">
					<output> 0.119575046 </output>
				</split>
			</split>
			<split pos="right">
				<output> 0.48366657 </output>
			</split>
		</split>
	</tree>
	<tree id="3" weight="0.1">
		<split>
			<feature> 2 </feature>
			<threshold> 2.9439857 </threshold>
			<split pos="left">
				<feature> 1 </feature>
				<threshold> 0.6581076 </threshold>
				<split pos="left">
					<feature> 5 </feature>
					<threshold> 0.0049617994 </threshold>
					<split pos="left">
						<output> 0.009358969 </output>
					</split>
					<split pos="right">
						<feature> 2 </feature>
						<threshold> 0.0 </threshold>
						<split pos="left">
							<feature> 5 </feature>
							<threshold> 0.034732595 </threshold>
							<split pos="left">
								<feature> 5 </feature>
								<threshold> 0.022328097 </threshold>
								<split pos="left">
									<feature> 7 </feature>
									<threshold> 0.84886324 </threshold>
									<split pos="left">
										<output> 0.013319586 </output>
									</split>
									<split pos="right">
										<feature> 7 </feature>
										<threshold> 0.9291785 </threshold>
										<split pos="left">
											<feature> 5 </feature>
											<threshold> 0.012404496 </threshold>
											<split pos="left">
												<output> 0.01908217 </output>
											</split>
											<split pos="right">
												<output> 0.02194416 </output>
											</split>
										</split>
										<split pos="right">
											<output> 0.016500635 </output>
										</split>
									</split>
								</split>
								<split pos="right">
									<output> 0.023319963 </output>
								</split>
							</split>
							<split pos="right">
								<output> 0.03757315 </output>
							</split>
						</split>
						<split pos="right">
							<output> 0.03631999 </output>
						</split>
					</split>
				</split>
				<split pos="right">
					<output> 0.06752416 </output>
				</split>
			</split>
			<split pos="right">
				<output> 0.29402837 </output>
			</split>
		</split>
	</tree>
	<tree id="4" weight="0.1">
		<split>
			<feature> 2 </feature>
			<threshold> 4.1005516 </threshold>
			<split pos="left">
				<feature> 1 </feature>
				<threshold> 1.0124732 </threshold>
				<split pos="left">
					<feature> 5 </feature>
					<threshold> 0.0055820243 </threshold>
					<split pos="left">
						<output> 0.009155552 </output>
					</split>
					<split pos="right">
						<feature> 3 </feature>
						<threshold> 0.38876638 </threshold>
						<split pos="left">
							<feature> 5 </feature>
							<threshold> 0.03535282 </threshold>
							<split pos="left">
								<feature> 1 </feature>
								<threshold> 0.0 </threshold>
								<split pos="left">
									<feature> 5 </feature>
									<threshold> 0.024809 </threshold>
									<split pos="left">
										<feature> 7 </feature>
										<threshold> 0.80979097 </threshold>
										<split pos="left">
											<output> 0.008347208 </output>
										</split>
										<split pos="right">
											<feature> 7 </feature>
											<threshold> 0.9291785 </threshold>
											<split pos="left">
												<output> 0.017803349 </output>
											</split>
											<split pos="right">
												<output> 0.014748685 </output>
											</split>
										</split>
									</split>
									<split pos="right">
										<output> 0.022020303 </output>
									</split>
								</split>
								<split pos="right">
									<output> 0.027521757 </output>
								</split>
							</split>
							<split pos="right">
								<output> 0.03457135 </output>
							</split>
						</split>
						<split pos="right">
							<output> 0.04289643 </output>
						</split>
					</split>
				</split>
				<split pos="right">
					<output> 0.09868229 </output>
				</split>
			</split>
			<split pos="right">
				<output> 0.43965408 </output>
			</split>
		</split>
	</tree>
	<tree id="5" weight="0.1">
		<split>
			<feature> 2 </feature>
			<threshold> 5.7828255 </threshold>
			<split pos="left">
				<feature> 2 </feature>
				<threshold> 2.1028469 </threshold>
				<split pos="left">
					<feature> 3 </feature>
					<threshold> 0.6803411 </threshold>
					<split pos="left">
						<feature> 5 </feature>
						<threshold> 0.0024808997 </threshold>
						<split pos="left">
							<output> 0.005390087 </output>
						</split>
						<split pos="right">
							<feature> 5 </feature>
							<threshold> 0.02604945 </threshold>
							<split pos="left">
								<feature> 1 </feature>
								<threshold> 0.0 </threshold>
								<split pos="left">
									<feature> 7 </feature>
									<threshold> 0.8683994 </threshold>
									<split pos="left">
										<output> 0.011237442 </output>
									</split>
									<split pos="right">
										<feature> 7 </feature>
										<threshold> 0.9378612 </threshold>
										<split pos="left">
											<feature> 5 </feature>
											<threshold> 0.012404496 </threshold>
											<split pos="left">
												<output> 0.015190345 </output>
											</split>
											<split pos="right">
												<output> 0.018364009 </output>
											</split>
										</split>
										<split pos="right">
											<output> 0.013190231 </output>
										</split>
									</split>
								</split>
								<split pos="right">
									<output> 0.023583425 </output>
								</split>
							</split>
							<split pos="right">
								<output> 0.024797976 </output>
							</split>
						</split>
					</split>
					<split pos="right">
						<output> 0.040772296 </output>
					</split>
				</split>
				<split pos="right">
					<output> 0.13188498 </output>
				</split>
			</split>
			<split pos="right">
				<output> 0.77167666 </output>
			</split>
		</split>
	</tree>
	<tree id="6" weight="0.1">
		<split>
			<feature> 2 </feature>
			<threshold> 5.7828255 </threshold>
			<split pos="left">
				<feature> 2 </feature>
				<threshold> 2.3131316 </threshold>
				<split pos="left">
					<feature> 1 </feature>
					<threshold> 0.55686027 </threshold>
					<split pos="left">
						<feature> 5 </feature>
						<threshold> 0.0018606747 </threshold>
						<split pos="left">
							<output> 0.004310779 </output>
						</split>
						<split pos="right">
							<feature> 5 </feature>
							<threshold> 0.03535282 </threshold>
							<split pos="left">
								<feature> 2 </feature>
								<threshold> 0.0 </threshold>
								<split pos="left">
									<feature> 7 </feature>
									<threshold> 0.82281506 </threshold>
									<split pos="left">
										<output> 0.0067312676 </output>
									</split>
									<split pos="right">
										<feature> 5 </feature>
										<threshold> 0.016125843 </threshold>
										<split pos="left">
											<feature> 7 </feature>
											<threshold> 0.8683994 </threshold>
											<split pos="left">
												<output> 0.010127435 </output>
											</split>
											<split pos="right">
												<output> 0.013521596 </output>
											</split>
										</split>
										<split pos="right">
											<output> 0.016151093 </output>
										</split>
									</split>
								</split>
								<split pos="right">
									<output> 0.02182444 </output>
								</split>
							</split>
							<split pos="right">
								<output> 0.030382132 </output>
							</split>
						</split>
					</split>
					<split pos="right">
						<output> 0.03927712 </output>
					</split>
				</split>
				<split pos="right">
					<output> 0.13101149 </output>
				</split>
			</split>
			<split pos="right">
				<output> 0.69448966 </output>
			</split>
		</split>
	</tree>
	<tree id="7" weight="0.1">
		<split>
			<feature> 2 </feature>
			<threshold> 3.7851245 </threshold>
			<split pos="left">
				<feature> 1 </feature>
				<threshold> 0.9618495 </threshold>
				<split pos="left">
					<feature> 5 </feature>
					<threshold> 0.0043415744 </threshold>
					<split pos="left">
						<output> 0.0055176374 </output>
					</split>
					<split pos="right">
						<feature> 2 </feature>
						<threshold> 0.31542698 </threshold>
						<split pos="left">
							<feature> 5 </feature>
							<threshold> 0.034732595 </threshold>
							<split pos="left">
								<feature> 7 </feature>
								<threshold> 0.953056 </threshold>
								<split pos="left">
									<feature> 5 </feature>
									<threshold> 0.022328097 </threshold>
									<split pos="left">
										<feature> 7 </feature>
										<threshold> 0.8423512 </threshold>
										<split pos="left">
											<output> 0.007972277 </output>
										</split>
										<split pos="right">
											<feature> 1 </feature>
											<threshold> 0.0 </threshold>
											<split pos="left">
												<output> 0.012532719 </output>
											</split>
											<split pos="right">
												<output> 0.02054315 </output>
											</split>
										</split>
									</split>
									<split pos="right">
										<output> 0.01714646 </output>
									</split>
								</split>
								<split pos="right">
									<output> 0.008474394 </output>
								</split>
							</split>
							<split pos="right">
								<output> 0.024842363 </output>
							</split>
						</split>
						<split pos="right">
							<output> 0.028629106 </output>
						</split>
					</split>
				</split>
				<split pos="right">
					<output> 0.066718996 </output>
				</split>
			</split>
			<split pos="right">
				<output> 0.30088416 </output>
			</split>
		</split>
	</tree>
	<tree id="8" weight="0.1">
		<split>
			<feature> 2 </feature>
			<threshold> 5.7828255 </threshold>
			<split pos="left">
				<feature> 2 </feature>
				<threshold> 2.6285586 </threshold>
				<split pos="left">
					<feature> 1 </feature>
					<threshold> 0.6581076 </threshold>
					<split pos="left">
						<feature> 5 </feature>
						<threshold> 0.0018606747 </threshold>
						<split pos="left">
							<output> 0.0033028452 </output>
						</split>
						<split pos="right">
							<feature> 5 </feature>
							<threshold> 0.026669675 </threshold>
							<split pos="left">
								<feature> 1 </feature>
								<threshold> 0.0 </threshold>
								<split pos="left">
									<feature> 7 </feature>
									<threshold> 0.82281506 </threshold>
									<split pos="left">
										<output> 0.0050129276 </output>
									</split>
									<split pos="right">
										<feature> 7 </feature>
										<threshold> 0.953056 </threshold>
										<split pos="left">
											<feature> 5 </feature>
											<threshold> 0.012404496 </threshold>
											<split pos="left">
												<output> 0.0103419535 </output>
											</split>
											<split pos="right">
												<output> 0.012412441 </output>
											</split>
										</split>
										<split pos="right">
											<output> 0.007813304 </output>
										</split>
									</split>
								</split>
								<split pos="right">
									<output> 0.016862987 </output>
								</split>
							</split>
							<split pos="right">
								<output> 0.0198738 </output>
							</split>
						</split>
					</split>
					<split pos="right">
						<output> 0.037110936 </output>
					</split>
				</split>
				<split pos="right">
					<output> 0.12597649 </output>
				</split>
			</split>
			<split pos="right">
				<output> 0.5949321 </output>
			</split>
		</split>
	</tree>
	<tree id="9" weight="0.1">
		<split>
			<feature> 1 </feature>
			<threshold> 2.9361722 </threshold>
			<split pos="left">
				<feature> 1 </feature>
				<threshold> 1.2655915 </threshold>
				<split pos="left">
					<feature> 3 </feature>
					<threshold> 0.58314955 </threshold>
					<split pos="left">
						<feature> 5 </feature>
						<threshold> 0.0018606747 </threshold>
						<split pos="left">
							<output> 0.002909552 </output>
						</split>
						<split pos="right">
							<feature> 5 </feature>
							<threshold> 0.03721349 </threshold>
							<split pos="left">
								<feature> 7 </feature>
								<threshold> 0.8206444 </threshold>
								<split pos="left">
									<output> 0.0040211375 </output>
								</split>
								<split pos="right">
									<feature> 1 </feature>
									<threshold> 0.0 </threshold>
									<split pos="left">
										<feature> 7 </feature>
										<threshold> 0.953056 </threshold>
										<split pos="left">
											<feature> 5 </feature>
											<threshold> 0.01798652 </threshold>
											<split pos="left">
												<output> 0.009651008 </output>
											</split>
											<split pos="right">
												<output> 0.013061369 </output>
											</split>
										</split>
										<split pos="right">
											<output> 0.006620298 </output>
										</split>
									</split>
									<split pos="right">
										<output> 0.016138686 </output>
									</split>
								</split>
							</split>
							<split pos="right">
								<output> 0.023898317 </output>
							</split>
						</split>
					</split>
					<split pos="right">
						<output> 0.025425319 </output>
					</split>
				</split>
				<split pos="right">
					<output> 0.08358489 </output>
				</split>
			</split>
			<split pos="right">
				<output> 0.44575748 </output>
			</split>
		</split>
	</tree>
	<tree id="10" weight="0.1">
		<split>
			<feature> 2 </feature>
			<threshold> 6.098252 </threshold>
			<split pos="left">
				<feature> 2 </feature>
				<threshold> 2.6285586 </threshold>
				<split pos="left">
					<feature> 1 </feature>
					<threshold> 0.6581076 </threshold>
					<split pos="left">
						<feature> 5 </feature>
						<threshold> 0.0024808997 </threshold>
						<split pos="left">
							<output> 0.003119833 </output>
						</split>
						<split pos="right">
							<feature> 5 </feature>
							<threshold> 0.031011254 </threshold>
							<split pos="left">
								<feature> 3 </feature>
								<threshold> 0.0 </threshold>
								<split pos="left">
									<feature> 7 </feature>
									<threshold> 0.8683994 </threshold>
									<split pos="left">
										<output> 0.006568119 </output>
									</split>
									<split pos="right">
										<feature> 7 </feature>
										<threshold> 0.9270078 </threshold>
										<split pos="left">
											<feature> 5 </feature>
											<threshold> 0.013644945 </threshold>
											<split pos="left">
												<output> 0.009577507 </output>
											</split>
											<split pos="right">
												<output> 0.012566785 </output>
											</split>
										</split>
										<split pos="right">
											<output> 0.0077585257 </output>
										</split>
									</split>
								</split>
								<split pos="right">
									<output> 0.014490829 </output>
								</split>
							</split>
							<split pos="right">
								<output> 0.018818233 </output>
							</split>
						</split>
					</split>
					<split pos="right">
						<output> 0.03002206 </output>
					</split>
				</split>
				<split pos="right">
					<output> 0.10569342 </output>
				</split>
			</split>
			<split pos="right">
				<output> 0.5518643 </output>
			</split>
		</split>
	</tree>
	<tree id="11" weight="0.1">
		<split>
			<feature> 2 </feature>
			<threshold> 4.310836 </threshold>
			<split pos="left">
				<feature> 1 </feature>
				<threshold> 0.9618495 </threshold>
				<split pos="left">
					<feature> 5 </feature>
					<threshold> 0.008683149 </threshold>
					<split pos="left">
						<feature> 7 </feature>
						<threshold> 0.87057006 </threshold>
						<split pos="left">
							<output> 0.0015646275 </output>
						</split>
						<split pos="right">
							<output> 0.006568692 </output>
						</split>
					</split>
					<split pos="right">
						<feature> 1 </feature>
						<threshold> 0.45561293 </threshold>
						<split pos="left">
							<feature> 5 </feature>
							<threshold> 0.039694384 </threshold>
							<split pos="left">
								<feature> 7 </feature>
								<threshold> 0.9378612 </threshold>
								<split pos="left">
									<feature> 5 </feature>
									<threshold> 0.02604945 </threshold>
									<split pos="left">
										<feature> 1 </feature>
										<threshold> 0.0 </threshold>
										<split pos="left">
											<output> 0.008953368 </output>
										</split>
										<split pos="right">
											<output> 0.014760517 </output>
										</split>
									</split>
									<split pos="right">
										<output> 0.0150521835 </output>
									</split>
								</split>
								<split pos="right">
									<output> 0.0064666984 </output>
								</split>
							</split>
							<split pos="right">
								<output> 0.02137162 </output>
							</split>
						</split>
						<split pos="right">
							<output> 0.02671787 </output>
						</split>
					</split>
				</split>
				<split pos="right">
					<output> 0.046831936 </output>
				</split>
			</split>
			<split pos="right">
				<output> 0.26048726 </output>
			</split>
		</split>
	</tree>
	<tree id="12" weight="0.1">
		<split>
			<feature> 2 </feature>
			<threshold> 6.5188203 </threshold>
			<split pos="left">
				<feature> 1 </feature>
				<threshold> 1.6199571 </threshold>
				<split pos="left">
					<feature> 5 </feature>
					<threshold> 0.036593266 </threshold>
					<split pos="left">
						<feature> 5 </feature>
						<threshold> 0.012404496 </threshold>
						<split pos="left">
							<feature> 3 </feature>
							<threshold> 1.5550653 </threshold>
							<split pos="left">
								<feature> 5 </feature>
								<threshold> 0.0012404498 </threshold>
								<split pos="left">
									<output> 0.0013498906 </output>
								</split>
								<split pos="right">
									<feature> 7 </feature>
									<threshold> 0.8662287 </threshold>
									<split pos="left">
										<output> 0.00279332 </output>
									</split>
									<split pos="right">
										<output> 0.0075545856 </output>
									</split>
								</split>
							</split>
							<split pos="right">
								<output> -0.016876848 </output>
							</split>
						</split>
						<split pos="right">
							<feature> 1 </feature>
							<threshold> 0.7593549 </threshold>
							<split pos="left">
								<feature> 1 </feature>
								<threshold> 0.0 </threshold>
								<split pos="left">
									<output> 0.00810578 </output>
								</split>
								<split pos="right">
									<output> 0.016753804 </output>
								</split>
							</split>
							<split pos="right">
								<output> 0.039389495 </output>
							</split>
						</split>
					</split>
					<split pos="right">
						<output> 0.037180707 </output>
					</split>
				</split>
				<split pos="right">
					<output> 0.09480987 </output>
				</split>
			</split>
			<split pos="right">
				<output> 0.5347484 </output>
			</split>
		</split>
	</tree>
	<tree id="13" weight="0.1">
		<split>
			<feature> 2 </feature>
			<threshold> 6.308536 </threshold>
			<split pos="left">
				<feature> 2 </feature>
				<threshold> 2.8388433 </threshold>
				<split pos="left">
					<feature> 5 </feature>
					<threshold> 0.031011254 </threshold>
					<split pos="left">
						<feature> 5 </feature>
						<threshold> 0.0068224743 </threshold>
						<split pos="left">
							<feature> 1 </feature>
							<threshold> 0.6581076 </threshold>
							<split pos="left">
								<output> 0.0033886754 </output>
							</split>
							<split pos="right">
								<output> -0.011470373 </output>
							</split>
						</split>
						<split pos="right">
							<feature> 1 </feature>
							<threshold> 0.5062366 </threshold>
							<split pos="left">
								<feature> 7 </feature>
								<threshold> 0.93134916 </threshold>
								<split pos="left">
									<feature> 1 </feature>
									<threshold> 0.0 </threshold>
									<split pos="left">
										<feature> 5 </feature>
										<threshold> 0.01798652 </threshold>
										<split pos="left">
											<output> 0.0067920964 </output>
										</split>
										<split pos="right">
											<output> 0.009367138 </output>
										</split>
									</split>
									<split pos="right">
										<output> 0.013109438 </output>
									</split>
								</split>
								<split pos="right">
									<output> 0.005207181 </output>
								</split>
							</split>
							<split pos="right">
								<output> 0.018935785 </output>
							</split>
						</split>
					</split>
					<split pos="right">
						<output> 0.024375334 </output>
					</split>
				</split>
				<split pos="right">
					<output> 0.088706784 </output>
				</split>
			</split>
			<split pos="right">
				<output> 0.45583385 </output>
			</split>
		</split>
	</tree>
	<tree id="14" weight="0.1">
		<split>
			<feature> 1 </feature>
			<threshold> 2.9361722 </threshold>
			<split pos="left">
				<feature> 1 </feature>
				<threshold> 1.1137205 </threshold>
				<split pos="left">
					<feature> 5 </feature>
					<threshold> 0.021707872 </threshold>
					<split pos="left">
						<feature> 5 </feature>
						<threshold> 0.0012404498 </threshold>
						<split pos="left">
							<output> 9.154202E-4 </output>
						</split>
						<split pos="right">
							<feature> 7 </feature>
							<threshold> 0.8532046 </threshold>
							<split pos="left">
								<output> 0.0018919081 </output>
							</split>
							<split pos="right">
								<feature> 1 </feature>
								<threshold> 0.0 </threshold>
								<split pos="left">
									<feature> 7 </feature>
									<threshold> 0.91832507 </threshold>
									<split pos="left">
										<feature> 6 </feature>
										<threshold> 0.93343455 </threshold>
										<split pos="left">
											<output> 0.0063711964 </output>
										</split>
										<split pos="right">
											<output> 0.009998261 </output>
										</split>
									</split>
									<split pos="right">
										<output> 0.0051855575 </output>
									</split>
								</split>
								<split pos="right">
									<output> 0.008961271 </output>
								</split>
							</split>
						</split>
					</split>
					<split pos="right">
						<feature> 2 </feature>
						<threshold> 1.0514234 </threshold>
						<split pos="left">
							<output> 0.00919102 </output>
						</split>
						<split pos="right">
							<output> 0.059320226 </output>
						</split>
					</split>
				</split>
				<split pos="right">
					<output> 0.045506373 </output>
				</split>
			</split>
			<split pos="right">
				<output> 0.28807235 </output>
			</split>
		</split>
	</tree>
	<tree id="15" weight="0.1">
		<split>
			<feature> 2 </feature>
			<threshold> 6.7291045 </threshold>
			<split pos="left">
				<feature> 5 </feature>
				<threshold> 0.037833713 </threshold>
				<split pos="left">
					<feature> 5 </feature>
					<threshold> 0.021087646 </threshold>
					<split pos="left">
						<feature> 3 </feature>
						<threshold> 2.8185558 </threshold>
						<split pos="left">
							<feature> 7 </feature>
							<threshold> 0.8683994 </threshold>
							<split pos="left">
								<output> 9.944102E-4 </output>
							</split>
							<split pos="right">
								<feature> 5 </feature>
								<threshold> 0.0012404498 </threshold>
								<split pos="left">
									<output> 0.0020710875 </output>
								</split>
								<split pos="right">
									<feature> 1 </feature>
									<threshold> 1.7212044 </threshold>
									<split pos="left">
										<feature> 3 </feature>
										<threshold> 2.0410233 </threshold>
										<split pos="left">
											<feature> 1 </feature>
											<threshold> 1.2655915 </threshold>
											<split pos="left">
												<output> 0.006032001 </output>
											</split>
											<split pos="right">
												<output> 0.03173091 </output>
											</split>
										</split>
										<split pos="right">
											<output> -0.009359882 </output>
										</split>
									</split>
									<split pos="right">
										<output> 0.046601012 </output>
									</split>
								</split>
							</split>
						</split>
						<split pos="right">
							<output> -0.048022542 </output>
						</split>
					</split>
					<split pos="right">
						<output> 0.012492178 </output>
					</split>
				</split>
				<split pos="right">
					<output> 0.049144525 </output>
				</split>
			</split>
			<split pos="right">
				<output> 0.43432972 </output>
			</split>
		</split>
	</tree>
	<tree id="16" weight="0.1">
		<split>
			<feature> 2 </feature>
			<threshold> 3.4696975 </threshold>
			<split pos="left">
				<feature> 1 </feature>
				<threshold> 0.91122586 </threshold>
				<split pos="left">
					<feature> 5 </feature>
					<threshold> 0.0031011247 </threshold>
					<split pos="left">
						<output> 0.0014923686 </output>
					</split>
					<split pos="right">
						<feature> 1 </feature>
						<threshold> 0.35436562 </threshold>
						<split pos="left">
							<feature> 7 </feature>
							<threshold> 0.95739734 </threshold>
							<split pos="left">
								<feature> 7 </feature>
								<threshold> 0.7945962 </threshold>
								<split pos="left">
									<output> -0.0013465841 </output>
								</split>
								<split pos="right">
									<feature> 6 </feature>
									<threshold> 0.828661 </threshold>
									<split pos="left">
										<output> 0.011383599 </output>
									</split>
									<split pos="right">
										<feature> 7 </feature>
										<threshold> 0.8314978 </threshold>
										<split pos="left">
											<output> 8.2450855E-4 </output>
										</split>
										<split pos="right">
											<feature> 6 </feature>
											<threshold> 0.8500038 </threshold>
											<split pos="left">
												<output> 0.01348373 </output>
											</split>
											<split pos="right">
												<output> 0.005195698 </output>
											</split>
										</split>
									</split>
								</split>
							</split>
							<split pos="right">
								<output> 2.6051133E-4 </output>
							</split>
						</split>
						<split pos="right">
							<output> 0.011790078 </output>
						</split>
					</split>
				</split>
				<split pos="right">
					<output> 0.026655132 </output>
				</split>
			</split>
			<split pos="right">
				<output> 0.12959154 </output>
			</split>
		</split>
	</tree>
	<tree id="17" weight="0.1">
		<split>
			<feature> 2 </feature>
			<threshold> 7.99081 </threshold>
			<split pos="left">
				<feature> 1 </feature>
				<threshold> 1.771828 </threshold>
				<split pos="left">
					<feature> 5 </feature>
					<threshold> 0.040314607 </threshold>
					<split pos="left">
						<feature> 5 </feature>
						<threshold> 0.014885394 </threshold>
						<split pos="left">
							<feature> 3 </feature>
							<threshold> 1.9438316 </threshold>
							<split pos="left">
								<feature> 7 </feature>
								<threshold> 0.8532046 </threshold>
								<split pos="left">
									<output> -3.0507537E-4 </output>
								</split>
								<split pos="right">
									<feature> 5 </feature>
									<threshold> 0.0 </threshold>
									<split pos="left">
										<output> 4.2721754E-4 </output>
									</split>
									<split pos="right">
										<feature> 3 </feature>
										<threshold> 1.5550653 </threshold>
										<split pos="left">
											<output> 0.0042588506 </output>
										</split>
										<split pos="right">
											<output> -0.0058588856 </output>
										</split>
									</split>
								</split>
							</split>
							<split pos="right">
								<output> -0.030605694 </output>
							</split>
						</split>
						<split pos="right">
							<feature> 1 </feature>
							<threshold> 0.7593549 </threshold>
							<split pos="left">
								<output> 0.005595114 </output>
							</split>
							<split pos="right">
								<output> 0.036854852 </output>
							</split>
						</split>
					</split>
					<split pos="right">
						<output> 0.03434675 </output>
					</split>
				</split>
				<split pos="right">
					<output> 0.08077037 </output>
				</split>
			</split>
			<split pos="right">
				<output> 0.55381346 </output>
			</split>
		</split>
	</tree>
	<tree id="18" weight="0.1">
		<split>
			<feature> 2 </feature>
			<threshold> 4.415978 </threshold>
			<split pos="left">
				<feature> 5 </feature>
				<threshold> 0.040314607 </threshold>
				<split pos="left">
					<feature> 5 </feature>
					<threshold> 0.02604945 </threshold>
					<split pos="left">
						<feature> 3 </feature>
						<threshold> 3.1101305 </threshold>
						<split pos="left">
							<feature> 7 </feature>
							<threshold> 0.8445219 </threshold>
							<split pos="left">
								<output> -4.7835204E-4 </output>
							</split>
							<split pos="right">
								<feature> 5 </feature>
								<threshold> 0.009303373 </threshold>
								<split pos="left">
									<feature> 3 </feature>
									<threshold> 1.5550653 </threshold>
									<split pos="left">
										<output> 0.0028531163 </output>
									</split>
									<split pos="right">
										<output> -0.02172149 </output>
									</split>
								</split>
								<split pos="right">
									<feature> 3 </feature>
									<threshold> 0.0 </threshold>
									<split pos="left">
										<feature> 7 </feature>
										<threshold> 0.91832507 </threshold>
										<split pos="left">
											<output> 0.005314391 </output>
										</split>
										<split pos="right">
											<output> 0.002682508 </output>
										</split>
									</split>
									<split pos="right">
										<output> 0.010779542 </output>
									</split>
								</split>
							</split>
						</split>
						<split pos="right">
							<output> -0.044920933 </output>
						</split>
					</split>
					<split pos="right">
						<output> 0.01189214 </output>
					</split>
				</split>
				<split pos="right">
					<output> 0.040500946 </output>
				</split>
			</split>
			<split pos="right">
				<output> 0.15753458 </output>
			</split>
		</split>
	</tree>
	<tree id="19" weight="0.1">
		<split>
			<feature> 2 </feature>
			<threshold> 7.99081 </threshold>
			<split pos="left">
				<feature> 2 </feature>
				<threshold> 2.1028469 </threshold>
				<split pos="left">
					<feature> 3 </feature>
					<threshold> 0.58314955 </threshold>
					<split pos="left">
						<feature> 5 </feature>
						<threshold> 0.0 </threshold>
						<split pos="left">
							<output> -8.4173755E-4 </output>
						</split>
						<split pos="right">
							<feature> 7 </feature>
							<threshold> 0.96608007 </threshold>
							<split pos="left">
								<feature> 7 </feature>
								<threshold> 0.80110824 </threshold>
								<split pos="left">
									<output> -0.0013732109 </output>
								</split>
								<split pos="right">
									<feature> 7 </feature>
									<threshold> 0.94220257 </threshold>
									<split pos="left">
										<feature> 6 </feature>
										<threshold> 0.9508968 </threshold>
										<split pos="left">
											<feature> 7 </feature>
											<threshold> 0.93134916 </threshold>
											<split pos="left">
												<output> 0.00400002 </output>
											</split>
											<split pos="right">
												<output> 0.0010613229 </output>
											</split>
										</split>
										<split pos="right">
											<output> 0.0076871365 </output>
										</split>
									</split>
									<split pos="right">
										<output> 0.0019757128 </output>
									</split>
								</split>
							</split>
							<split pos="right">
								<output> -0.004714697 </output>
							</split>
						</split>
					</split>
					<split pos="right">
						<output> 0.00991634 </output>
					</split>
				</split>
				<split pos="right">
					<output> 0.044742253 </output>
				</split>
			</split>
			<split pos="right">
				<output> 0.48268926 </output>
			</split>
		</split>
	</tree>
	<tree id="20" weight="0.1">
		<split>
			<feature> 2 </feature>
			<threshold> 5.8879676 </threshold>
			<split pos="left">
				<feature> 5 </feature>
				<threshold> 0.045276396 </threshold>
				<split pos="left">
					<feature> 3 </feature>
					<threshold> 5.7343073 </threshold>
					<split pos="left">
						<feature> 5 </feature>
						<threshold> 0.029150577 </threshold>
						<split pos="left">
							<feature> 3 </feature>
							<threshold> 3.1101305 </threshold>
							<split pos="left">
								<feature> 5 </feature>
								<threshold> 0.011784271 </threshold>
								<split pos="left">
									<feature> 3 </feature>
									<threshold> 1.4578737 </threshold>
									<split pos="left">
										<output> 0.0017478749 </output>
									</split>
									<split pos="right">
										<output> -0.020482559 </output>
									</split>
								</split>
								<split pos="right">
									<feature> 1 </feature>
									<threshold> 1.0124732 </threshold>
									<split pos="left">
										<feature> 7 </feature>
										<threshold> 0.9248371 </threshold>
										<split pos="left">
											<output> 0.0057187057 </output>
										</split>
										<split pos="right">
											<output> 0.0016959835 </output>
										</split>
									</split>
									<split pos="right">
										<output> 0.021084616 </output>
									</split>
								</split>
							</split>
							<split pos="right">
								<output> -0.035390906 </output>
							</split>
						</split>
						<split pos="right">
							<output> 0.014978221 </output>
						</split>
					</split>
					<split pos="right">
						<output> -0.3430404 </output>
					</split>
				</split>
				<split pos="right">
					<output> 0.05558826 </output>
				</split>
			</split>
			<split pos="right">
				<output> 0.2408065 </output>
			</split>
		</split>
	</tree>
	<tree id="21" weight="0.1">
		<split>
			<feature> 2 </feature>
			<threshold> 3.3645551 </threshold>
			<split pos="left">
				<feature> 1 </feature>
				<threshold> 1.0124732 </threshold>
				<split pos="left">
					<feature> 3 </feature>
					<threshold> 0.0 </threshold>
					<split pos="left">
						<feature> 5 </feature>
						<threshold> 0.0 </threshold>
						<split pos="left">
							<output> -9.306018E-4 </output>
						</split>
						<split pos="right">
							<feature> 7 </feature>
							<threshold> 0.97042143 </threshold>
							<split pos="left">
								<feature> 5 </feature>
								<threshold> 0.07504713 </threshold>
								<split pos="left">
									<feature> 7 </feature>
									<threshold> 0.8032789 </threshold>
									<split pos="left">
										<output> -7.983232E-4 </output>
									</split>
									<split pos="right">
										<feature> 6 </feature>
										<threshold> 0.8500038 </threshold>
										<split pos="left">
											<output> 0.0061906236 </output>
										</split>
										<split pos="right">
											<feature> 7 </feature>
											<threshold> 0.8423512 </threshold>
											<split pos="left">
												<output> -2.8741843E-4 </output>
											</split>
											<split pos="right">
												<output> 0.0026792253 </output>
											</split>
										</split>
									</split>
								</split>
								<split pos="right">
									<output> -0.028435266 </output>
								</split>
							</split>
							<split pos="right">
								<output> -0.008157979 </output>
							</split>
						</split>
					</split>
					<split pos="right">
						<output> 0.0057907975 </output>
					</split>
				</split>
				<split pos="right">
					<output> 0.020952344 </output>
				</split>
			</split>
			<split pos="right">
				<output> 0.089097515 </output>
			</split>
		</split>
	</tree>
	<tree id="22" weight="0.1">
		<split>
			<feature> 2 </feature>
			<threshold> 8.516522 </threshold>
			<split pos="left">
				<feature> 5 </feature>
				<threshold> 0.046516843 </threshold>
				<split pos="left">
					<feature> 5 </feature>
					<threshold> 0.031631477 </threshold>
					<split pos="left">
						<feature> 3 </feature>
						<threshold> 3.1101305 </threshold>
						<split pos="left">
							<feature> 5 </feature>
							<threshold> 0.014265169 </threshold>
							<split pos="left">
								<feature> 3 </feature>
								<threshold> 1.5550653 </threshold>
								<split pos="left">
									<feature> 7 </feature>
									<threshold> 0.8879355 </threshold>
									<split pos="left">
										<output> 1.5293196E-4 </output>
									</split>
									<split pos="right">
										<output> 0.0027949724 </output>
									</split>
								</split>
								<split pos="right">
									<output> -0.019360736 </output>
								</split>
							</split>
							<split pos="right">
								<feature> 1 </feature>
								<threshold> 1.0124732 </threshold>
								<split pos="left">
									<feature> 7 </feature>
									<threshold> 0.9291785 </threshold>
									<split pos="left">
										<output> 0.005344879 </output>
									</split>
									<split pos="right">
										<output> 8.8604196E-4 </output>
									</split>
								</split>
								<split pos="right">
									<output> 0.025541104 </output>
								</split>
							</split>
						</split>
						<split pos="right">
							<output> -0.035821408 </output>
						</split>
					</split>
					<split pos="right">
						<output> 0.015851306 </output>
					</split>
				</split>
				<split pos="right">
					<output> 0.061437324 </output>
				</split>
			</split>
			<split pos="right">
				<output> 0.4672615 </output>
			</split>
		</split>
	</tree>
	<tree id="23" weight="0.1">
		<split>
			<feature> 2 </feature>
			<threshold> 3.3645551 </threshold>
			<split pos="left">
				<feature> 2 </feature>
				<threshold> 1.3668505 </threshold>
				<split pos="left">
					<feature> 7 </feature>
					<threshold> 0.81413233 </threshold>
					<split pos="left">
						<output> -0.0020419292 </output>
					</split>
					<split pos="right">
						<feature> 3 </feature>
						<threshold> 0.0 </threshold>
						<split pos="left">
							<feature> 5 </feature>
							<threshold> 0.038453937 </threshold>
							<split pos="left">
								<feature> 5 </feature>
								<threshold> 0.0 </threshold>
								<split pos="left">
									<output> -3.830718E-4 </output>
								</split>
								<split pos="right">
									<feature> 6 </feature>
									<threshold> 0.8500038 </threshold>
									<split pos="left">
										<output> 0.0070343614 </output>
									</split>
									<split pos="right">
										<feature> 7 </feature>
										<threshold> 0.95739734 </threshold>
										<split pos="left">
											<feature> 6 </feature>
											<threshold> 0.9586578 </threshold>
											<split pos="left">
												<output> 0.0019875607 </output>
											</split>
											<split pos="right">
												<output> 0.00460351 </output>
											</split>
										</split>
										<split pos="right">
											<output> -0.0012686049 </output>
										</split>
									</split>
								</split>
							</split>
							<split pos="right">
								<output> -0.00778534 </output>
							</split>
						</split>
						<split pos="right">
							<output> 0.0051259897 </output>
						</split>
					</split>
				</split>
				<split pos="right">
					<output> 0.015807737 </output>
				</split>
			</split>
			<split pos="right">
				<output> 0.08048744 </output>
			</split>
		</split>
	</tree>
	<tree id="24" weight="0.1">
		<split>
			<feature> 5 </feature>
			<threshold> 0.047137067 </threshold>
			<split pos="left">
				<feature> 5 </feature>
				<threshold> 0.031631477 </threshold>
				<split pos="left">
					<feature> 3 </feature>
					<threshold> 3.1101305 </threshold>
					<split pos="left">
						<feature> 5 </feature>
						<threshold> 0.014265169 </threshold>
						<split pos="left">
							<feature> 2 </feature>
							<threshold> 1.9977046 </threshold>
							<split pos="left">
								<feature> 3 </feature>
								<threshold> 0.87472427 </threshold>
								<split pos="left">
									<feature> 5 </feature>
									<threshold> 0.0 </threshold>
									<split pos="left">
										<output> -8.6050935E-4 </output>
									</split>
									<split pos="right">
										<feature> 7 </feature>
										<threshold> 0.8879355 </threshold>
										<split pos="left">
											<output> 0.0010009316 </output>
										</split>
										<split pos="right">
											<output> 0.0025889105 </output>
										</split>
									</split>
								</split>
								<split pos="right">
									<output> -0.006048758 </output>
								</split>
							</split>
							<split pos="right">
								<output> -0.02639275 </output>
							</split>
						</split>
						<split pos="right">
							<feature> 1 </feature>
							<threshold> 0.45561293 </threshold>
							<split pos="left">
								<output> 0.0022732827 </output>
							</split>
							<split pos="right">
								<output> 0.012518351 </output>
							</split>
						</split>
					</split>
					<split pos="right">
						<output> -0.04116441 </output>
					</split>
				</split>
				<split pos="right">
					<output> 0.014626389 </output>
				</split>
			</split>
			<split pos="right">
				<output> 0.06382106 </output>
			</split>
		</split>
	</tree>
	<tree id="25" weight="0.1">
		<split>
			<feature> 2 </feature>
			<threshold> 3.3645551 </threshold>
			<split pos="left">
				<feature> 2 </feature>
				<threshold> 1.8925623 </threshold>
				<split pos="left">
					<feature> 1 </feature>
					<threshold> 0.55686027 </threshold>
					<split pos="left">
						<feature> 5 </feature>
						<threshold> 0.038453937 </threshold>
						<split pos="left">
							<feature> 5 </feature>
							<threshold> 0.0 </threshold>
							<split pos="left">
								<output> -7.713417E-4 </output>
							</split>
							<split pos="right">
								<feature> 7 </feature>
								<threshold> 0.953056 </threshold>
								<split pos="left">
									<feature> 6 </feature>
									<threshold> 0.96059805 </threshold>
									<split pos="left">
										<feature> 7 </feature>
										<threshold> 0.94437325 </threshold>
										<split pos="left">
											<feature> 7 </feature>
											<threshold> 0.7945962 </threshold>
											<split pos="left">
												<output> -0.0019189982 </output>
											</split>
											<split pos="right">
												<output> 0.0021921548 </output>
											</split>
										</split>
										<split pos="right">
											<output> -0.002758173 </output>
										</split>
									</split>
									<split pos="right">
										<output> 0.006495372 </output>
									</split>
								</split>
								<split pos="right">
									<output> -0.0013177762 </output>
								</split>
							</split>
						</split>
						<split pos="right">
							<output> -0.008766693 </output>
						</split>
					</split>
					<split pos="right">
						<output> 0.006266354 </output>
					</split>
				</split>
				<split pos="right">
					<output> 0.020507542 </output>
				</split>
			</split>
			<split pos="right">
				<output> 0.07449407 </output>
			</split>
		</split>
	</tree>
	<tree id="26" weight="0.1">
		<split>
			<feature> 2 </feature>
			<threshold> 8.516522 </threshold>
			<split pos="left">
				<feature> 5 </feature>
				<threshold> 0.045276396 </threshold>
				<split pos="left">
					<feature> 5 </feature>
					<threshold> 0.02604945 </threshold>
					<split pos="left">
						<feature> 3 </feature>
						<threshold> 3.2073221 </threshold>
						<split pos="left">
							<feature> 3 </feature>
							<threshold> 1.5550653 </threshold>
							<split pos="left">
								<feature> 1 </feature>
								<threshold> 1.1137205 </threshold>
								<split pos="left">
									<feature> 7 </feature>
									<threshold> 0.8271564 </threshold>
									<split pos="left">
										<output> -0.0014805116 </output>
									</split>
									<split pos="right">
										<feature> 5 </feature>
										<threshold> 0.0062022493 </threshold>
										<split pos="left">
											<output> 7.7220367E-4 </output>
										</split>
										<split pos="right">
											<feature> 7 </feature>
											<threshold> 0.9270078 </threshold>
											<split pos="left">
												<output> 0.0030623795 </output>
											</split>
											<split pos="right">
												<output> 6.564465E-4 </output>
											</split>
										</split>
									</split>
								</split>
								<split pos="right">
									<output> 0.027712958 </output>
								</split>
							</split>
							<split pos="right">
								<output> -0.009892883 </output>
							</split>
						</split>
						<split pos="right">
							<output> -0.07116853 </output>
						</split>
					</split>
					<split pos="right">
						<output> 0.00861698 </output>
					</split>
				</split>
				<split pos="right">
					<output> 0.046009343 </output>
				</split>
			</split>
			<split pos="right">
				<output> 0.4035875 </output>
			</split>
		</split>
	</tree>
	<tree id="27" weight="0.1">
		<split>
			<feature> 2 </feature>
			<threshold> 3.1542704 </threshold>
			<split pos="left">
				<feature> 2 </feature>
				<threshold> 1.4719929 </threshold>
				<split pos="left">
					<feature> 7 </feature>
					<threshold> 0.97042143 </threshold>
					<split pos="left">
						<feature> 5 </feature>
						<threshold> 0.0769078 </threshold>
						<split pos="left">
							<feature> 7 </feature>
							<threshold> 0.8206444 </threshold>
							<split pos="left">
								<output> -0.0015617841 </output>
							</split>
							<split pos="right">
								<feature> 1 </feature>
								<threshold> 0.0 </threshold>
								<split pos="left">
									<feature> 5 </feature>
									<threshold> 0.0322517 </threshold>
									<split pos="left">
										<feature> 6 </feature>
										<threshold> 0.844183 </threshold>
										<split pos="left">
											<output> 0.006999973 </output>
										</split>
										<split pos="right">
											<feature> 5 </feature>
											<threshold> 6.202249E-4 </threshold>
											<split pos="left">
												<output> -1.11763606E-4 </output>
											</split>
											<split pos="right">
												<output> 0.0014263727 </output>
											</split>
										</split>
									</split>
									<split pos="right">
										<output> -0.0051972484 </output>
									</split>
								</split>
								<split pos="right">
									<output> 0.004098817 </output>
								</split>
							</split>
						</split>
						<split pos="right">
							<output> -0.034109667 </output>
						</split>
					</split>
					<split pos="right">
						<output> -0.010684725 </output>
					</split>
				</split>
				<split pos="right">
					<output> 0.013350262 </output>
				</split>
			</split>
			<split pos="right">
				<output> 0.06227336 </output>
			</split>
		</split>
	</tree>
	<tree id="28" weight="0.1">
		<split>
			<feature> 2 </feature>
			<threshold> 6.7291045 </threshold>
			<split pos="left">
				<feature> 1 </feature>
				<threshold> 1.3668388 </threshold>
				<split pos="left">
					<feature> 2 </feature>
					<threshold> 1.2617081 </threshold>
					<split pos="left">
						<feature> 5 </feature>
						<threshold> 0.04589662 </threshold>
						<split pos="left">
							<feature> 7 </feature>
							<threshold> 0.9617387 </threshold>
							<split pos="left">
								<feature> 7 </feature>
								<threshold> 0.87057006 </threshold>
								<split pos="left">
									<output> -1.095103E-4 </output>
								</split>
								<split pos="right">
									<feature> 2 </feature>
									<threshold> 0.31542698 </threshold>
									<split pos="left">
										<feature> 5 </feature>
										<threshold> 0.031011254 </threshold>
										<split pos="left">
											<feature> 6 </feature>
											<threshold> 0.88686854 </threshold>
											<split pos="left">
												<output> 0.005130372 </output>
											</split>
											<split pos="right">
												<output> 0.0013599235 </output>
											</split>
										</split>
										<split pos="right">
											<output> -0.0028398775 </output>
										</split>
									</split>
									<split pos="right">
										<output> 0.0052670534 </output>
									</split>
								</split>
							</split>
							<split pos="right">
								<output> -0.0037576484 </output>
							</split>
						</split>
						<split pos="right">
							<output> -0.011819775 </output>
						</split>
					</split>
					<split pos="right">
						<output> 0.00760627 </output>
					</split>
				</split>
				<split pos="right">
					<output> 0.02989434 </output>
				</split>
			</split>
			<split pos="right">
				<output> 0.2212115 </output>
			</split>
		</split>
	</tree>
	<tree id="29" weight="0.1">
		<split>
			<feature> 5 </feature>
			<threshold> 0.048377514 </threshold>
			<split pos="left">
				<feature> 5 </feature>
				<threshold> 0.034732595 </threshold>
				<split pos="left">
					<feature> 3 </feature>
					<threshold> 5.5399237 </threshold>
					<split pos="left">
						<feature> 3 </feature>
						<threshold> 3.1101305 </threshold>
						<split pos="left">
							<feature> 5 </feature>
							<threshold> 0.016125843 </threshold>
							<split pos="left">
								<feature> 3 </feature>
								<threshold> 1.4578737 </threshold>
								<split pos="left">
									<feature> 3 </feature>
									<threshold> 0.87472427 </threshold>
									<split pos="left">
										<feature> 7 </feature>
										<threshold> 0.8879355 </threshold>
										<split pos="left">
											<output> -9.2169375E-6 </output>
										</split>
										<split pos="right">
											<output> 0.0016086746 </output>
										</split>
									</split>
									<split pos="right">
										<output> -0.0051949867 </output>
									</split>
								</split>
								<split pos="right">
									<output> -0.018555803 </output>
								</split>
							</split>
							<split pos="right">
								<feature> 1 </feature>
								<threshold> 1.0124732 </threshold>
								<split pos="left">
									<output> 0.0017715164 </output>
								</split>
								<split pos="right">
									<output> 0.025610194 </output>
								</split>
							</split>
						</split>
						<split pos="right">
							<output> -0.025772404 </output>
						</split>
					</split>
					<split pos="right">
						<output> -0.12781227 </output>
					</split>
				</split>
				<split pos="right">
					<output> 0.015707152 </output>
				</split>
			</split>
			<split pos="right">
				<output> 0.057541266 </output>
			</split>
		</split>
	</tree>
	<tree id="30" weight="0.1">
		<split>
			<feature> 2 </feature>
			<threshold> 4.1005516 </threshold>
			<split pos="left">
				<feature> 2 </feature>
				<threshold> 1.8925623 </threshold>
				<split pos="left">
					<feature> 7 </feature>
					<threshold> 0.97042143 </threshold>
					<split pos="left">
						<feature> 1 </feature>
						<threshold> 1.2655915 </threshold>
						<split pos="left">
							<feature> 3 </feature>
							<threshold> 0.6803411 </threshold>
							<split pos="left">
								<feature> 5 </feature>
								<threshold> 0.038453937 </threshold>
								<split pos="left">
									<feature> 5 </feature>
									<threshold> 0.0 </threshold>
									<split pos="left">
										<output> -7.8190345E-4 </output>
									</split>
									<split pos="right">
										<feature> 4 </feature>
										<threshold> 0.0 </threshold>
										<split pos="left">
											<output> -0.013708246 </output>
										</split>
										<split pos="right">
											<feature> 7 </feature>
											<threshold> 0.9378612 </threshold>
											<split pos="left">
												<output> 0.0013784653 </output>
											</split>
											<split pos="right">
												<output> -2.3155018E-4 </output>
											</split>
										</split>
									</split>
								</split>
								<split pos="right">
									<output> -0.010415097 </output>
								</split>
							</split>
							<split pos="right">
								<output> 0.00400821 </output>
							</split>
						</split>
						<split pos="right">
							<output> 0.031763032 </output>
						</split>
					</split>
					<split pos="right">
						<output> -0.01022968 </output>
					</split>
				</split>
				<split pos="right">
					<output> 0.017245417 </output>
				</split>
			</split>
			<split pos="right">
				<output> 0.0820575 </output>
			</split>
		</split>
	</tree>
	<tree id="31" weight="0.1">
		<split>
			<feature> 1 </feature>
			<threshold> 3.7967744 </threshold>
			<split pos="left">
				<feature> 5 </feature>
				<threshold> 0.03721349 </threshold>
				<split pos="left">
					<feature> 3 </feature>
					<threshold> 3.1101305 </threshold>
					<split pos="left">
						<feature> 2 </feature>
						<threshold> 3.1542704 </threshold>
						<split pos="left">
							<feature> 3 </feature>
							<threshold> 2.8185558 </threshold>
							<split pos="left">
								<feature> 1 </feature>
								<threshold> 1.5693334 </threshold>
								<split pos="left">
									<feature> 2 </feature>
									<threshold> 2.8388433 </threshold>
									<split pos="left">
										<feature> 3 </feature>
										<threshold> 2.0410233 </threshold>
										<split pos="left">
											<feature> 1 </feature>
											<threshold> 1.3668388 </threshold>
											<split pos="left">
												<output> 7.09593E-4 </output>
											</split>
											<split pos="right">
												<output> 0.026629703 </output>
											</split>
										</split>
										<split pos="right">
											<output> -0.012179105 </output>
										</split>
									</split>
									<split pos="right">
										<output> 0.054681025 </output>
									</split>
								</split>
								<split pos="right">
									<output> 0.020249082 </output>
								</split>
							</split>
							<split pos="right">
								<output> -0.03351187 </output>
							</split>
						</split>
						<split pos="right">
							<output> 0.041830055 </output>
						</split>
					</split>
					<split pos="right">
						<output> -0.023156786 </output>
					</split>
				</split>
				<split pos="right">
					<output> 0.02196519 </output>
				</split>
			</split>
			<split pos="right">
				<output> 0.21204028 </output>
			</split>
		</split>
	</tree>
	<tree id="32" weight="0.1">
		<split>
			<feature> 2 </feature>
			<threshold> 3.5748398 </threshold>
			<split pos="left">
				<feature> 2 </feature>
				<threshold> 1.8925623 </threshold>
				<split pos="left">
					<feature> 7 </feature>
					<threshold> 0.95522666 </threshold>
					<split pos="left">
						<feature> 1 </feature>
						<threshold> 1.2655915 </threshold>
						<split pos="left">
							<feature> 7 </feature>
							<threshold> 0.8814235 </threshold>
							<split pos="left">
								<output> -3.1231518E-4 </output>
							</split>
							<split pos="right">
								<feature> 1 </feature>
								<threshold> 0.55686027 </threshold>
								<split pos="left">
									<feature> 5 </feature>
									<threshold> 0.040314607 </threshold>
									<split pos="left">
										<feature> 6 </feature>
										<threshold> 0.9586578 </threshold>
										<split pos="left">
											<feature> 7 </feature>
											<threshold> 0.94220257 </threshold>
											<split pos="left">
												<output> 0.0013567866 </output>
											</split>
											<split pos="right">
												<output> -0.0038574457 </output>
											</split>
										</split>
										<split pos="right">
											<output> 0.0035905757 </output>
										</split>
									</split>
									<split pos="right">
										<output> -0.010718872 </output>
									</split>
								</split>
								<split pos="right">
									<output> 0.008752757 </output>
								</split>
							</split>
						</split>
						<split pos="right">
							<output> 0.029285561 </output>
						</split>
					</split>
					<split pos="right">
						<output> -0.003359699 </output>
					</split>
				</split>
				<split pos="right">
					<output> 0.014100401 </output>
				</split>
			</split>
			<split pos="right">
				<output> 0.06011132 </output>
			</split>
		</split>
	</tree>
	<tree id="33" weight="0.1">
		<split>
			<feature> 5 </feature>
			<threshold> 0.050238185 </threshold>
			<split pos="left">
				<feature> 5 </feature>
				<threshold> 0.032871924 </threshold>
				<split pos="left">
					<feature> 3 </feature>
					<threshold> 3.1101305 </threshold>
					<split pos="left">
						<feature> 3 </feature>
						<threshold> 1.5550653 </threshold>
						<split pos="left">
							<feature> 1 </feature>
							<threshold> 1.1137205 </threshold>
							<split pos="left">
								<feature> 7 </feature>
								<threshold> 0.80110824 </threshold>
								<split pos="left">
									<output> -0.0023156623 </output>
								</split>
								<split pos="right">
									<feature> 7 </feature>
									<threshold> 0.94654393 </threshold>
									<split pos="left">
										<feature> 5 </feature>
										<threshold> 0.0062022493 </threshold>
										<split pos="left">
											<output> 5.1156047E-5 </output>
										</split>
										<split pos="right">
											<feature> 1 </feature>
											<threshold> 0.0 </threshold>
											<split pos="left">
												<output> 0.0010255877 </output>
											</split>
											<split pos="right">
												<output> 0.0052736895 </output>
											</split>
										</split>
									</split>
									<split pos="right">
										<output> -8.804983E-4 </output>
									</split>
								</split>
							</split>
							<split pos="right">
								<output> 0.025850585 </output>
							</split>
						</split>
						<split pos="right">
							<output> -0.007040607 </output>
						</split>
					</split>
					<split pos="right">
						<output> -0.046602108 </output>
					</split>
				</split>
				<split pos="right">
					<output> 0.011558513 </output>
				</split>
			</split>
			<split pos="right">
				<output> 0.055307627 </output>
			</split>
		</split>
	</tree>
	<tree id="34" weight="0.1">
		<split>
			<feature> 2 </feature>
			<threshold> 8.516522 </threshold>
			<split pos="left">
				<feature> 2 </feature>
				<threshold> 2.8388433 </threshold>
				<split pos="left">
					<feature> 1 </feature>
					<threshold> 1.5693334 </threshold>
					<split pos="left">
						<feature> 7 </feature>
						<threshold> 0.97042143 </threshold>
						<split pos="left">
							<feature> 2 </feature>
							<threshold> 1.2617081 </threshold>
							<split pos="left">
								<feature> 5 </feature>
								<threshold> 0.04589662 </threshold>
								<split pos="left">
									<feature> 5 </feature>
									<threshold> 0.0322517 </threshold>
									<split pos="left">
										<feature> 3 </feature>
										<threshold> 1.166299 </threshold>
										<split pos="left">
											<feature> 5 </feature>
											<threshold> 0.0012404498 </threshold>
											<split pos="left">
												<output> -4.982625E-4 </output>
											</split>
											<split pos="right">
												<output> 9.497319E-4 </output>
											</split>
										</split>
										<split pos="right">
											<output> -0.009163902 </output>
										</split>
									</split>
									<split pos="right">
										<output> -0.003330555 </output>
									</split>
								</split>
								<split pos="right">
									<output> -0.016333384 </output>
								</split>
							</split>
							<split pos="right">
								<output> 0.0055438075 </output>
							</split>
						</split>
						<split pos="right">
							<output> -0.010120741 </output>
						</split>
					</split>
					<split pos="right">
						<output> 0.025768032 </output>
					</split>
				</split>
				<split pos="right">
					<output> 0.035645947 </output>
				</split>
			</split>
			<split pos="right">
				<output> 0.30155268 </output>
			</split>
		</split>
	</tree>
	<tree id="35" weight="0.1">
		<split>
			<feature> 5 </feature>
			<threshold> 0.048377514 </threshold>
			<split pos="left">
				<feature> 3 </feature>
				<threshold> 5.7343073 </threshold>
				<split pos="left">
					<feature> 2 </feature>
					<threshold> 5.151973 </threshold>
					<split pos="left">
						<feature> 5 </feature>
						<threshold> 0.0272899 </threshold>
						<split pos="left">
							<feature> 3 </feature>
							<threshold> 2.8185558 </threshold>
							<split pos="left">
								<feature> 3 </feature>
								<threshold> 1.5550653 </threshold>
								<split pos="left">
									<feature> 1 </feature>
									<threshold> 1.1137205 </threshold>
									<split pos="left">
										<feature> 3 </feature>
										<threshold> 1.166299 </threshold>
										<split pos="left">
											<feature> 7 </feature>
											<threshold> 0.8683994 </threshold>
											<split pos="left">
												<output> -3.269304E-4 </output>
											</split>
											<split pos="right">
												<output> 9.3995675E-4 </output>
											</split>
										</split>
										<split pos="right">
											<output> -0.00581067 </output>
										</split>
									</split>
									<split pos="right">
										<output> 0.020269308 </output>
									</split>
								</split>
								<split pos="right">
									<output> -0.011064582 </output>
								</split>
							</split>
							<split pos="right">
								<output> -0.051681053 </output>
							</split>
						</split>
						<split pos="right">
							<output> 0.006203551 </output>
						</split>
					</split>
					<split pos="right">
						<output> 0.099493176 </output>
					</split>
				</split>
				<split pos="right">
					<output> -0.08867635 </output>
				</split>
			</split>
			<split pos="right">
				<output> 0.045756686 </output>
			</split>
		</split>
	</tree>
	<tree id="36" weight="0.1">
		<split>
			<feature> 2 </feature>
			<threshold> 3.049128 </threshold>
			<split pos="left">
				<feature> 2 </feature>
				<threshold> 1.4719929 </threshold>
				<split pos="left">
					<feature> 5 </feature>
					<threshold> 0.04589662 </threshold>
					<split pos="left">
						<feature> 7 </feature>
						<threshold> 0.94654393 </threshold>
						<split pos="left">
							<feature> 6 </feature>
							<threshold> 0.95671755 </threshold>
							<split pos="left">
								<feature> 7 </feature>
								<threshold> 0.9378612 </threshold>
								<split pos="left">
									<feature> 6 </feature>
									<threshold> 0.9431358 </threshold>
									<split pos="left">
										<feature> 7 </feature>
										<threshold> 0.9248371 </threshold>
										<split pos="left">
											<feature> 5 </feature>
											<threshold> 0.012404496 </threshold>
											<split pos="left">
												<output> -1.0590031E-4 </output>
											</split>
											<split pos="right">
												<output> 0.002093142 </output>
											</split>
										</split>
										<split pos="right">
											<output> -0.0025182958 </output>
										</split>
									</split>
									<split pos="right">
										<output> 0.0032376717 </output>
									</split>
								</split>
								<split pos="right">
									<output> -0.0025468084 </output>
								</split>
							</split>
							<split pos="right">
								<output> 0.0054021054 </output>
							</split>
						</split>
						<split pos="right">
							<output> -0.0018053569 </output>
						</split>
					</split>
					<split pos="right">
						<output> -0.019029493 </output>
					</split>
				</split>
				<split pos="right">
					<output> 0.008057034 </output>
				</split>
			</split>
			<split pos="right">
				<output> 0.04366544 </output>
			</split>
		</split>
	</tree>
	<tree id="37" weight="0.1">
		<split>
			<feature> 1 </feature>
			<threshold> 5.1129947 </threshold>
			<split pos="left">
				<feature> 5 </feature>
				<threshold> 0.0427955 </threshold>
				<split pos="left">
					<feature> 3 </feature>
					<threshold> 5.5399237 </threshold>
					<split pos="left">
						<feature> 2 </feature>
						<threshold> 5.362257 </threshold>
						<split pos="left">
							<feature> 5 </feature>
							<threshold> 0.022328097 </threshold>
							<split pos="left">
								<feature> 3 </feature>
								<threshold> 2.8185558 </threshold>
								<split pos="left">
									<feature> 3 </feature>
									<threshold> 1.3606821 </threshold>
									<split pos="left">
										<feature> 3 </feature>
										<threshold> 0.87472427 </threshold>
										<split pos="left">
											<feature> 5 </feature>
											<threshold> 0.0012404498 </threshold>
											<split pos="left">
												<output> -4.7348096E-4 </output>
											</split>
											<split pos="right">
												<output> 8.069599E-4 </output>
											</split>
										</split>
										<split pos="right">
											<output> -0.0039313426 </output>
										</split>
									</split>
									<split pos="right">
										<output> -0.012884857 </output>
									</split>
								</split>
								<split pos="right">
									<output> -0.06529251 </output>
								</split>
							</split>
							<split pos="right">
								<output> 0.0035639976 </output>
							</split>
						</split>
						<split pos="right">
							<output> 0.09954286 </output>
						</split>
					</split>
					<split pos="right">
						<output> -0.08773031 </output>
					</split>
				</split>
				<split pos="right">
					<output> 0.028269522 </output>
				</split>
			</split>
			<split pos="right">
				<output> 0.36185005 </output>
			</split>
		</split>
	</tree>
	<tree id="38" weight="0.1">
		<split>
			<feature> 2 </feature>
			<threshold> 2.8388433 </threshold>
			<split pos="left">
				<feature> 2 </feature>
				<threshold> 1.3668505 </threshold>
				<split pos="left">
					<feature> 5 </feature>
					<threshold> 0.04589662 </threshold>
					<split pos="left">
						<feature> 5 </feature>
						<threshold> 0.0322517 </threshold>
						<split pos="left">
							<feature> 4 </feature>
							<threshold> 0.0 </threshold>
							<split pos="left">
								<output> -0.011264021 </output>
							</split>
							<split pos="right">
								<feature> 3 </feature>
								<threshold> 1.2634906 </threshold>
								<split pos="left">
									<feature> 7 </feature>
									<threshold> 0.80110824 </threshold>
									<split pos="left">
										<output> -0.0018518528 </output>
									</split>
									<split pos="right">
										<feature> 6 </feature>
										<threshold> 0.828661 </threshold>
										<split pos="left">
											<output> 0.005162844 </output>
										</split>
										<split pos="right">
											<feature> 1 </feature>
											<threshold> 0.8606022 </threshold>
											<split pos="left">
												<output> 4.391207E-4 </output>
											</split>
											<split pos="right">
												<output> 0.008523168 </output>
											</split>
										</split>
									</split>
								</split>
								<split pos="right">
									<output> -0.008999974 </output>
								</split>
							</split>
						</split>
						<split pos="right">
							<output> -0.0044568586 </output>
						</split>
					</split>
					<split pos="right">
						<output> -0.021178108 </output>
					</split>
				</split>
				<split pos="right">
					<output> 0.0068594296 </output>
				</split>
			</split>
			<split pos="right">
				<output> 0.037859246 </output>
			</split>
		</split>
	</tree>
	<tree id="39" weight="0.1">
		<split>
			<feature> 2 </feature>
			<threshold> 6.308536 </threshold>
			<split pos="left">
				<feature> 3 </feature>
				<threshold> 5.7343073 </threshold>
				<split pos="left">
					<feature> 2 </feature>
					<threshold> 5.151973 </threshold>
					<split pos="left">
						<feature> 2 </feature>
						<threshold> 2.733701 </threshold>
						<split pos="left">
							<feature> 1 </feature>
							<threshold> 1.5693334 </threshold>
							<split pos="left">
								<feature> 5 </feature>
								<threshold> 0.07752802 </threshold>
								<split pos="left">
									<feature> 7 </feature>
									<threshold> 0.9747628 </threshold>
									<split pos="left">
										<feature> 3 </feature>
										<threshold> 0.6803411 </threshold>
										<split pos="left">
											<feature> 5 </feature>
											<threshold> 0.03721349 </threshold>
											<split pos="left">
												<output> 2.5159525E-4 </output>
											</split>
											<split pos="right">
												<output> -0.012136742 </output>
											</split>
										</split>
										<split pos="right">
											<output> 0.0031106384 </output>
										</split>
									</split>
									<split pos="right">
										<output> -0.014410236 </output>
									</split>
								</split>
								<split pos="right">
									<output> -0.037016124 </output>
								</split>
							</split>
							<split pos="right">
								<output> 0.02687741 </output>
							</split>
						</split>
						<split pos="right">
							<output> 0.025247786 </output>
						</split>
					</split>
					<split pos="right">
						<output> 0.14728932 </output>
					</split>
				</split>
				<split pos="right">
					<output> -0.25587282 </output>
				</split>
			</split>
			<split pos="right">
				<output> 0.1399215 </output>
			</split>
		</split>
	</tree>
	<tree id="40" weight="0.1">
		<split>
			<feature> 5 </feature>
			<threshold> 0.045276396 </threshold>
			<split pos="left">
				<feature> 3 </feature>
				<threshold> 5.7343073 </threshold>
				<split pos="left">
					<feature> 5 </feature>
					<threshold> 0.036593266 </threshold>
					<split pos="left">
						<feature> 3 </feature>
						<threshold> 3.1101305 </threshold>
						<split pos="left">
							<feature> 3 </feature>
							<threshold> 2.526981 </threshold>
							<split pos="left">
								<feature> 1 </feature>
								<threshold> 1.5693334 </threshold>
								<split pos="left">
									<feature> 3 </feature>
									<threshold> 1.6522568 </threshold>
									<split pos="left">
										<feature> 1 </feature>
										<threshold> 1.2149678 </threshold>
										<split pos="left">
											<feature> 7 </feature>
											<threshold> 0.7924255 </threshold>
											<split pos="left">
												<output> -0.0024667894 </output>
											</split>
											<split pos="right">
												<output> 3.1835987E-4 </output>
											</split>
										</split>
										<split pos="right">
											<output> 0.027024588 </output>
										</split>
									</split>
									<split pos="right">
										<output> -0.0058459183 </output>
									</split>
								</split>
								<split pos="right">
									<output> 0.022858668 </output>
								</split>
							</split>
							<split pos="right">
								<output> -0.011371879 </output>
							</split>
						</split>
						<split pos="right">
							<output> -0.029446188 </output>
						</split>
					</split>
					<split pos="right">
						<output> 0.012581955 </output>
					</split>
				</split>
				<split pos="right">
					<output> -0.09257828 </output>
				</split>
			</split>
			<split pos="right">
				<output> 0.035067525 </output>
			</split>
		</split>
	</tree>
	<tree id="41" weight="0.1">
		<split>
			<feature> 2 </feature>
			<threshold> 5.8879676 </threshold>
			<split pos="left">
				<feature> 3 </feature>
				<threshold> 5.7343073 </threshold>
				<split pos="left">
					<feature> 3 </feature>
					<threshold> 4.762389 </threshold>
					<split pos="left">
						<feature> 2 </feature>
						<threshold> 2.8388433 </threshold>
						<split pos="left">
							<feature> 2 </feature>
							<threshold> 1.4719929 </threshold>
							<split pos="left">
								<feature> 5 </feature>
								<threshold> 0.04589662 </threshold>
								<split pos="left">
									<feature> 5 </feature>
									<threshold> 0.034732595 </threshold>
									<split pos="left">
										<feature> 3 </feature>
										<threshold> 1.3606821 </threshold>
										<split pos="left">
											<feature> 2 </feature>
											<threshold> 1.3668505 </threshold>
											<split pos="left">
												<output> 2.0082248E-4 </output>
											</split>
											<split pos="right">
												<output> 0.012095014 </output>
											</split>
										</split>
										<split pos="right">
											<output> -0.011546479 </output>
										</split>
									</split>
									<split pos="right">
										<output> -0.0045285956 </output>
									</split>
								</split>
								<split pos="right">
									<output> -0.019982576 </output>
								</split>
							</split>
							<split pos="right">
								<output> 0.0062727723 </output>
							</split>
						</split>
						<split pos="right">
							<output> 0.025353178 </output>
						</split>
					</split>
					<split pos="right">
						<output> 0.12993258 </output>
					</split>
				</split>
				<split pos="right">
					<output> -0.35540274 </output>
				</split>
			</split>
			<split pos="right">
				<output> 0.11818581 </output>
			</split>
		</split>
	</tree>
	<tree id="42" weight="0.1">
		<split>
			<feature> 5 </feature>
			<threshold> 0.050238185 </threshold>
			<split pos="left">
				<feature> 5 </feature>
				<threshold> 0.035973042 </threshold>
				<split pos="left">
					<feature> 3 </feature>
					<threshold> 5.5399237 </threshold>
					<split pos="left">
						<feature> 3 </feature>
						<threshold> 2.8185558 </threshold>
						<split pos="left">
							<feature> 3 </feature>
							<threshold> 1.5550653 </threshold>
							<split pos="left">
								<feature> 1 </feature>
								<threshold> 1.1137205 </threshold>
								<split pos="left">
									<feature> 4 </feature>
									<threshold> 0.0 </threshold>
									<split pos="left">
										<output> -0.010684504 </output>
									</split>
									<split pos="right">
										<feature> 3 </feature>
										<threshold> 1.3606821 </threshold>
										<split pos="left">
											<feature> 2 </feature>
											<threshold> 1.4719929 </threshold>
											<split pos="left">
												<output> 2.224293E-4 </output>
											</split>
											<split pos="right">
												<output> 0.11464131 </output>
											</split>
										</split>
										<split pos="right">
											<output> -0.005588188 </output>
										</split>
									</split>
								</split>
								<split pos="right">
									<output> 0.019940492 </output>
								</split>
							</split>
							<split pos="right">
								<output> -0.004614701 </output>
							</split>
						</split>
						<split pos="right">
							<output> -0.026030252 </output>
						</split>
					</split>
					<split pos="right">
						<output> -0.1350775 </output>
					</split>
				</split>
				<split pos="right">
					<output> 0.012086264 </output>
				</split>
			</split>
			<split pos="right">
				<output> 0.04427211 </output>
			</split>
		</split>
	</tree>
	<tree id="43" weight="0.1">
		<split>
			<feature> 2 </feature>
			<threshold> 3.1542704 </threshold>
			<split pos="left">
				<feature> 2 </feature>
				<threshold> 1.8925623 </threshold>
				<split pos="left">
					<feature> 5 </feature>
					<threshold> 0.048997737 </threshold>
					<split pos="left">
						<feature> 7 </feature>
						<threshold> 0.94654393 </threshold>
						<split pos="left">
							<feature> 1 </feature>
							<threshold> 1.2655915 </threshold>
							<split pos="left">
								<feature> 6 </feature>
								<threshold> 0.9508968 </threshold>
								<split pos="left">
									<feature> 7 </feature>
									<threshold> 0.9378612 </threshold>
									<split pos="left">
										<feature> 5 </feature>
										<threshold> 0.016125843 </threshold>
										<split pos="left">
											<feature> 3 </feature>
											<threshold> 0.87472427 </threshold>
											<split pos="left">
												<output> 1.5611031E-4 </output>
											</split>
											<split pos="right">
												<output> -0.00801305 </output>
											</split>
										</split>
										<split pos="right">
											<output> 0.0017594348 </output>
										</split>
									</split>
									<split pos="right">
										<output> -0.005686575 </output>
									</split>
								</split>
								<split pos="right">
									<output> 0.002790459 </output>
								</split>
							</split>
							<split pos="right">
								<output> 0.022997642 </output>
							</split>
						</split>
						<split pos="right">
							<output> -0.002162361 </output>
						</split>
					</split>
					<split pos="right">
						<output> -0.01910638 </output>
					</split>
				</split>
				<split pos="right">
					<output> 0.009102123 </output>
				</split>
			</split>
			<split pos="right">
				<output> 0.037570808 </output>
			</split>
		</split>
	</tree>
	<tree id="44" weight="0.1">
		<split>
			<feature> 2 </feature>
			<threshold> 6.098252 </threshold>
			<split pos="left">
				<feature> 3 </feature>
				<threshold> 5.7343073 </threshold>
				<split pos="left">
					<feature> 2 </feature>
					<threshold> 5.151973 </threshold>
					<split pos="left">
						<feature> 5 </feature>
						<threshold> 0.03907416 </threshold>
						<split pos="left">
							<feature> 3 </feature>
							<threshold> 3.2073221 </threshold>
							<split pos="left">
								<feature> 1 </feature>
								<threshold> 2.379312 </threshold>
								<split pos="left">
									<feature> 5 </feature>
									<threshold> 0.01922697 </threshold>
									<split pos="left">
										<feature> 3 </feature>
										<threshold> 1.84664 </threshold>
										<split pos="left">
											<feature> 3 </feature>
											<threshold> 1.0691074 </threshold>
											<split pos="left">
												<output> 2.2699824E-4 </output>
											</split>
											<split pos="right">
												<output> -0.0072848983 </output>
											</split>
										</split>
										<split pos="right">
											<output> -0.02795785 </output>
										</split>
									</split>
									<split pos="right">
										<output> 0.0014955165 </output>
									</split>
								</split>
								<split pos="right">
									<output> 0.15083243 </output>
								</split>
							</split>
							<split pos="right">
								<output> -0.026074901 </output>
							</split>
						</split>
						<split pos="right">
							<output> 0.01441003 </output>
						</split>
					</split>
					<split pos="right">
						<output> 0.122164756 </output>
					</split>
				</split>
				<split pos="right">
					<output> -0.29434332 </output>
				</split>
			</split>
			<split pos="right">
				<output> 0.1176937 </output>
			</split>
		</split>
	</tree>
	<tree id="45" weight="0.1">
		<split>
			<feature> 1 </feature>
			<threshold> 1.771828 </threshold>
			<split pos="left">
				<feature> 2 </feature>
				<threshold> 1.2617081 </threshold>
				<split pos="left">
					<feature> 5 </feature>
					<threshold> 0.03721349 </threshold>
					<split pos="left">
						<feature> 5 </feature>
						<threshold> 0.031011254 </threshold>
						<split pos="left">
							<feature> 3 </feature>
							<threshold> 1.166299 </threshold>
							<split pos="left">
								<feature> 1 </feature>
								<threshold> 0.7593549 </threshold>
								<split pos="left">
									<feature> 3 </feature>
									<threshold> 0.87472427 </threshold>
									<split pos="left">
										<feature> 5 </feature>
										<threshold> 0.0 </threshold>
										<split pos="left">
											<output> -8.2369294E-4 </output>
										</split>
										<split pos="right">
											<feature> 4 </feature>
											<threshold> 0.0 </threshold>
											<split pos="left">
												<output> -0.010003455 </output>
											</split>
											<split pos="right">
												<output> 4.2713378E-4 </output>
											</split>
										</split>
									</split>
									<split pos="right">
										<output> -0.0035498028 </output>
									</split>
								</split>
								<split pos="right">
									<output> 0.006641118 </output>
								</split>
							</split>
							<split pos="right">
								<output> -0.0077570486 </output>
							</split>
						</split>
						<split pos="right">
							<output> -0.0030735084 </output>
						</split>
					</split>
					<split pos="right">
						<output> -0.013593929 </output>
					</split>
				</split>
				<split pos="right">
					<output> 0.005971172 </output>
				</split>
			</split>
			<split pos="right">
				<output> 0.03257391 </output>
			</split>
		</split>
	</tree>
	<tree id="46" weight="0.1">
		<split>
			<feature> 5 </feature>
			<threshold> 0.047137067 </threshold>
			<split pos="left">
				<feature> 3 </feature>
				<threshold> 5.5399237 </threshold>
				<split pos="left">
					<feature> 5 </feature>
					<threshold> 0.033492148 </threshold>
					<split pos="left">
						<feature> 3 </feature>
						<threshold> 2.8185558 </threshold>
						<split pos="left">
							<feature> 3 </feature>
							<threshold> 1.5550653 </threshold>
							<split pos="left">
								<feature> 1 </feature>
								<threshold> 1.1137205 </threshold>
								<split pos="left">
									<feature> 3 </feature>
									<threshold> 1.3606821 </threshold>
									<split pos="left">
										<feature> 2 </feature>
										<threshold> 1.3668505 </threshold>
										<split pos="left">
											<feature> 3 </feature>
											<threshold> 1.2634906 </threshold>
											<split pos="left">
												<output> 1.248853E-4 </output>
											</split>
											<split pos="right">
												<output> -0.008309772 </output>
											</split>
										</split>
										<split pos="right">
											<output> 0.012760563 </output>
										</split>
									</split>
									<split pos="right">
										<output> -0.0055384333 </output>
									</split>
								</split>
								<split pos="right">
									<output> 0.016759824 </output>
								</split>
							</split>
							<split pos="right">
								<output> -0.0060391617 </output>
							</split>
						</split>
						<split pos="right">
							<output> -0.034560874 </output>
						</split>
					</split>
					<split pos="right">
						<output> 0.008100736 </output>
					</split>
				</split>
				<split pos="right">
					<output> -0.08116978 </output>
				</split>
			</split>
			<split pos="right">
				<output> 0.033865865 </output>
			</split>
		</split>
	</tree>
	<tree id="47" weight="0.1">
		<split>
			<feature> 2 </feature>
			<threshold> 3.049128 </threshold>
			<split pos="left">
				<feature> 2 </feature>
				<threshold> 1.4719929 </threshold>
				<split pos="left">
					<feature> 5 </feature>
					<threshold> 0.04589662 </threshold>
					<split pos="left">
						<feature> 5 </feature>
						<threshold> 0.034732595 </threshold>
						<split pos="left">
							<feature> 3 </feature>
							<threshold> 1.3606821 </threshold>
							<split pos="left">
								<feature> 2 </feature>
								<threshold> 1.3668505 </threshold>
								<split pos="left">
									<feature> 7 </feature>
									<threshold> 0.81413233 </threshold>
									<split pos="left">
										<output> -0.0014103238 </output>
									</split>
									<split pos="right">
										<feature> 6 </feature>
										<threshold> 0.8500038 </threshold>
										<split pos="left">
											<output> 0.0036649671 </output>
										</split>
										<split pos="right">
											<feature> 7 </feature>
											<threshold> 0.8445219 </threshold>
											<split pos="left">
												<output> -0.0020060716 </output>
											</split>
											<split pos="right">
												<output> 2.3407083E-4 </output>
											</split>
										</split>
									</split>
								</split>
								<split pos="right">
									<output> 0.009766727 </output>
								</split>
							</split>
							<split pos="right">
								<output> -0.009398081 </output>
							</split>
						</split>
						<split pos="right">
							<output> -0.005592924 </output>
						</split>
					</split>
					<split pos="right">
						<output> -0.022938684 </output>
					</split>
				</split>
				<split pos="right">
					<output> 0.0066077756 </output>
				</split>
			</split>
			<split pos="right">
				<output> 0.03290039 </output>
			</split>
		</split>
	</tree>
	<tree id="48" weight="0.1">
		<split>
			<feature> 5 </feature>
			<threshold> 0.050238185 </threshold>
			<split pos="left">
				<feature> 3 </feature>
				<threshold> 5.5399237 </threshold>
				<split pos="left">
					<feature> 5 </feature>
					<threshold> 0.03721349 </threshold>
					<split pos="left">
						<feature> 3 </feature>
						<threshold> 3.1101305 </threshold>
						<split pos="left">
							<feature> 1 </feature>
							<threshold> 2.07557 </threshold>
							<split pos="left">
								<feature> 3 </feature>
								<threshold> 2.526981 </threshold>
								<split pos="left">
									<feature> 1 </feature>
									<threshold> 1.7212044 </threshold>
									<split pos="left">
										<feature> 7 </feature>
										<threshold> 0.94654393 </threshold>
										<split pos="left">
											<feature> 5 </feature>
											<threshold> 0.022328097 </threshold>
											<split pos="left">
												<output> -1.2288685E-4 </output>
											</split>
											<split pos="right">
												<output> 0.0028055306 </output>
											</split>
										</split>
										<split pos="right">
											<output> -0.0017263 </output>
										</split>
									</split>
									<split pos="right">
										<output> 0.03574913 </output>
									</split>
								</split>
								<split pos="right">
									<output> -0.0137091335 </output>
								</split>
							</split>
							<split pos="right">
								<output> 0.039914582 </output>
							</split>
						</split>
						<split pos="right">
							<output> -0.029470628 </output>
						</split>
					</split>
					<split pos="right">
						<output> 0.011341254 </output>
					</split>
				</split>
				<split pos="right">
					<output> -0.0657749 </output>
				</split>
			</split>
			<split pos="right">
				<output> 0.03871403 </output>
			</split>
		</split>
	</tree>
	<tree id="49" weight="0.1">
		<split>
			<feature> 2 </feature>
			<threshold> 6.098252 </threshold>
			<split pos="left">
				<feature> 3 </feature>
				<threshold> 5.7343073 </threshold>
				<split pos="left">
					<feature> 2 </feature>
					<threshold> 3.049128 </threshold>
					<split pos="left">
						<feature> 5 </feature>
						<threshold> 0.07752802 </threshold>
						<split pos="left">
							<feature> 2 </feature>
							<threshold> 1.2617081 </threshold>
							<split pos="left">
								<feature> 5 </feature>
								<threshold> 0.03721349 </threshold>
								<split pos="left">
									<feature> 5 </feature>
									<threshold> 0.029770803 </threshold>
									<split pos="left">
										<feature> 3 </feature>
										<threshold> 1.166299 </threshold>
										<split pos="left">
											<feature> 7 </feature>
											<threshold> 0.8814235 </threshold>
											<split pos="left">
												<output> -3.5590373E-4 </output>
											</split>
											<split pos="right">
												<output> 4.9801974E-4 </output>
											</split>
										</split>
										<split pos="right">
											<output> -0.0071697976 </output>
										</split>
									</split>
									<split pos="right">
										<output> -0.0027592722 </output>
									</split>
								</split>
								<split pos="right">
									<output> -0.012947099 </output>
								</split>
							</split>
							<split pos="right">
								<output> 0.004961819 </output>
							</split>
						</split>
						<split pos="right">
							<output> -0.04116348 </output>
						</split>
					</split>
					<split pos="right">
						<output> 0.0322185 </output>
					</split>
				</split>
				<split pos="right">
					<output> -0.2600146 </output>
				</split>
			</split>
			<split pos="right">
				<output> 0.10960171 </output>
			</split>
		</split>
	</tree>
	<tree id="50" weight="0.1">
		<split>
			<feature> 3 </feature>
			<threshold> 9.038829 </threshold>
			<split pos="left">
				<feature> 5 </feature>
				<threshold> 0.037833713 </threshold>
				<split pos="left">
					<feature> 3 </feature>
					<threshold> 3.2073221 </threshold>
					<split pos="left">
						<feature> 1 </feature>
						<threshold> 2.379312 </threshold>
						<split pos="left">
							<feature> 3 </feature>
							<threshold> 2.526981 </threshold>
							<split pos="left">
								<feature> 1 </feature>
								<threshold> 1.7212044 </threshold>
								<split pos="left">
									<feature> 7 </feature>
									<threshold> 0.953056 </threshold>
									<split pos="left">
										<feature> 5 </feature>
										<threshold> 0.022328097 </threshold>
										<split pos="left">
											<feature> 3 </feature>
											<threshold> 1.4578737 </threshold>
											<split pos="left">
												<output> 9.47303E-5 </output>
											</split>
											<split pos="right">
												<output> -0.012227951 </output>
											</split>
										</split>
										<split pos="right">
											<output> 0.0021691532 </output>
										</split>
									</split>
									<split pos="right">
										<output> -0.0021371779 </output>
									</split>
								</split>
								<split pos="right">
									<output> 0.029227138 </output>
								</split>
							</split>
							<split pos="right">
								<output> -0.011047242 </output>
							</split>
						</split>
						<split pos="right">
							<output> 0.1303473 </output>
						</split>
					</split>
					<split pos="right">
						<output> -0.036579262 </output>
					</split>
				</split>
				<split pos="right">
					<output> 0.015864022 </output>
				</split>
			</split>
			<split pos="right">
				<output> 0.2842869 </output>
			</split>
		</split>
	</tree>
	<tree id="51" weight="0.1">
		<split>
			<feature> 2 </feature>
			<threshold> 3.3645551 </threshold>
			<split pos="left">
				<feature> 2 </feature>
				<threshold> 1.8925623 </threshold>
				<split pos="left">
					<feature> 5 </feature>
					<threshold> 0.04775729 </threshold>
					<split pos="left">
						<feature> 7 </feature>
						<threshold> 0.9617387 </threshold>
						<split pos="left">
							<feature> 1 </feature>
							<threshold> 1.3668388 </threshold>
							<split pos="left">
								<feature> 7 </feature>
								<threshold> 0.8271564 </threshold>
								<split pos="left">
									<output> -0.0014561244 </output>
								</split>
								<split pos="right">
									<feature> 6 </feature>
									<threshold> 0.8538843 </threshold>
									<split pos="left">
										<output> 0.005856869 </output>
									</split>
									<split pos="right">
										<feature> 1 </feature>
										<threshold> 0.35436562 </threshold>
										<split pos="left">
											<feature> 5 </feature>
											<threshold> 0.0322517 </threshold>
											<split pos="left">
												<output> 6.139435E-5 </output>
											</split>
											<split pos="right">
												<output> -0.0075962474 </output>
											</split>
										</split>
										<split pos="right">
											<output> 0.0022075034 </output>
										</split>
									</split>
								</split>
							</split>
							<split pos="right">
								<output> 0.033420492 </output>
							</split>
						</split>
						<split pos="right">
							<output> -0.0037624794 </output>
						</split>
					</split>
					<split pos="right">
						<output> -0.020534696 </output>
					</split>
				</split>
				<split pos="right">
					<output> 0.009311673 </output>
				</split>
			</split>
			<split pos="right">
				<output> 0.03593958 </output>
			</split>
		</split>
	</tree>
	<tree id="52" weight="0.1">
		<split>
			<feature> 5 </feature>
			<threshold> 0.046516843 </threshold>
			<split pos="left">
				<feature> 3 </feature>
				<threshold> 5.5399237 </threshold>
				<split pos="left">
					<feature> 5 </feature>
					<threshold> 0.030391028 </threshold>
					<split pos="left">
						<feature> 3 </feature>
						<threshold> 2.7213643 </threshold>
						<split pos="left">
							<feature> 3 </feature>
							<threshold> 1.5550653 </threshold>
							<split pos="left">
								<feature> 2 </feature>
								<threshold> 1.6822776 </threshold>
								<split pos="left">
									<feature> 3 </feature>
									<threshold> 0.87472427 </threshold>
									<split pos="left">
										<feature> 6 </feature>
										<threshold> 0.9586578 </threshold>
										<split pos="left">
											<feature> 7 </feature>
											<threshold> 0.94220257 </threshold>
											<split pos="left">
												<output> 1.6395553E-4 </output>
											</split>
											<split pos="right">
												<output> -0.0034706017 </output>
											</split>
										</split>
										<split pos="right">
											<output> 0.0016253588 </output>
										</split>
									</split>
									<split pos="right">
										<output> -0.0023111156 </output>
									</split>
								</split>
								<split pos="right">
									<output> 0.036858004 </output>
								</split>
							</split>
							<split pos="right">
								<output> -0.008363486 </output>
							</split>
						</split>
						<split pos="right">
							<output> -0.0420708 </output>
						</split>
					</split>
					<split pos="right">
						<output> 0.005665861 </output>
					</split>
				</split>
				<split pos="right">
					<output> -0.07655816 </output>
				</split>
			</split>
			<split pos="right">
				<output> 0.029056206 </output>
			</split>
		</split>
	</tree>
	<tree id="53" weight="0.1">
		<split>
			<feature> 2 </feature>
			<threshold> 2.8388433 </threshold>
			<split pos="left">
				<feature> 5 </feature>
				<threshold> 0.07752802 </threshold>
				<split pos="left">
					<feature> 2 </feature>
					<threshold> 1.4719929 </threshold>
					<split pos="left">
						<feature> 5 </feature>
						<threshold> 0.040314607 </threshold>
						<split pos="left">
							<feature> 5 </feature>
							<threshold> 0.0322517 </threshold>
							<split pos="left">
								<feature> 3 </feature>
								<threshold> 1.3606821 </threshold>
								<split pos="left">
									<feature> 4 </feature>
									<threshold> 0.0 </threshold>
									<split pos="left">
										<output> -0.00841624 </output>
									</split>
									<split pos="right">
										<feature> 1 </feature>
										<threshold> 1.1643442 </threshold>
										<split pos="left">
											<feature> 1 </feature>
											<threshold> 0.8606022 </threshold>
											<split pos="left">
												<output> 7.507436E-5 </output>
											</split>
											<split pos="right">
												<output> 0.0060782824 </output>
											</split>
										</split>
										<split pos="right">
											<output> -0.024199763 </output>
										</split>
									</split>
								</split>
								<split pos="right">
									<output> -0.010588816 </output>
								</split>
							</split>
							<split pos="right">
								<output> -0.0035081157 </output>
							</split>
						</split>
						<split pos="right">
							<output> -0.014761886 </output>
						</split>
					</split>
					<split pos="right">
						<output> 0.005293321 </output>
					</split>
				</split>
				<split pos="right">
					<output> -0.040038556 </output>
				</split>
			</split>
			<split pos="right">
				<output> 0.028271247 </output>
			</split>
		</split>
	</tree>
	<tree id="54" weight="0.1">
		<split>
			<feature> 5 </feature>
			<threshold> 0.040314607 </threshold>
			<split pos="left">
				<feature> 1 </feature>
				<threshold> 4.505508 </threshold>
				<split pos="left">
					<feature> 3 </feature>
					<threshold> 3.2073221 </threshold>
					<split pos="left">
						<feature> 1 </feature>
						<threshold> 2.0249465 </threshold>
						<split pos="left">
							<feature> 3 </feature>
							<threshold> 2.8185558 </threshold>
							<split pos="left">
								<feature> 2 </feature>
								<threshold> 2.8388433 </threshold>
								<split pos="left">
									<feature> 3 </feature>
									<threshold> 2.526981 </threshold>
									<split pos="left">
										<feature> 1 </feature>
										<threshold> 1.5693334 </threshold>
										<split pos="left">
											<feature> 7 </feature>
											<threshold> 0.9378612 </threshold>
											<split pos="left">
												<output> 1.9522275E-4 </output>
											</split>
											<split pos="right">
												<output> -0.0013421795 </output>
