## MART
## No. of trees = 1000
## No. of leaves = 10
## No. of threshold candidates = 256
## Learning rate = 0.1
## Stop early = 100

<ensemble>
	<tree id="1" weight="0.1">
		<split>
			<feature> 2 </feature>
			<threshold> 3.2045949 </threshold>
			<split pos="left">
				<feature> 1 </feature>
				<threshold> 0.7593549 </threshold>
				<split pos="left">
					<feature> 4 </feature>
					<threshold> 0.0037213496 </threshold>
					<split pos="left">
						<output> 0.010837302 </output>
					</split>
					<split pos="right">
						<feature> 1 </feature>
						<threshold> 0.0 </threshold>
						<split pos="left">
							<feature> 4 </feature>
							<threshold> 0.028530352 </threshold>
							<split pos="left">
								<feature> 4 </feature>
								<threshold> 0.014265169 </threshold>
								<split pos="left">
									<feature> 4 </feature>
									<threshold> 0.0055820243 </threshold>
									<split pos="left">
										<output> 0.018945642 </output>
									</split>
									<split pos="right">
										<feature> 3 </feature>
										<threshold> 0.0 </threshold>
										<split pos="left">
											<output> 0.007081735 </output>
										</split>
										<split pos="right">
											<output> 0.021702787 </output>
										</split>
									</split>
								</split>
								<split pos="right">
									<feature> 4 </feature>
									<threshold> 0.022328097 </threshold>
									<split pos="left">
										<output> 0.024025802 </output>
									</split>
									<split pos="right">
										<output> 0.027177747 </output>
									</split>
								</split>
							</split>
							<split pos="right">
								<output> 0.037589774 </output>
							</split>
						</split>
						<split pos="right">
							<output> 0.04612093 </output>
						</split>
					</split>
				</split>
				<split pos="right">
					<output> 0.094398096 </output>
				</split>
			</split>
			<split pos="right">
				<output> 0.4088915 </output>
			</split>
		</split>
	</tree>
	<tree id="2" weight="0.1">
		<split>
			<feature> 2 </feature>
			<threshold> 3.7571108 </threshold>
			<split pos="left">
				<feature> 1 </feature>
				<threshold> 0.9618495 </threshold>
				<split pos="left">
					<feature> 4 </feature>
					<threshold> 0.0031011247 </threshold>
					<split pos="left">
						<output> 0.008909421 </output>
					</split>
					<split pos="right">
						<feature> 1 </feature>
						<threshold> 0.30374196 </threshold>
						<split pos="left">
							<feature> 4 </feature>
							<threshold> 0.031011254 </threshold>
							<split pos="left">
								<feature> 4 </feature>
								<threshold> 0.013644945 </threshold>
								<split pos="left">
									<feature> 1 </feature>
									<threshold> 0.0 </threshold>
									<split pos="left">
										<output> 0.0182058 </output>
									</split>
									<split pos="right">
										<output> 0.028005876 </output>
									</split>
								</split>
								<split pos="right">
									<feature> 1 </feature>
									<threshold> 0.0 </threshold>
									<split pos="left">
										<feature> 4 </feature>
										<threshold> 0.024809 </threshold>
										<split pos="left">
											<output> 0.022045972 </output>
										</split>
										<split pos="right">
											<output> 0.025837928 </output>
										</split>
									</split>
									<split pos="right">
										<output> 0.035998628 </output>
									</split>
								</split>
							</split>
							<split pos="right">
								<output> 0.036545023 </output>
							</split>
						</split>
						<split pos="right">
							<output> 0.046092577 </output>
						</split>
					</split>
				</split>
				<split pos="right">
					<output> 0.11199375 </output>
				</split>
			</split>
			<split pos="right">
				<output> 0.46414372 </output>
			</split>
		</split>
	</tree>
	<tree id="3" weight="0.1">
		<split>
			<feature> 2 </feature>
			<threshold> 2.8730853 </threshold>
			<split pos="left">
				<feature> 1 </feature>
				<threshold> 0.6581076 </threshold>
				<split pos="left">
					<feature> 4 </feature>
					<threshold> 0.0024808997 </threshold>
					<split pos="left">
						<output> 0.007528976 </output>
					</split>
					<split pos="right">
						<feature> 1 </feature>
						<threshold> 0.0 </threshold>
						<split pos="left">
							<feature> 4 </feature>
							<threshold> 0.034732595 </threshold>
							<split pos="left">
								<feature> 4 </feature>
								<threshold> 0.022328097 </threshold>
								<split pos="left">
									<feature> 4 </feature>
									<threshold> 0.0055820243 </threshold>
									<split pos="left">
										<output> 0.014730476 </output>
									</split>
									<split pos="right">
										<feature> 4 </feature>
										<threshold> 0.012404496 </threshold>
										<split pos="left">
											<output> 0.01750013 </output>
										</split>
										<split pos="right">
											<feature> 4 </feature>
											<threshold> 0.016125843 </threshold>
											<split pos="left">
												<output> 0.0187226 </output>
											</split>
											<split pos="right">
												<output> 0.01953251 </output>
											</split>
										</split>
									</split>
								</split>
								<split pos="right">
									<output> 0.02318215 </output>
								</split>
							</split>
							<split pos="right">
								<output> 0.037577108 </output>
							</split>
						</split>
						<split pos="right">
							<output> 0.03374585 </output>
						</split>
					</split>
				</split>
				<split pos="right">
					<output> 0.06612405 </output>
				</split>
			</split>
			<split pos="right">
				<output> 0.2928833 </output>
			</split>
		</split>
	</tree>
	<tree id="4" weight="0.1">
		<split>
			<feature> 2 </feature>
			<threshold> 3.867614 </threshold>
			<split pos="left">
				<feature> 1 </feature>
				<threshold> 1.0124732 </threshold>
				<split pos="left">
					<feature> 4 </feature>
					<threshold> 0.0049617994 </threshold>
					<split pos="left">
						<output> 0.0087042125 </output>
					</split>
					<split pos="right">
						<feature> 2 </feature>
						<threshold> 0.44201317 </threshold>
						<split pos="left">
							<feature> 4 </feature>
							<threshold> 0.03535282 </threshold>
							<split pos="left">
								<feature> 1 </feature>
								<threshold> 0.0 </threshold>
								<split pos="left">
									<feature> 4 </feature>
									<threshold> 0.02604945 </threshold>
									<split pos="left">
										<feature> 4 </feature>
										<threshold> 0.012404496 </threshold>
										<split pos="left">
											<output> 0.015423561 </output>
										</split>
										<split pos="right">
											<feature> 4 </feature>
											<threshold> 0.021707872 </threshold>
											<split pos="left">
												<output> 0.017668832 </output>
											</split>
											<split pos="right">
												<output> 0.018817468 </output>
											</split>
										</split>
									</split>
									<split pos="right">
										<output> 0.022386553 </output>
									</split>
								</split>
								<split pos="right">
									<output> 0.026892863 </output>
								</split>
							</split>
							<split pos="right">
								<output> 0.035176322 </output>
							</split>
						</split>
						<split pos="right">
							<output> 0.042756204 </output>
						</split>
					</split>
				</split>
				<split pos="right">
					<output> 0.09734066 </output>
				</split>
			</split>
			<split pos="right">
				<output> 0.40577677 </output>
			</split>
		</split>
	</tree>
	<tree id="5" weight="0.1">
		<split>
			<feature> 1 </feature>
			<threshold> 2.9361722 </threshold>
			<split pos="left">
				<feature> 2 </feature>
				<threshold> 2.099563 </threshold>
				<split pos="left">
					<feature> 2 </feature>
					<threshold> 0.6630198 </threshold>
					<split pos="left">
						<feature> 4 </feature>
						<threshold> 0.0018606747 </threshold>
						<split pos="left">
							<output> 0.005137359 </output>
						</split>
						<split pos="right">
							<feature> 4 </feature>
							<threshold> 0.03535282 </threshold>
							<split pos="left">
								<feature> 2 </feature>
								<threshold> 0.0 </threshold>
								<split pos="left">
									<feature> 4 </feature>
									<threshold> 0.022328097 </threshold>
									<split pos="left">
										<feature> 4 </feature>
										<threshold> 0.0055820243 </threshold>
										<split pos="left">
											<output> 0.01203966 </output>
										</split>
										<split pos="right">
											<feature> 4 </feature>
											<threshold> 0.012404496 </threshold>
											<split pos="left">
												<output> 0.0138912685 </output>
											</split>
											<split pos="right">
												<output> 0.015806865 </output>
											</split>
										</split>
									</split>
									<split pos="right">
										<output> 0.018953675 </output>
									</split>
								</split>
								<split pos="right">
									<output> 0.023566572 </output>
								</split>
							</split>
							<split pos="right">
								<output> 0.032959796 </output>
							</split>
						</split>
					</split>
					<split pos="right">
						<output> 0.039467774 </output>
					</split>
				</split>
				<split pos="right">
					<output> 0.12654716 </output>
				</split>
			</split>
			<split pos="right">
				<output> 0.62590206 </output>
			</split>
		</split>
	</tree>
	<tree id="6" weight="0.1">
		<split>
			<feature> 2 </feature>
			<threshold> 4.309627 </threshold>
			<split pos="left">
				<feature> 1 </feature>
				<threshold> 1.0124732 </threshold>
				<split pos="left">
					<feature> 4 </feature>
					<threshold> 0.0055820243 </threshold>
					<split pos="left">
						<output> 0.007203007 </output>
					</split>
					<split pos="right">
						<feature> 2 </feature>
						<threshold> 0.44201317 </threshold>
						<split pos="left">
							<feature> 4 </feature>
							<threshold> 0.03535282 </threshold>
							<split pos="left">
								<feature> 1 </feature>
								<threshold> 0.0 </threshold>
								<split pos="left">
									<feature> 4 </feature>
									<threshold> 0.02604945 </threshold>
									<split pos="left">
										<feature> 4 </feature>
										<threshold> 0.016125843 </threshold>
										<split pos="left">
											<feature> 3 </feature>
											<threshold> 0.0 </threshold>
											<split pos="left">
												<output> 5.3585635E-4 </output>
											</split>
											<split pos="right">
												<output> 0.013378591 </output>
											</split>
										</split>
										<split pos="right">
											<output> 0.014696964 </output>
										</split>
									</split>
									<split pos="right">
										<output> 0.01843499 </output>
									</split>
								</split>
								<split pos="right">
									<output> 0.022047518 </output>
								</split>
							</split>
							<split pos="right">
								<output> 0.028358512 </output>
							</split>
						</split>
						<split pos="right">
							<output> 0.035431724 </output>
						</split>
					</split>
				</split>
				<split pos="right">
					<output> 0.08243488 </output>
				</split>
			</split>
			<split pos="right">
				<output> 0.39664802 </output>
			</split>
		</split>
	</tree>
	<tree id="7" weight="0.1">
		<split>
			<feature> 2 </feature>
			<threshold> 6.2986846 </threshold>
			<split pos="left">
				<feature> 2 </feature>
				<threshold> 2.4310725 </threshold>
				<split pos="left">
					<feature> 1 </feature>
					<threshold> 0.55686027 </threshold>
					<split pos="left">
						<feature> 4 </feature>
						<threshold> 0.0018606747 </threshold>
						<split pos="left">
							<output> 0.0038755524 </output>
						</split>
						<split pos="right">
							<feature> 4 </feature>
							<threshold> 0.0272899 </threshold>
							<split pos="left">
								<feature> 2 </feature>
								<threshold> 0.0 </threshold>
								<split pos="left">
									<feature> 4 </feature>
									<threshold> 0.012404496 </threshold>
									<split pos="left">
										<feature> 4 </feature>
										<threshold> 0.0037213496 </threshold>
										<split pos="left">
											<output> 0.009434643 </output>
										</split>
										<split pos="right">
											<output> 0.011463711 </output>
										</split>
									</split>
									<split pos="right">
										<feature> 4 </feature>
										<threshold> 0.021707872 </threshold>
										<split pos="left">
											<output> 0.012371265 </output>
										</split>
										<split pos="right">
											<output> 0.013804583 </output>
										</split>
									</split>
								</split>
								<split pos="right">
									<output> 0.018169496 </output>
								</split>
							</split>
							<split pos="right">
								<output> 0.021169733 </output>
							</split>
						</split>
					</split>
					<split pos="right">
						<output> 0.03620163 </output>
					</split>
				</split>
				<split pos="right">
					<output> 0.12845315 </output>
				</split>
			</split>
			<split pos="right">
				<output> 0.7542956 </output>
			</split>
		</split>
	</tree>
	<tree id="8" weight="0.1">
		<split>
			<feature> 1 </feature>
			<threshold> 2.9361722 </threshold>
			<split pos="left">
				<feature> 1 </feature>
				<threshold> 1.2655915 </threshold>
				<split pos="left">
					<feature> 1 </feature>
					<threshold> 0.55686027 </threshold>
					<split pos="left">
						<feature> 4 </feature>
						<threshold> 0.0018606747 </threshold>
						<split pos="left">
							<output> 0.0034888526 </output>
						</split>
						<split pos="right">
							<feature> 4 </feature>
							<threshold> 0.03535282 </threshold>
							<split pos="left">
								<feature> 2 </feature>
								<threshold> 0.0 </threshold>
								<split pos="left">
									<feature> 4 </feature>
									<threshold> 0.01798652 </threshold>
									<split pos="left">
										<feature> 4 </feature>
										<threshold> 0.0062022493 </threshold>
										<split pos="left">
											<output> 0.009142486 </output>
										</split>
										<split pos="right">
											<feature> 3 </feature>
											<threshold> 0.0 </threshold>
											<split pos="left">
												<output> -0.0018730405 </output>
											</split>
											<split pos="right">
												<output> 0.0106357755 </output>
											</split>
										</split>
									</split>
									<split pos="right">
										<output> 0.012853351 </output>
									</split>
								</split>
								<split pos="right">
									<output> 0.017259948 </output>
								</split>
							</split>
							<split pos="right">
								<output> 0.024994535 </output>
							</split>
						</split>
					</split>
					<split pos="right">
						<output> 0.030049585 </output>
					</split>
				</split>
				<split pos="right">
					<output> 0.09254405 </output>
				</split>
			</split>
			<split pos="right">
				<output> 0.48248106 </output>
			</split>
		</split>
	</tree>
	<tree id="9" weight="0.1">
		<split>
			<feature> 2 </feature>
			<threshold> 6.2986846 </threshold>
			<split pos="left">
				<feature> 2 </feature>
				<threshold> 2.8730853 </threshold>
				<split pos="left">
					<feature> 2 </feature>
					<threshold> 1.3260397 </threshold>
					<split pos="left">
						<feature> 4 </feature>
						<threshold> 0.0043415744 </threshold>
						<split pos="left">
							<output> 0.0044397158 </output>
						</split>
						<split pos="right">
							<feature> 1 </feature>
							<threshold> 0.0 </threshold>
							<split pos="left">
								<feature> 4 </feature>
								<threshold> 0.031011254 </threshold>
								<split pos="left">
									<feature> 4 </feature>
									<threshold> 0.016125843 </threshold>
									<split pos="left">
										<feature> 3 </feature>
										<threshold> 0.0 </threshold>
										<split pos="left">
											<output> -0.0016079034 </output>
										</split>
										<split pos="right">
											<feature> 4 </feature>
											<threshold> 0.008683149 </threshold>
											<split pos="left">
												<output> 0.00886313 </output>
											</split>
											<split pos="right">
												<output> 0.009373717 </output>
											</split>
										</split>
									</split>
									<split pos="right">
										<output> 0.011029717 </output>
									</split>
								</split>
								<split pos="right">
									<output> 0.017729187 </output>
								</split>
							</split>
							<split pos="right">
								<output> 0.020843595 </output>
							</split>
						</split>
					</split>
					<split pos="right">
						<output> 0.041569103 </output>
					</split>
				</split>
				<split pos="right">
					<output> 0.13765046 </output>
				</split>
			</split>
			<split pos="right">
				<output> 0.6318086 </output>
			</split>
		</split>
	</tree>
	<tree id="10" weight="0.1">
		<split>
			<feature> 2 </feature>
			<threshold> 3.6466076 </threshold>
			<split pos="left">
				<feature> 1 </feature>
				<threshold> 0.91122586 </threshold>
				<split pos="left">
					<feature> 4 </feature>
					<threshold> 0.0024808997 </threshold>
					<split pos="left">
						<output> 0.003151837 </output>
					</split>
					<split pos="right">
						<feature> 4 </feature>
						<threshold> 0.036593266 </threshold>
						<split pos="left">
							<feature> 1 </feature>
							<threshold> 0.35436562 </threshold>
							<split pos="left">
								<feature> 4 </feature>
								<threshold> 0.024809 </threshold>
								<split pos="left">
									<feature> 4 </feature>
									<threshold> 0.012404496 </threshold>
									<split pos="left">
										<feature> 3 </feature>
										<threshold> 0.0 </threshold>
										<split pos="left">
											<output> -0.0037811704 </output>
										</split>
										<split pos="right">
											<output> 0.008140927 </output>
										</split>
									</split>
									<split pos="right">
										<feature> 1 </feature>
										<threshold> 0.0 </threshold>
										<split pos="left">
											<output> 0.0092122955 </output>
										</split>
										<split pos="right">
											<output> 0.01488762 </output>
										</split>
									</split>
								</split>
								<split pos="right">
									<output> 0.011990758 </output>
								</split>
							</split>
							<split pos="right">
								<output> 0.016956938 </output>
							</split>
						</split>
						<split pos="right">
							<output> 0.028464569 </output>
						</split>
					</split>
				</split>
				<split pos="right">
					<output> 0.04550491 </output>
				</split>
			</split>
			<split pos="right">
				<output> 0.21860734 </output>
			</split>
		</split>
	</tree>
	<tree id="11" weight="0.1">
		<split>
			<feature> 2 </feature>
			<threshold> 6.2986846 </threshold>
			<split pos="left">
				<feature> 2 </feature>
				<threshold> 2.8730853 </threshold>
				<split pos="left">
					<feature> 1 </feature>
					<threshold> 0.6581076 </threshold>
					<split pos="left">
						<feature> 4 </feature>
						<threshold> 0.0012404498 </threshold>
						<split pos="left">
							<output> 0.0017868797 </output>
						</split>
						<split pos="right">
							<feature> 4 </feature>
							<threshold> 0.02604945 </threshold>
							<split pos="left">
								<feature> 1 </feature>
								<threshold> 0.0 </threshold>
								<split pos="left">
									<feature> 4 </feature>
									<threshold> 0.008683149 </threshold>
									<split pos="left">
										<output> 0.006884365 </output>
									</split>
									<split pos="right">
										<feature> 3 </feature>
										<threshold> 0.0 </threshold>
										<split pos="left">
											<output> -0.0020391126 </output>
										</split>
										<split pos="right">
											<feature> 4 </feature>
											<threshold> 0.014885394 </threshold>
											<split pos="left">
												<output> 0.007859928 </output>
											</split>
											<split pos="right">
												<output> 0.008525566 </output>
											</split>
										</split>
									</split>
								</split>
								<split pos="right">
									<output> 0.011151768 </output>
								</split>
							</split>
							<split pos="right">
								<output> 0.01434985 </output>
							</split>
						</split>
					</split>
					<split pos="right">
						<output> 0.028229428 </output>
					</split>
				</split>
				<split pos="right">
					<output> 0.111253425 </output>
				</split>
			</split>
			<split pos="right">
				<output> 0.5467255 </output>
			</split>
		</split>
	</tree>
	<tree id="12" weight="0.1">
		<split>
			<feature> 1 </feature>
			<threshold> 3.3917851 </threshold>
			<split pos="left">
				<feature> 2 </feature>
				<threshold> 2.099563 </threshold>
				<split pos="left">
					<feature> 4 </feature>
					<threshold> 0.030391028 </threshold>
					<split pos="left">
						<feature> 4 </feature>
						<threshold> 0.0062022493 </threshold>
						<split pos="left">
							<output> 0.0033652883 </output>
						</split>
						<split pos="right">
							<feature> 1 </feature>
							<threshold> 0.35436562 </threshold>
							<split pos="left">
								<feature> 1 </feature>
								<threshold> 0.0 </threshold>
								<split pos="left">
									<feature> 4 </feature>
									<threshold> 0.021707872 </threshold>
									<split pos="left">
										<feature> 3 </feature>
										<threshold> 0.0 </threshold>
										<split pos="left">
											<output> -0.0015340551 </output>
										</split>
										<split pos="right">
											<feature> 4 </feature>
											<threshold> 0.012404496 </threshold>
											<split pos="left">
												<output> 0.0068330206 </output>
											</split>
											<split pos="right">
												<output> 0.007409119 </output>
											</split>
										</split>
									</split>
									<split pos="right">
										<output> 0.008346539 </output>
									</split>
								</split>
								<split pos="right">
									<output> 0.01153745 </output>
								</split>
							</split>
							<split pos="right">
								<output> 0.017234338 </output>
							</split>
						</split>
					</split>
					<split pos="right">
						<output> 0.021896044 </output>
					</split>
				</split>
				<split pos="right">
					<output> 0.06725188 </output>
				</split>
			</split>
			<split pos="right">
				<output> 0.4751951 </output>
			</split>
		</split>
	</tree>
	<tree id="13" weight="0.1">
		<split>
			<feature> 2 </feature>
			<threshold> 6.630194 </threshold>
			<split pos="left">
				<feature> 2 </feature>
				<threshold> 2.8730853 </threshold>
				<split pos="left">
					<feature> 4 </feature>
					<threshold> 0.03721349 </threshold>
					<split pos="left">
						<feature> 4 </feature>
						<threshold> 0.011784271 </threshold>
						<split pos="left">
							<feature> 2 </feature>
							<threshold> 1.436543 </threshold>
							<split pos="left">
								<feature> 4 </feature>
								<threshold> 0.0 </threshold>
								<split pos="left">
									<output> -1.06732905E-5 </output>
								</split>
								<split pos="right">
									<feature> 2 </feature>
									<threshold> 0.9945297 </threshold>
									<split pos="left">
										<output> 0.0053013004 </output>
									</split>
									<split pos="right">
										<output> -0.00113179 </output>
									</split>
								</split>
							</split>
							<split pos="right">
								<output> -0.013064181 </output>
							</split>
						</split>
						<split pos="right">
							<feature> 1 </feature>
							<threshold> 0.6581076 </threshold>
							<split pos="left">
								<feature> 1 </feature>
								<threshold> 0.0 </threshold>
								<split pos="left">
									<output> 0.006839312 </output>
								</split>
								<split pos="right">
									<output> 0.014208284 </output>
								</split>
							</split>
							<split pos="right">
								<output> 0.034417126 </output>
							</split>
						</split>
					</split>
					<split pos="right">
						<output> 0.035700258 </output>
					</split>
				</split>
				<split pos="right">
					<output> 0.09420573 </output>
				</split>
			</split>
			<split pos="right">
				<output> 0.501527 </output>
			</split>
		</split>
	</tree>
	<tree id="14" weight="0.1">
		<split>
			<feature> 1 </feature>
			<threshold> 2.834925 </threshold>
			<split pos="left">
				<feature> 4 </feature>
				<threshold> 0.037833713 </threshold>
				<split pos="left">
					<feature> 4 </feature>
					<threshold> 0.021087646 </threshold>
					<split pos="left">
						<feature> 2 </feature>
						<threshold> 2.762582 </threshold>
						<split pos="left">
							<feature> 4 </feature>
							<threshold> 0.0012404498 </threshold>
							<split pos="left">
								<output> 0.001050756 </output>
							</split>
							<split pos="right">
								<feature> 1 </feature>
								<threshold> 1.7212044 </threshold>
								<split pos="left">
									<feature> 2 </feature>
									<threshold> 2.099563 </threshold>
									<split pos="left">
										<feature> 4 </feature>
										<threshold> 0.008683149 </threshold>
										<split pos="left">
											<output> 0.0045812675 </output>
										</split>
										<split pos="right">
											<feature> 1 </feature>
											<threshold> 1.0124732 </threshold>
											<split pos="left">
												<output> 0.006547126 </output>
											</split>
											<split pos="right">
												<output> 0.02286023 </output>
											</split>
										</split>
									</split>
									<split pos="right">
										<output> -0.012115587 </output>
									</split>
								</split>
								<split pos="right">
									<output> 0.05745029 </output>
								</split>
							</split>
						</split>
						<split pos="right">
							<output> -0.03009694 </output>
						</split>
					</split>
					<split pos="right">
						<output> 0.01313345 </output>
					</split>
				</split>
				<split pos="right">
					<output> 0.046652686 </output>
				</split>
			</split>
			<split pos="right">
				<output> 0.27222878 </output>
			</split>
		</split>
	</tree>
	<tree id="15" weight="0.1">
		<split>
			<feature> 2 </feature>
			<threshold> 6.630194 </threshold>
			<split pos="left">
				<feature> 1 </feature>
				<threshold> 1.6199571 </threshold>
				<split pos="left">
					<feature> 2 </feature>
					<threshold> 1.3260397 </threshold>
					<split pos="left">
						<feature> 4 </feature>
						<threshold> 0.0012404498 </threshold>
						<split pos="left">
							<output> 9.645226E-4 </output>
						</split>
						<split pos="right">
							<feature> 1 </feature>
							<threshold> 0.35436562 </threshold>
							<split pos="left">
								<feature> 3 </feature>
								<threshold> 0.0 </threshold>
								<split pos="left">
									<output> -0.008523711 </output>
								</split>
								<split pos="right">
									<feature> 4 </feature>
									<threshold> 0.13148755 </threshold>
									<split pos="left">
										<feature> 4 </feature>
										<threshold> 0.045276396 </threshold>
										<split pos="left">
											<feature> 1 </feature>
											<threshold> 0.0 </threshold>
											<split pos="left">
												<output> 0.005019204 </output>
											</split>
											<split pos="right">
												<output> 0.007341302 </output>
											</split>
										</split>
										<split pos="right">
											<output> 0.011293708 </output>
										</split>
									</split>
									<split pos="right">
										<output> 0.41930822 </output>
									</split>
								</split>
							</split>
							<split pos="right">
								<output> 0.010966105 </output>
							</split>
						</split>
					</split>
					<split pos="right">
						<output> 0.024240106 </output>
					</split>
				</split>
				<split pos="right">
					<output> 0.07692593 </output>
				</split>
			</split>
			<split pos="right">
				<output> 0.42426237 </output>
			</split>
		</split>
	</tree>
	<tree id="16" weight="0.1">
		<split>
			<feature> 2 </feature>
			<threshold> 4.309627 </threshold>
			<split pos="left">
				<feature> 4 </feature>
				<threshold> 0.040314607 </threshold>
				<split pos="left">
					<feature> 4 </feature>
					<threshold> 0.022328097 </threshold>
					<split pos="left">
						<feature> 2 </feature>
						<threshold> 2.5415757 </threshold>
						<split pos="left">
							<feature> 4 </feature>
							<threshold> 0.0 </threshold>
							<split pos="left">
								<output> -2.1983618E-4 </output>
							</split>
							<split pos="right">
								<feature> 4 </feature>
								<threshold> 0.008683149 </threshold>
								<split pos="left">
									<output> 0.0031834547 </output>
								</split>
								<split pos="right">
									<feature> 1 </feature>
									<threshold> 0.0 </threshold>
									<split pos="left">
										<feature> 3 </feature>
										<threshold> 0.0 </threshold>
										<split pos="left">
											<output> -3.4406988E-4 </output>
										</split>
										<split pos="right">
											<feature> 4 </feature>
											<threshold> 0.014885394 </threshold>
											<split pos="left">
												<output> 0.004448869 </output>
											</split>
											<split pos="right">
												<output> 0.0048343204 </output>
											</split>
										</split>
									</split>
									<split pos="right">
										<output> 0.00951148 </output>
									</split>
								</split>
							</split>
						</split>
						<split pos="right">
							<output> -0.023702078 </output>
						</split>
					</split>
					<split pos="right">
						<output> 0.011668501 </output>
					</split>
				</split>
				<split pos="right">
					<output> 0.045077648 </output>
				</split>
			</split>
			<split pos="right">
				<output> 0.17220442 </output>
			</split>
		</split>
	</tree>
	<tree id="17" weight="0.1">
		<split>
			<feature> 1 </feature>
			<threshold> 3.7967744 </threshold>
			<split pos="left">
				<feature> 1 </feature>
				<threshold> 1.3668388 </threshold>
				<split pos="left">
					<feature> 1 </feature>
					<threshold> 0.5062366 </threshold>
					<split pos="left">
						<feature> 4 </feature>
						<threshold> 0.0 </threshold>
						<split pos="left">
							<output> -1.8828342E-4 </output>
						</split>
						<split pos="right">
							<feature> 1 </feature>
							<threshold> 0.0 </threshold>
							<split pos="left">
								<feature> 4 </feature>
								<threshold> 0.07504713 </threshold>
								<split pos="left">
									<feature> 4 </feature>
									<threshold> 0.0024808997 </threshold>
									<split pos="left">
										<output> 0.0025824767 </output>
									</split>
									<split pos="right">
										<feature> 3 </feature>
										<threshold> 0.0 </threshold>
										<split pos="left">
											<output> -0.0071296417 </output>
										</split>
										<split pos="right">
											<feature> 4 </feature>
											<threshold> 0.07070556 </threshold>
											<split pos="left">
												<output> 0.004126383 </output>
											</split>
											<split pos="right">
												<output> 0.032925792 </output>
											</split>
										</split>
									</split>
								</split>
								<split pos="right">
									<output> -0.018790103 </output>
								</split>
							</split>
							<split pos="right">
								<output> 0.0062450133 </output>
							</split>
						</split>
					</split>
					<split pos="right">
						<output> 0.012962733 </output>
					</split>
				</split>
				<split pos="right">
					<output> 0.053451274 </output>
				</split>
			</split>
			<split pos="right">
				<output> 0.40753517 </output>
			</split>
		</split>
	</tree>
	<tree id="18" weight="0.1">
		<split>
			<feature> 2 </feature>
			<threshold> 7.9562325 </threshold>
			<split pos="left">
				<feature> 2 </feature>
				<threshold> 3.0940917 </threshold>
				<split pos="left">
					<feature> 4 </feature>
					<threshold> 0.031631477 </threshold>
					<split pos="left">
						<feature> 4 </feature>
						<threshold> 0.014265169 </threshold>
						<split pos="left">
							<feature> 2 </feature>
							<threshold> 1.6575496 </threshold>
							<split pos="left">
								<feature> 4 </feature>
								<threshold> 0.0 </threshold>
								<split pos="left">
									<output> -1.6973796E-4 </output>
								</split>
								<split pos="right">
									<feature> 2 </feature>
									<threshold> 0.9945297 </threshold>
									<split pos="left">
										<feature> 4 </feature>
										<threshold> 0.0031011247 </threshold>
										<split pos="left">
											<output> 0.0024506294 </output>
										</split>
										<split pos="right">
											<output> 0.0038123045 </output>
										</split>
									</split>
									<split pos="right">
										<output> -0.0044774152 </output>
									</split>
								</split>
							</split>
							<split pos="right">
								<output> -0.019367343 </output>
							</split>
						</split>
						<split pos="right">
							<feature> 1 </feature>
							<threshold> 0.7593549 </threshold>
							<split pos="left">
								<output> 0.004611139 </output>
							</split>
							<split pos="right">
								<output> 0.027426584 </output>
							</split>
						</split>
					</split>
					<split pos="right">
						<output> 0.01831029 </output>
					</split>
				</split>
				<split pos="right">
					<output> 0.07776828 </output>
				</split>
			</split>
			<split pos="right">
				<output> 0.49802265 </output>
			</split>
		</split>
	</tree>
	<tree id="19" weight="0.1">
		<split>
			<feature> 2 </feature>
			<threshold> 6.630194 </threshold>
			<split pos="left">
				<feature> 4 </feature>
				<threshold> 0.045276396 </threshold>
				<split pos="left">
					<feature> 4 </feature>
					<threshold> 0.02604945 </threshold>
					<split pos="left">
						<feature> 2 </feature>
						<threshold> 3.7571108 </threshold>
						<split pos="left">
							<feature> 2 </feature>
							<threshold> 2.6520789 </threshold>
							<split pos="left">
								<feature> 4 </feature>
								<threshold> 0.0068224743 </threshold>
								<split pos="left">
									<output> 0.0013452288 </output>
								</split>
								<split pos="right">
									<feature> 1 </feature>
									<threshold> 1.7212044 </threshold>
									<split pos="left">
										<feature> 1 </feature>
										<threshold> 0.0 </threshold>
										<split pos="left">
											<feature> 3 </feature>
											<threshold> 0.0 </threshold>
											<split pos="left">
												<output> -0.0028913238 </output>
											</split>
											<split pos="right">
												<output> 0.0033814413 </output>
											</split>
										</split>
										<split pos="right">
											<output> 0.0070172143 </output>
										</split>
									</split>
									<split pos="right">
										<output> 0.06278435 </output>
									</split>
								</split>
							</split>
							<split pos="right">
								<output> -0.016763313 </output>
							</split>
						</split>
						<split pos="right">
							<output> -0.062279165 </output>
						</split>
					</split>
					<split pos="right">
						<output> 0.013252739 </output>
					</split>
				</split>
				<split pos="right">
					<output> 0.060992874 </output>
				</split>
			</split>
			<split pos="right">
				<output> 0.3076022 </output>
			</split>
		</split>
	</tree>
	<tree id="20" weight="0.1">
		<split>
			<feature> 2 </feature>
			<threshold> 3.4256012 </threshold>
			<split pos="left">
				<feature> 1 </feature>
				<threshold> 1.0124732 </threshold>
				<split pos="left">
					<feature> 1 </feature>
					<threshold> 0.45561293 </threshold>
					<split pos="left">
						<feature> 4 </feature>
						<threshold> 0.0 </threshold>
						<split pos="left">
							<output> -2.872217E-4 </output>
						</split>
						<split pos="right">
							<feature> 4 </feature>
							<threshold> 0.036593266 </threshold>
							<split pos="left">
								<feature> 3 </feature>
								<threshold> 0.0 </threshold>
								<split pos="left">
									<output> -0.008077592 </output>
								</split>
								<split pos="right">
									<feature> 1 </feature>
									<threshold> 0.0 </threshold>
									<split pos="left">
										<feature> 4 </feature>
										<threshold> 0.0012404498 </threshold>
										<split pos="left">
											<output> 0.0016096297 </output>
										</split>
										<split pos="right">
											<feature> 4 </feature>
											<threshold> 0.022948323 </threshold>
											<split pos="left">
												<output> 0.003011097 </output>
											</split>
											<split pos="right">
												<output> 0.0019293586 </output>
											</split>
										</split>
									</split>
									<split pos="right">
										<output> 0.004209401 </output>
									</split>
								</split>
							</split>
							<split pos="right">
								<output> -0.0020918555 </output>
							</split>
						</split>
					</split>
					<split pos="right">
						<output> 0.007905177 </output>
					</split>
				</split>
				<split pos="right">
					<output> 0.024637 </output>
				</split>
			</split>
			<split pos="right">
				<output> 0.093800366 </output>
			</split>
		</split>
	</tree>
	<tree id="21" weight="0.1">
		<split>
			<feature> 2 </feature>
			<threshold> 7.9562325 </threshold>
			<split pos="left">
				<feature> 4 </feature>
				<threshold> 0.046516843 </threshold>
				<split pos="left">
					<feature> 4 </feature>
					<threshold> 0.029150577 </threshold>
					<split pos="left">
						<feature> 2 </feature>
						<threshold> 3.7571108 </threshold>
						<split pos="left">
							<feature> 4 </feature>
							<threshold> 0.014885394 </threshold>
							<split pos="left">
								<feature> 2 </feature>
								<threshold> 2.099563 </threshold>
								<split pos="left">
									<feature> 2 </feature>
									<threshold> 0.9945297 </threshold>
									<split pos="left">
										<feature> 4 </feature>
										<threshold> 0.0 </threshold>
										<split pos="left">
											<output> -2.5762702E-4 </output>
										</split>
										<split pos="right">
											<feature> 4 </feature>
											<threshold> 0.0031011247 </threshold>
											<split pos="left">
												<output> 0.0017872395 </output>
											</split>
											<split pos="right">
												<output> 0.002827111 </output>
											</split>
										</split>
									</split>
									<split pos="right">
										<output> -0.006863838 </output>
									</split>
								</split>
								<split pos="right">
									<output> -0.033642333 </output>
								</split>
							</split>
							<split pos="right">
								<output> 0.0043133404 </output>
							</split>
						</split>
						<split pos="right">
							<output> -0.052793063 </output>
						</split>
					</split>
					<split pos="right">
						<output> 0.014555584 </output>
					</split>
				</split>
				<split pos="right">
					<output> 0.062484764 </output>
				</split>
			</split>
			<split pos="right">
				<output> 0.40807152 </output>
			</split>
		</split>
	</tree>
	<tree id="22" weight="0.1">
		<split>
			<feature> 1 </feature>
			<threshold> 1.771828 </threshold>
			<split pos="left">
				<feature> 2 </feature>
				<threshold> 1.436543 </threshold>
				<split pos="left">
					<feature> 1 </feature>
					<threshold> 0.35436562 </threshold>
					<split pos="left">
						<feature> 4 </feature>
						<threshold> 0.03721349 </threshold>
						<split pos="left">
							<feature> 4 </feature>
							<threshold> 0.0 </threshold>
							<split pos="left">
								<output> -2.3656212E-4 </output>
							</split>
							<split pos="right">
								<feature> 4 </feature>
								<threshold> 0.029150577 </threshold>
								<split pos="left">
									<feature> 3 </feature>
									<threshold> 0.0 </threshold>
									<split pos="left">
										<output> -0.0061801393 </output>
									</split>
									<split pos="right">
										<feature> 4 </feature>
										<threshold> 0.0012404498 </threshold>
										<split pos="left">
											<output> 0.0013382909 </output>
										</split>
										<split pos="right">
											<feature> 2 </feature>
											<threshold> 0.55251646 </threshold>
											<split pos="left">
												<output> 0.0023886296 </output>
											</split>
											<split pos="right">
												<output> -0.016939033 </output>
											</split>
										</split>
									</split>
								</split>
								<split pos="right">
									<output> -1.775316E-4 </output>
								</split>
							</split>
						</split>
						<split pos="right">
							<output> -0.0056051835 </output>
						</split>
					</split>
					<split pos="right">
						<output> 0.005720195 </output>
					</split>
				</split>
				<split pos="right">
					<output> 0.018372018 </output>
				</split>
			</split>
			<split pos="right">
				<output> 0.07086059 </output>
			</split>
		</split>
	</tree>
	<tree id="23" weight="0.1">
		<split>
			<feature> 2 </feature>
			<threshold> 3.867614 </threshold>
			<split pos="left">
				<feature> 1 </feature>
				<threshold> 1.1137205 </threshold>
				<split pos="left">
					<feature> 1 </feature>
					<threshold> 0.45561293 </threshold>
					<split pos="left">
						<feature> 4 </feature>
						<threshold> 0.038453937 </threshold>
						<split pos="left">
							<feature> 4 </feature>
							<threshold> 0.0 </threshold>
							<split pos="left">
								<output> -2.0898439E-4 </output>
							</split>
							<split pos="right">
								<feature> 4 </feature>
								<threshold> 0.029770803 </threshold>
								<split pos="left">
									<feature> 3 </feature>
									<threshold> 0.0 </threshold>
									<split pos="left">
										<output> -0.005991196 </output>
									</split>
									<split pos="right">
										<feature> 1 </feature>
										<threshold> 0.0 </threshold>
										<split pos="left">
											<feature> 4 </feature>
											<threshold> 0.0018606747 </threshold>
											<split pos="left">
												<output> 0.0012804769 </output>
											</split>
											<split pos="right">
												<output> 0.002130784 </output>
											</split>
										</split>
										<split pos="right">
											<output> 0.003087446 </output>
										</split>
									</split>
								</split>
								<split pos="right">
									<output> -2.373902E-4 </output>
								</split>
							</split>
						</split>
						<split pos="right">
							<output> -0.005033058 </output>
						</split>
					</split>
					<split pos="right">
						<output> 0.0065158927 </output>
					</split>
				</split>
				<split pos="right">
					<output> 0.023908306 </output>
				</split>
			</split>
			<split pos="right">
				<output> 0.0946887 </output>
			</split>
		</split>
	</tree>
	<tree id="24" weight="0.1">
		<split>
			<feature> 4 </feature>
			<threshold> 0.047137067 </threshold>
			<split pos="left">
				<feature> 4 </feature>
				<threshold> 0.031631477 </threshold>
				<split pos="left">
					<feature> 2 </feature>
					<threshold> 3.7571108 </threshold>
					<split pos="left">
						<feature> 4 </feature>
						<threshold> 0.016125843 </threshold>
						<split pos="left">
							<feature> 2 </feature>
							<threshold> 1.6575496 </threshold>
							<split pos="left">
								<feature> 2 </feature>
								<threshold> 0.9945297 </threshold>
								<split pos="left">
									<feature> 4 </feature>
									<threshold> 0.0 </threshold>
									<split pos="left">
										<output> -1.8826214E-4 </output>
									</split>
									<split pos="right">
										<feature> 1 </feature>
										<threshold> 0.8606022 </threshold>
										<split pos="left">
											<feature> 2 </feature>
											<threshold> 0.55251646 </threshold>
											<split pos="left">
												<output> 0.0019106552 </output>
											</split>
											<split pos="right">
												<output> -1.1712247E-4 </output>
											</split>
										</split>
										<split pos="right">
											<output> 0.01605307 </output>
										</split>
									</split>
								</split>
								<split pos="right">
									<output> -0.0058711935 </output>
								</split>
							</split>
							<split pos="right">
								<output> -0.0239959 </output>
							</split>
						</split>
						<split pos="right">
							<output> 0.003624479 </output>
						</split>
					</split>
					<split pos="right">
						<output> -0.05169044 </output>
					</split>
				</split>
				<split pos="right">
					<output> 0.015807217 </output>
				</split>
			</split>
			<split pos="right">
				<output> 0.065236196 </output>
			</split>
		</split>
	</tree>
	<tree id="25" weight="0.1">
		<split>
			<feature> 1 </feature>
			<threshold> 3.3917851 </threshold>
			<split pos="left">
				<feature> 2 </feature>
				<threshold> 1.9890596 </threshold>
				<split pos="left">
					<feature> 1 </feature>
					<threshold> 0.55686027 </threshold>
					<split pos="left">
						<feature> 4 </feature>
						<threshold> 0.038453937 </threshold>
						<split pos="left">
							<feature> 4 </feature>
							<threshold> 0.0 </threshold>
							<split pos="left">
								<output> -1.6968968E-4 </output>
							</split>
							<split pos="right">
								<feature> 4 </feature>
								<threshold> 0.031631477 </threshold>
								<split pos="left">
									<feature> 2 </feature>
									<threshold> 0.9945297 </threshold>
									<split pos="left">
										<feature> 3 </feature>
										<threshold> 0.0 </threshold>
										<split pos="left">
											<output> -0.00651495 </output>
										</split>
										<split pos="right">
											<feature> 1 </feature>
											<threshold> 0.0 </threshold>
											<split pos="left">
												<output> 0.001506152 </output>
											</split>
											<split pos="right">
												<output> 0.0024507681 </output>
											</split>
										</split>
									</split>
									<split pos="right">
										<output> 0.016454307 </output>
									</split>
								</split>
								<split pos="right">
									<output> -0.0014945237 </output>
								</split>
							</split>
						</split>
						<split pos="right">
							<output> -0.006690507 </output>
						</split>
					</split>
					<split pos="right">
						<output> 0.0072129522 </output>
					</split>
				</split>
				<split pos="right">
					<output> 0.029899921 </output>
				</split>
			</split>
			<split pos="right">
				<output> 0.20947653 </output>
			</split>
		</split>
	</tree>
	<tree id="26" weight="0.1">
		<split>
			<feature> 4 </feature>
			<threshold> 0.040314607 </threshold>
			<split pos="left">
				<feature> 4 </feature>
				<threshold> 0.02604945 </threshold>
				<split pos="left">
					<feature> 2 </feature>
					<threshold> 3.4256012 </threshold>
					<split pos="left">
						<feature> 2 </feature>
						<threshold> 1.7680529 </threshold>
						<split pos="left">
							<feature> 1 </feature>
							<threshold> 1.2655915 </threshold>
							<split pos="left">
								<feature> 4 </feature>
								<threshold> 0.0062022493 </threshold>
								<split pos="left">
									<output> 3.9092233E-4 </output>
								</split>
								<split pos="right">
									<feature> 1 </feature>
									<threshold> 1.0124732 </threshold>
									<split pos="left">
										<feature> 1 </feature>
										<threshold> 0.0 </threshold>
										<split pos="left">
											<feature> 4 </feature>
											<threshold> 0.021087646 </threshold>
											<split pos="left">
												<output> 0.0015306253 </output>
											</split>
											<split pos="right">
												<output> 8.2459603E-4 </output>
											</split>
										</split>
										<split pos="right">
											<output> 0.0030791312 </output>
										</split>
									</split>
									<split pos="right">
										<output> 0.014330942 </output>
									</split>
								</split>
							</split>
							<split pos="right">
								<output> 0.03314604 </output>
							</split>
						</split>
						<split pos="right">
							<output> -0.011771221 </output>
						</split>
					</split>
					<split pos="right">
						<output> -0.07239345 </output>
					</split>
				</split>
				<split pos="right">
					<output> 0.007951649 </output>
				</split>
			</split>
			<split pos="right">
				<output> 0.039251015 </output>
			</split>
		</split>
	</tree>
	<tree id="27" weight="0.1">
		<split>
			<feature> 2 </feature>
			<threshold> 3.7571108 </threshold>
			<split pos="left">
				<feature> 1 </feature>
				<threshold> 1.1137205 </threshold>
				<split pos="left">
					<feature> 1 </feature>
					<threshold> 0.55686027 </threshold>
					<split pos="left">
						<feature> 4 </feature>
						<threshold> 0.038453937 </threshold>
						<split pos="left">
							<feature> 4 </feature>
							<threshold> 0.029770803 </threshold>
							<split pos="left">
								<feature> 4 </feature>
								<threshold> 6.202249E-4 </threshold>
								<split pos="left">
									<output> -6.309493E-5 </output>
								</split>
								<split pos="right">
									<feature> 3 </feature>
									<threshold> 0.0 </threshold>
									<split pos="left">
										<output> -0.005575285 </output>
									</split>
									<split pos="right">
										<feature> 2 </feature>
										<threshold> 0.9945297 </threshold>
										<split pos="left">
											<feature> 4 </feature>
											<threshold> 0.024188774 </threshold>
											<split pos="left">
												<output> 0.0014666464 </output>
											</split>
											<split pos="right">
												<output> 5.6718156E-4 </output>
											</split>
										</split>
										<split pos="right">
											<output> 0.013300746 </output>
										</split>
									</split>
								</split>
							</split>
							<split pos="right">
								<output> -0.0016558459 </output>
							</split>
						</split>
						<split pos="right">
							<output> -0.009235995 </output>
						</split>
					</split>
					<split pos="right">
						<output> 0.0055496097 </output>
					</split>
				</split>
				<split pos="right">
					<output> 0.0201468 </output>
				</split>
			</split>
			<split pos="right">
				<output> 0.08084542 </output>
			</split>
		</split>
	</tree>
	<tree id="28" weight="0.1">
		<split>
			<feature> 2 </feature>
			<threshold> 8.619252 </threshold>
			<split pos="left">
				<feature> 4 </feature>
				<threshold> 0.036593266 </threshold>
				<split pos="left">
					<feature> 4 </feature>
					<threshold> 0.021707872 </threshold>
					<split pos="left">
						<feature> 2 </feature>
						<threshold> 2.9835885 </threshold>
						<split pos="left">
							<feature> 2 </feature>
							<threshold> 1.2155364 </threshold>
							<split pos="left">
								<feature> 4 </feature>
								<threshold> 0.0031011247 </threshold>
								<split pos="left">
									<output> 2.5386544E-4 </output>
								</split>
								<split pos="right">
									<feature> 1 </feature>
									<threshold> 0.80997854 </threshold>
									<split pos="left">
										<feature> 2 </feature>
										<threshold> 0.9945297 </threshold>
										<split pos="left">
											<feature> 1 </feature>
											<threshold> 0.70873123 </threshold>
											<split pos="left">
												<output> 0.001409017 </output>
											</split>
											<split pos="right">
												<output> 0.011289797 </output>
											</split>
										</split>
										<split pos="right">
											<output> -0.0040702005 </output>
										</split>
									</split>
									<split pos="right">
										<output> 0.01093101 </output>
									</split>
								</split>
							</split>
							<split pos="right">
								<output> -0.0097315395 </output>
							</split>
						</split>
						<split pos="right">
							<output> -0.072792 </output>
						</split>
					</split>
					<split pos="right">
						<output> 0.0044960137 </output>
					</split>
				</split>
				<split pos="right">
					<output> 0.025699375 </output>
				</split>
			</split>
			<split pos="right">
				<output> 0.39372674 </output>
			</split>
		</split>
	</tree>
	<tree id="29" weight="0.1">
		<split>
			<feature> 2 </feature>
			<threshold> 2.9835885 </threshold>
			<split pos="left">
				<feature> 2 </feature>
				<threshold> 1.436543 </threshold>
				<split pos="left">
					<feature> 4 </feature>
					<threshold> 0.07752802 </threshold>
					<split pos="left">
						<feature> 1 </feature>
						<threshold> 0.35436562 </threshold>
						<split pos="left">
							<feature> 4 </feature>
							<threshold> 0.036593266 </threshold>
							<split pos="left">
								<feature> 4 </feature>
								<threshold> 0.02604945 </threshold>
								<split pos="left">
									<feature> 4 </feature>
									<threshold> 0.0 </threshold>
									<split pos="left">
										<output> -2.1470302E-4 </output>
									</split>
									<split pos="right">
										<feature> 2 </feature>
										<threshold> 0.3315099 </threshold>
										<split pos="left">
											<feature> 4 </feature>
											<threshold> 0.021087646 </threshold>
											<split pos="left">
												<output> 0.0011484614 </output>
											</split>
											<split pos="right">
												<output> 3.3262724E-4 </output>
											</split>
										</split>
										<split pos="right">
											<output> -7.1751483E-4 </output>
										</split>
									</split>
								</split>
								<split pos="right">
									<output> -0.0014848656 </output>
								</split>
							</split>
							<split pos="right">
								<output> -0.010063456 </output>
							</split>
						</split>
						<split pos="right">
							<output> 0.0030504817 </output>
						</split>
					</split>
					<split pos="right">
						<output> -0.03374255 </output>
					</split>
				</split>
				<split pos="right">
					<output> 0.012825708 </output>
				</split>
			</split>
			<split pos="right">
				<output> 0.05481371 </output>
			</split>
		</split>
	</tree>
	<tree id="30" weight="0.1">
		<split>
			<feature> 4 </feature>
			<threshold> 0.048377514 </threshold>
			<split pos="left">
				<feature> 4 </feature>
				<threshold> 0.031011254 </threshold>
				<split pos="left">
					<feature> 2 </feature>
					<threshold> 3.7571108 </threshold>
					<split pos="left">
						<feature> 2 </feature>
						<threshold> 2.5415757 </threshold>
						<split pos="left">
							<feature> 1 </feature>
							<threshold> 1.5693334 </threshold>
							<split pos="left">
								<feature> 2 </feature>
								<threshold> 1.7680529 </threshold>
								<split pos="left">
									<feature> 1 </feature>
									<threshold> 1.2655915 </threshold>
									<split pos="left">
										<feature> 4 </feature>
										<threshold> 0.009303373 </threshold>
										<split pos="left">
											<output> 2.6669534E-4 </output>
										</split>
										<split pos="right">
											<feature> 1 </feature>
											<threshold> 1.0124732 </threshold>
											<split pos="left">
												<output> 0.0011145283 </output>
											</split>
											<split pos="right">
												<output> 0.021844884 </output>
											</split>
										</split>
									</split>
									<split pos="right">
										<output> 0.034083743 </output>
									</split>
								</split>
								<split pos="right">
									<output> -0.0069404445 </output>
								</split>
							</split>
							<split pos="right">
								<output> 0.028928539 </output>
							</split>
						</split>
						<split pos="right">
							<output> -0.014572366 </output>
						</split>
					</split>
					<split pos="right">
						<output> -0.059342198 </output>
					</split>
				</split>
				<split pos="right">
					<output> 0.01127983 </output>
				</split>
			</split>
			<split pos="right">
				<output> 0.05660708 </output>
			</split>
		</split>
	</tree>
	<tree id="31" weight="0.1">
		<split>
			<feature> 2 </feature>
			<threshold> 3.0940917 </threshold>
			<split pos="left">
				<feature> 2 </feature>
				<threshold> 1.436543 </threshold>
				<split pos="left">
					<feature> 4 </feature>
					<threshold> 0.04589662 </threshold>
					<split pos="left">
						<feature> 4 </feature>
						<threshold> 0.0322517 </threshold>
						<split pos="left">
							<feature> 4 </feature>
							<threshold> 0.0037213496 </threshold>
							<split pos="left">
								<output> 1.1425439E-4 </output>
							</split>
							<split pos="right">
								<feature> 1 </feature>
								<threshold> 0.8606022 </threshold>
								<split pos="left">
									<feature> 2 </feature>
									<threshold> 1.2155364 </threshold>
									<split pos="left">
										<feature> 1 </feature>
										<threshold> 0.70873123 </threshold>
										<split pos="left">
											<feature> 1 </feature>
											<threshold> 0.0 </threshold>
											<split pos="left">
												<output> 7.5643E-4 </output>
											</split>
											<split pos="right">
												<output> 0.0018892249 </output>
											</split>
										</split>
										<split pos="right">
											<output> 0.0064236084 </output>
										</split>
									</split>
									<split pos="right">
										<output> -0.0033420175 </output>
									</split>
								</split>
								<split pos="right">
									<output> 0.009226977 </output>
								</split>
							</split>
						</split>
						<split pos="right">
							<output> -0.0021447823 </output>
						</split>
					</split>
					<split pos="right">
						<output> -0.012881088 </output>
					</split>
				</split>
				<split pos="right">
					<output> 0.011704608 </output>
				</split>
			</split>
			<split pos="right">
				<output> 0.053995915 </output>
			</split>
		</split>
	</tree>
	<tree id="32" weight="0.1">
		<split>
			<feature> 2 </feature>
			<threshold> 9.503278 </threshold>
			<split pos="left">
				<feature> 4 </feature>
				<threshold> 0.045276396 </threshold>
				<split pos="left">
					<feature> 4 </feature>
					<threshold> 0.029150577 </threshold>
					<split pos="left">
						<feature> 2 </feature>
						<threshold> 2.9835885 </threshold>
						<split pos="left">
							<feature> 2 </feature>
							<threshold> 1.7680529 </threshold>
							<split pos="left">
								<feature> 1 </feature>
								<threshold> 1.2655915 </threshold>
								<split pos="left">
									<feature> 2 </feature>
									<threshold> 0.8840264 </threshold>
									<split pos="left">
										<feature> 1 </feature>
										<threshold> 0.80997854 </threshold>
										<split pos="left">
											<feature> 4 </feature>
											<threshold> 0.0012404498 </threshold>
											<split pos="left">
												<output> -8.712484E-6 </output>
											</split>
											<split pos="right">
												<output> 8.6769235E-4 </output>
											</split>
										</split>
										<split pos="right">
											<output> 0.02227763 </output>
										</split>
									</split>
									<split pos="right">
										<output> -0.0024892862 </output>
									</split>
								</split>
								<split pos="right">
									<output> 0.026687097 </output>
								</split>
							</split>
							<split pos="right">
								<output> -0.0076423245 </output>
							</split>
						</split>
						<split pos="right">
							<output> -0.045674242 </output>
						</split>
					</split>
					<split pos="right">
						<output> 0.008042673 </output>
					</split>
				</split>
				<split pos="right">
					<output> 0.039344322 </output>
				</split>
			</split>
			<split pos="right">
				<output> 0.4392565 </output>
			</split>
		</split>
	</tree>
	<tree id="33" weight="0.1">
		<split>
			<feature> 2 </feature>
			<threshold> 2.9835885 </threshold>
			<split pos="left">
				<feature> 2 </feature>
				<threshold> 1.3260397 </threshold>
				<split pos="left">
					<feature> 4 </feature>
					<threshold> 0.04589662 </threshold>
					<split pos="left">
						<feature> 4 </feature>
						<threshold> 0.0322517 </threshold>
						<split pos="left">
							<feature> 3 </feature>
							<threshold> 0.0 </threshold>
							<split pos="left">
								<output> -0.006983948 </output>
							</split>
							<split pos="right">
								<feature> 4 </feature>
								<threshold> 0.0037213496 </threshold>
								<split pos="left">
									<output> 1.0854431E-4 </output>
								</split>
								<split pos="right">
									<feature> 1 </feature>
									<threshold> 0.80997854 </threshold>
									<split pos="left">
										<feature> 1 </feature>
										<threshold> 0.0 </threshold>
										<split pos="left">
											<feature> 4 </feature>
											<threshold> 0.022948323 </threshold>
											<split pos="left">
												<output> 8.454147E-4 </output>
											</split>
											<split pos="right">
												<output> -9.838742E-4 </output>
											</split>
										</split>
										<split pos="right">
											<output> 0.0016689477 </output>
										</split>
									</split>
									<split pos="right">
										<output> 0.008716221 </output>
									</split>
								</split>
							</split>
						</split>
						<split pos="right">
							<output> -0.0033713677 </output>
						</split>
					</split>
					<split pos="right">
						<output> -0.01708222 </output>
					</split>
				</split>
				<split pos="right">
					<output> 0.009725566 </output>
				</split>
			</split>
			<split pos="right">
				<output> 0.04841477 </output>
			</split>
		</split>
	</tree>
	<tree id="34" weight="0.1">
		<split>
			<feature> 1 </feature>
			<threshold> 2.8855486 </threshold>
			<split pos="left">
				<feature> 2 </feature>
				<threshold> 6.1881814 </threshold>
				<split pos="left">
					<feature> 2 </feature>
					<threshold> 5.304156 </threshold>
					<split pos="left">
						<feature> 2 </feature>
						<threshold> 1.9890596 </threshold>
						<split pos="left">
							<feature> 4 </feature>
							<threshold> 0.07752802 </threshold>
							<split pos="left">
								<feature> 1 </feature>
								<threshold> 0.45561293 </threshold>
								<split pos="left">
									<feature> 4 </feature>
									<threshold> 0.036593266 </threshold>
									<split pos="left">
										<feature> 4 </feature>
										<threshold> 0.029150577 </threshold>
										<split pos="left">
											<feature> 4 </feature>
											<threshold> 0.0 </threshold>
											<split pos="left">
												<output> -2.358957E-4 </output>
											</split>
											<split pos="right">
												<output> 7.0520985E-4 </output>
											</split>
										</split>
										<split pos="right">
											<output> -0.003289026 </output>
										</split>
									</split>
									<split pos="right">
										<output> -0.011054797 </output>
									</split>
								</split>
								<split pos="right">
									<output> 0.0031424472 </output>
								</split>
							</split>
							<split pos="right">
								<output> -0.03462931 </output>
							</split>
						</split>
						<split pos="right">
							<output> 0.02077737 </output>
						</split>
					</split>
					<split pos="right">
						<output> 0.27166936 </output>
					</split>
				</split>
				<split pos="right">
					<output> -0.3393324 </output>
				</split>
			</split>
			<split pos="right">
				<output> 0.11119851 </output>
			</split>
		</split>
	</tree>
	<tree id="35" weight="0.1">
		<split>
			<feature> 4 </feature>
			<threshold> 0.048377514 </threshold>
			<split pos="left">
				<feature> 4 </feature>
				<threshold> 0.034732595 </threshold>
				<split pos="left">
					<feature> 1 </feature>
					<threshold> 3.0880432 </threshold>
					<split pos="left">
						<feature> 2 </feature>
						<threshold> 2.9835885 </threshold>
						<split pos="left">
							<feature> 1 </feature>
							<threshold> 1.923699 </threshold>
							<split pos="left">
								<feature> 2 </feature>
								<threshold> 2.5415757 </threshold>
								<split pos="left">
									<feature> 1 </feature>
									<threshold> 1.5693334 </threshold>
									<split pos="left">
										<feature> 2 </feature>
										<threshold> 1.7680529 </threshold>
										<split pos="left">
											<feature> 1 </feature>
											<threshold> 1.2655915 </threshold>
											<split pos="left">
												<output> 2.9352054E-4 </output>
											</split>
											<split pos="right">
												<output> 0.027053904 </output>
											</split>
										</split>
										<split pos="right">
											<output> -0.006238341 </output>
										</split>
									</split>
									<split pos="right">
										<output> 0.028109426 </output>
									</split>
								</split>
								<split pos="right">
									<output> -0.01152116 </output>
								</split>
							</split>
							<split pos="right">
								<output> 0.038456358 </output>
							</split>
						</split>
						<split pos="right">
							<output> -0.021076411 </output>
						</split>
					</split>
					<split pos="right">
						<output> -0.1035775 </output>
					</split>
				</split>
				<split pos="right">
					<output> 0.013312262 </output>
				</split>
			</split>
			<split pos="right">
				<output> 0.04904264 </output>
			</split>
		</split>
	</tree>
	<tree id="36" weight="0.1">
		<split>
			<feature> 1 </feature>
			<threshold> 5.1129947 </threshold>
			<split pos="left">
				<feature> 2 </feature>
				<threshold> 2.8730853 </threshold>
				<split pos="left">
					<feature> 1 </feature>
					<threshold> 1.8730754 </threshold>
					<split pos="left">
						<feature> 2 </feature>
						<threshold> 1.3260397 </threshold>
						<split pos="left">
							<feature> 4 </feature>
							<threshold> 0.04589662 </threshold>
							<split pos="left">
								<feature> 4 </feature>
								<threshold> 0.0322517 </threshold>
								<split pos="left">
									<feature> 2 </feature>
									<threshold> 0.8840264 </threshold>
									<split pos="left">
										<feature> 1 </feature>
										<threshold> 0.70873123 </threshold>
										<split pos="left">
											<feature> 3 </feature>
											<threshold> 0.0 </threshold>
											<split pos="left">
												<output> -0.005810086 </output>
											</split>
											<split pos="right">
												<output> 3.9588247E-4 </output>
											</split>
										</split>
										<split pos="right">
											<output> 0.012626522 </output>
										</split>
									</split>
									<split pos="right">
										<output> -0.0016851063 </output>
									</split>
								</split>
								<split pos="right">
									<output> -0.0033245175 </output>
								</split>
							</split>
							<split pos="right">
								<output> -0.0181025 </output>
							</split>
						</split>
						<split pos="right">
							<output> 0.006744307 </output>
						</split>
					</split>
					<split pos="right">
						<output> 0.072493054 </output>
					</split>
				</split>
				<split pos="right">
					<output> 0.036040407 </output>
				</split>
			</split>
			<split pos="right">
				<output> 0.39760095 </output>
			</split>
		</split>
	</tree>
	<tree id="37" weight="0.1">
		<split>
			<feature> 4 </feature>
			<threshold> 0.050238185 </threshold>
			<split pos="left">
				<feature> 4 </feature>
				<threshold> 0.035973042 </threshold>
				<split pos="left">
					<feature> 2 </feature>
					<threshold> 6.2986846 </threshold>
					<split pos="left">
						<feature> 2 </feature>
						<threshold> 2.9835885 </threshold>
						<split pos="left">
							<feature> 4 </feature>
							<threshold> 0.016125843 </threshold>
							<split pos="left">
								<feature> 2 </feature>
								<threshold> 1.436543 </threshold>
								<split pos="left">
									<feature> 2 </feature>
									<threshold> 0.8840264 </threshold>
									<split pos="left">
										<feature> 2 </feature>
										<threshold> 0.55251646 </threshold>
										<split pos="left">
											<feature> 4 </feature>
											<threshold> 0.0012404498 </threshold>
											<split pos="left">
												<output> -9.8301105E-5 </output>
											</split>
											<split pos="right">
												<output> 6.8625127E-4 </output>
											</split>
										</split>
										<split pos="right">
											<output> -0.0017197614 </output>
										</split>
									</split>
									<split pos="right">
										<output> -0.00612201 </output>
									</split>
								</split>
								<split pos="right">
									<output> -0.01999989 </output>
								</split>
							</split>
							<split pos="right">
								<output> 0.0015147601 </output>
							</split>
						</split>
						<split pos="right">
							<output> -0.02128067 </output>
						</split>
					</split>
					<split pos="right">
						<output> -0.12253362 </output>
					</split>
				</split>
				<split pos="right">
					<output> 0.013963718 </output>
				</split>
			</split>
			<split pos="right">
				<output> 0.050540578 </output>
			</split>
		</split>
	</tree>
	<tree id="38" weight="0.1">
		<split>
			<feature> 1 </feature>
			<threshold> 3.1892905 </threshold>
			<split pos="left">
				<feature> 2 </feature>
				<threshold> 6.1881814 </threshold>
				<split pos="left">
					<feature> 2 </feature>
					<threshold> 5.304156 </threshold>
					<split pos="left">
						<feature> 2 </feature>
						<threshold> 1.9890596 </threshold>
						<split pos="left">
							<feature> 4 </feature>
							<threshold> 0.07752802 </threshold>
							<split pos="left">
								<feature> 1 </feature>
								<threshold> 0.6581076 </threshold>
								<split pos="left">
									<feature> 4 </feature>
									<threshold> 0.03721349 </threshold>
									<split pos="left">
										<feature> 4 </feature>
										<threshold> 0.029770803 </threshold>
										<split pos="left">
											<feature> 2 </feature>
											<threshold> 1.3260397 </threshold>
											<split pos="left">
												<output> 2.8113494E-4 </output>
											</split>
											<split pos="right">
												<output> 0.022562042 </output>
											</split>
										</split>
										<split pos="right">
											<output> -0.0027437087 </output>
										</split>
									</split>
									<split pos="right">
										<output> -0.011377597 </output>
									</split>
								</split>
								<split pos="right">
									<output> 0.003988132 </output>
								</split>
							</split>
							<split pos="right">
								<output> -0.03937231 </output>
							</split>
						</split>
						<split pos="right">
							<output> 0.01804412 </output>
						</split>
					</split>
					<split pos="right">
						<output> 0.22873178 </output>
					</split>
				</split>
				<split pos="right">
					<output> -0.24007894 </output>
				</split>
			</split>
			<split pos="right">
				<output> 0.1271777 </output>
			</split>
		</split>
	</tree>
	<tree id="39" weight="0.1">
		<split>
			<feature> 1 </feature>
			<threshold> 3.847398 </threshold>
			<split pos="left">
				<feature> 4 </feature>
				<threshold> 0.03721349 </threshold>
				<split pos="left">
					<feature> 2 </feature>
					<threshold> 2.9835885 </threshold>
					<split pos="left">
						<feature> 4 </feature>
						<threshold> 0.021087646 </threshold>
						<split pos="left">
							<feature> 2 </feature>
							<threshold> 1.2155364 </threshold>
							<split pos="left">
								<feature> 2 </feature>
								<threshold> 0.8840264 </threshold>
								<split pos="left">
									<feature> 1 </feature>
									<threshold> 0.8606022 </threshold>
									<split pos="left">
										<feature> 4 </feature>
										<threshold> 0.0 </threshold>
										<split pos="left">
											<output> -3.0105963E-4 </output>
										</split>
										<split pos="right">
											<feature> 2 </feature>
											<threshold> 0.55251646 </threshold>
											<split pos="left">
												<output> 5.8287085E-4 </output>
											</split>
											<split pos="right">
												<output> -8.930168E-4 </output>
											</split>
										</split>
									</split>
									<split pos="right">
										<output> 0.02297331 </output>
									</split>
								</split>
								<split pos="right">
									<output> -0.0033838684 </output>
								</split>
							</split>
							<split pos="right">
								<output> -0.012717035 </output>
							</split>
						</split>
						<split pos="right">
							<output> 0.0018277484 </output>
						</split>
					</split>
					<split pos="right">
						<output> -0.02021688 </output>
					</split>
				</split>
				<split pos="right">
					<output> 0.017609745 </output>
				</split>
			</split>
			<split pos="right">
				<output> 0.17715071 </output>
			</split>
		</split>
	</tree>
	<tree id="40" weight="0.1">
		<split>
			<feature> 2 </feature>
			<threshold> 2.9835885 </threshold>
			<split pos="left">
				<feature> 2 </feature>
				<threshold> 1.3260397 </threshold>
				<split pos="left">
					<feature> 4 </feature>
					<threshold> 0.04589662 </threshold>
					<split pos="left">
						<feature> 4 </feature>
						<threshold> 0.0322517 </threshold>
						<split pos="left">
							<feature> 3 </feature>
							<threshold> 0.0 </threshold>
							<split pos="left">
								<output> -0.005897137 </output>
							</split>
							<split pos="right">
								<feature> 1 </feature>
								<threshold> 0.8606022 </threshold>
								<split pos="left">
									<feature> 2 </feature>
									<threshold> 0.9945297 </threshold>
									<split pos="left">
										<feature> 1 </feature>
										<threshold> 0.80997854 </threshold>
										<split pos="left">
											<feature> 4 </feature>
											<threshold> 0.024188774 </threshold>
											<split pos="left">
												<output> 2.849424E-4 </output>
											</split>
											<split pos="right">
												<output> -6.109896E-4 </output>
											</split>
										</split>
										<split pos="right">
											<output> 0.01802631 </output>
										</split>
									</split>
									<split pos="right">
										<output> -0.0020167257 </output>
									</split>
								</split>
								<split pos="right">
									<output> 0.0036242113 </output>
								</split>
							</split>
						</split>
						<split pos="right">
							<output> -0.004021978 </output>
						</split>
					</split>
					<split pos="right">
						<output> -0.020242564 </output>
					</split>
				</split>
				<split pos="right">
					<output> 0.0076335147 </output>
				</split>
			</split>
			<split pos="right">
				<output> 0.037177704 </output>
			</split>
		</split>
	</tree>
	<tree id="41" weight="0.1">
		<split>
			<feature> 4 </feature>
			<threshold> 0.045276396 </threshold>
			<split pos="left">
				<feature> 2 </feature>
				<threshold> 6.1881814 </threshold>
				<split pos="left">
					<feature> 4 </feature>
					<threshold> 0.032871924 </threshold>
					<split pos="left">
						<feature> 2 </feature>
						<threshold> 2.9835885 </threshold>
						<split pos="left">
							<feature> 2 </feature>
							<threshold> 1.7680529 </threshold>
							<split pos="left">
								<feature> 1 </feature>
								<threshold> 1.2655915 </threshold>
								<split pos="left">
									<feature> 2 </feature>
									<threshold> 1.2155364 </threshold>
									<split pos="left">
										<feature> 1 </feature>
										<threshold> 0.80997854 </threshold>
										<split pos="left">
											<feature> 4 </feature>
											<threshold> 0.029770803 </threshold>
											<split pos="left">
												<output> 1.9534165E-4 </output>
											</split>
											<split pos="right">
												<output> -0.0018059951 </output>
											</split>
										</split>
										<split pos="right">
											<output> 0.004679976 </output>
										</split>
									</split>
									<split pos="right">
										<output> -0.0024393664 </output>
									</split>
								</split>
								<split pos="right">
									<output> 0.02126058 </output>
								</split>
							</split>
							<split pos="right">
								<output> -0.0063482095 </output>
							</split>
						</split>
						<split pos="right">
							<output> -0.033593643 </output>
						</split>
					</split>
					<split pos="right">
						<output> 0.008693959 </output>
					</split>
				</split>
				<split pos="right">
					<output> -0.0825206 </output>
				</split>
			</split>
			<split pos="right">
				<output> 0.034368966 </output>
			</split>
		</split>
	</tree>
	<tree id="42" weight="0.1">
		<split>
			<feature> 1 </feature>
			<threshold> 5.1129947 </threshold>
			<split pos="left">
				<feature> 1 </feature>
				<threshold> 1.6199571 </threshold>
				<split pos="left">
					<feature> 2 </feature>
					<threshold> 1.105033 </threshold>
					<split pos="left">
						<feature> 4 </feature>
						<threshold> 0.04775729 </threshold>
						<split pos="left">
							<feature> 4 </feature>
							<threshold> 0.03411237 </threshold>
							<split pos="left">
								<feature> 1 </feature>
								<threshold> 0.80997854 </threshold>
								<split pos="left">
									<feature> 4 </feature>
									<threshold> 0.029770803 </threshold>
									<split pos="left">
										<feature> 2 </feature>
										<threshold> 0.8840264 </threshold>
										<split pos="left">
											<feature> 4 </feature>
											<threshold> 0.0 </threshold>
											<split pos="left">
												<output> -3.0897846E-4 </output>
											</split>
											<split pos="right">
												<output> 3.3530738E-4 </output>
											</split>
										</split>
										<split pos="right">
											<output> -0.0027407105 </output>
										</split>
									</split>
									<split pos="right">
										<output> -0.0019508224 </output>
									</split>
								</split>
								<split pos="right">
									<output> 0.009465676 </output>
								</split>
							</split>
							<split pos="right">
								<output> -0.006819087 </output>
							</split>
						</split>
						<split pos="right">
							<output> -0.02757574 </output>
						</split>
					</split>
					<split pos="right">
						<output> 0.005680173 </output>
					</split>
				</split>
				<split pos="right">
					<output> 0.028560186 </output>
				</split>
			</split>
			<split pos="right">
				<output> 0.3297699 </output>
			</split>
		</split>
	</tree>
	<tree id="43" weight="0.1">
		<split>
			<feature> 4 </feature>
			<threshold> 0.050238185 </threshold>
			<split pos="left">
				<feature> 4 </feature>
				<threshold> 0.031631477 </threshold>
				<split pos="left">
					<feature> 2 </feature>
					<threshold> 2.9835885 </threshold>
					<split pos="left">
						<feature> 2 </feature>
						<threshold> 1.7680529 </threshold>
						<split pos="left">
							<feature> 1 </feature>
							<threshold> 1.2655915 </threshold>
							<split pos="left">
								<feature> 2 </feature>
								<threshold> 1.2155364 </threshold>
								<split pos="left">
									<feature> 3 </feature>
									<threshold> 0.0 </threshold>
									<split pos="left">
										<output> -0.0048749465 </output>
									</split>
									<split pos="right">
										<feature> 4 </feature>
										<threshold> 0.0024808997 </threshold>
										<split pos="left">
											<output> -1.3610967E-4 </output>
										</split>
										<split pos="right">
											<feature> 1 </feature>
											<threshold> 0.80997854 </threshold>
											<split pos="left">
												<output> 3.041858E-4 </output>
											</split>
											<split pos="right">
												<output> 0.007224048 </output>
											</split>
										</split>
									</split>
								</split>
								<split pos="right">
									<output> -0.003360851 </output>
								</split>
							</split>
							<split pos="right">
								<output> 0.018894717 </output>
							</split>
						</split>
						<split pos="right">
							<output> -0.007703803 </output>
						</split>
					</split>
					<split pos="right">
						<output> -0.044799898 </output>
					</split>
				</split>
				<split pos="right">
					<output> 0.008340004 </output>
				</split>
			</split>
			<split pos="right">
				<output> 0.044042822 </output>
			</split>
		</split>
	</tree>
	<tree id="44" weight="0.1">
		<split>
			<feature> 2 </feature>
			<threshold> 2.9835885 </threshold>
			<split pos="left">
				<feature> 2 </feature>
				<threshold> 1.436543 </threshold>
				<split pos="left">
					<feature> 4 </feature>
					<threshold> 0.04589662 </threshold>
					<split pos="left">
						<feature> 4 </feature>
						<threshold> 0.0322517 </threshold>
						<split pos="left">
							<feature> 1 </feature>
							<threshold> 1.2655915 </threshold>
							<split pos="left">
								<feature> 3 </feature>
								<threshold> 0.0 </threshold>
								<split pos="left">
									<output> -0.0050873426 </output>
								</split>
								<split pos="right">
									<feature> 2 </feature>
									<threshold> 0.9945297 </threshold>
									<split pos="left">
										<feature> 1 </feature>
										<threshold> 0.80997854 </threshold>
										<split pos="left">
											<feature> 4 </feature>
											<threshold> 0.022948323 </threshold>
											<split pos="left">
												<output> 2.4299194E-4 </output>
											</split>
											<split pos="right">
												<output> -4.93393E-4 </output>
											</split>
										</split>
										<split pos="right">
											<output> 0.011462282 </output>
										</split>
									</split>
									<split pos="right">
										<output> -0.0013898658 </output>
									</split>
								</split>
							</split>
							<split pos="right">
								<output> -0.03713833 </output>
							</split>
						</split>
						<split pos="right">
							<output> -0.004205129 </output>
						</split>
					</split>
					<split pos="right">
						<output> -0.020928776 </output>
					</split>
				</split>
				<split pos="right">
					<output> 0.007293242 </output>
				</split>
			</split>
			<split pos="right">
				<output> 0.03600272 </output>
			</split>
		</split>
	</tree>
	<tree id="45" weight="0.1">
		<split>
			<feature> 4 </feature>
			<threshold> 0.047137067 </threshold>
			<split pos="left">
				<feature> 2 </feature>
				<threshold> 6.1881814 </threshold>
				<split pos="left">
					<feature> 4 </feature>
					<threshold> 0.029150577 </threshold>
					<split pos="left">
						<feature> 2 </feature>
						<threshold> 2.9835885 </threshold>
						<split pos="left">
							<feature> 2 </feature>
							<threshold> 1.6575496 </threshold>
							<split pos="left">
								<feature> 2 </feature>
								<threshold> 0.9945297 </threshold>
								<split pos="left">
									<feature> 1 </feature>
									<threshold> 0.70873123 </threshold>
									<split pos="left">
										<feature> 4 </feature>
										<threshold> 0.0 </threshold>
										<split pos="left">
											<output> -2.8857568E-4 </output>
										</split>
										<split pos="right">
											<feature> 2 </feature>
											<threshold> 0.8840264 </threshold>
											<split pos="left">
												<output> 2.791873E-4 </output>
											</split>
											<split pos="right">
												<output> -0.0021743372 </output>
											</split>
										</split>
									</split>
									<split pos="right">
										<output> 0.005778475 </output>
									</split>
								</split>
								<split pos="right">
									<output> -0.0024899729 </output>
								</split>
							</split>
							<split pos="right">
								<output> -0.00933086 </output>
							</split>
						</split>
						<split pos="right">
							<output> -0.04531515 </output>
						</split>
					</split>
					<split pos="right">
						<output> 0.0061312704 </output>
					</split>
				</split>
				<split pos="right">
					<output> -0.079861596 </output>
				</split>
			</split>
			<split pos="right">
				<output> 0.034751087 </output>
			</split>
		</split>
	</tree>
	<tree id="46" weight="0.1">
		<split>
			<feature> 2 </feature>
			<threshold> 2.9835885 </threshold>
			<split pos="left">
				<feature> 1 </feature>
				<threshold> 1.0124732 </threshold>
				<split pos="left">
					<feature> 4 </feature>
					<threshold> 0.04589662 </threshold>
					<split pos="left">
						<feature> 2 </feature>
						<threshold> 2.210066 </threshold>
						<split pos="left">
							<feature> 4 </feature>
							<threshold> 0.0322517 </threshold>
							<split pos="left">
								<feature> 2 </feature>
								<threshold> 1.2155364 </threshold>
								<split pos="left">
									<feature> 1 </feature>
									<threshold> 0.8606022 </threshold>
									<split pos="left">
										<feature> 4 </feature>
										<threshold> 0.029770803 </threshold>
										<split pos="left">
											<feature> 2 </feature>
											<threshold> 0.8840264 </threshold>
											<split pos="left">
												<output> 1.641954E-4 </output>
											</split>
											<split pos="right">
												<output> -0.0011818763 </output>
											</split>
										</split>
										<split pos="right">
											<output> -0.0016717158 </output>
										</split>
									</split>
									<split pos="right">
										<output> 0.0070060873 </output>
									</split>
								</split>
								<split pos="right">
									<output> -0.0037790744 </output>
								</split>
							</split>
							<split pos="right">
								<output> -0.0029703178 </output>
							</split>
						</split>
						<split pos="right">
							<output> 0.10521415 </output>
						</split>
					</split>
					<split pos="right">
						<output> -0.018693916 </output>
					</split>
				</split>
				<split pos="right">
					<output> 0.008336442 </output>
				</split>
			</split>
			<split pos="right">
				<output> 0.035652332 </output>
			</split>
		</split>
	</tree>
	<tree id="47" weight="0.1">
		<split>
			<feature> 1 </feature>
			<threshold> 3.1892905 </threshold>
			<split pos="left">
				<feature> 2 </feature>
				<threshold> 6.1881814 </threshold>
				<split pos="left">
					<feature> 2 </feature>
					<threshold> 5.304156 </threshold>
					<split pos="left">
						<feature> 2 </feature>
						<threshold> 1.9890596 </threshold>
						<split pos="left">
							<feature> 4 </feature>
							<threshold> 0.048997737 </threshold>
							<split pos="left">
								<feature> 1 </feature>
								<threshold> 1.3668388 </threshold>
								<split pos="left">
									<feature> 1 </feature>
									<threshold> 0.35436562 </threshold>
									<split pos="left">
										<feature> 4 </feature>
										<threshold> 0.0322517 </threshold>
										<split pos="left">
											<feature> 4 </feature>
											<threshold> 0.02604945 </threshold>
											<split pos="left">
												<output> 1.6796231E-4 </output>
											</split>
											<split pos="right">
												<output> -0.0016768337 </output>
											</split>
										</split>
										<split pos="right">
											<output> -0.008278607 </output>
										</split>
									</split>
									<split pos="right">
										<output> 0.0014692367 </output>
									</split>
								</split>
								<split pos="right">
									<output> 0.023426272 </output>
								</split>
							</split>
							<split pos="right">
								<output> -0.01658595 </output>
							</split>
						</split>
						<split pos="right">
							<output> 0.014435504 </output>
						</split>
					</split>
					<split pos="right">
						<output> 0.19836122 </output>
					</split>
				</split>
				<split pos="right">
					<output> -0.22099285 </output>
				</split>
			</split>
			<split pos="right">
				<output> 0.09997806 </output>
			</split>
		</split>
	</tree>
	<tree id="48" weight="0.1">
		<split>
			<feature> 4 </feature>
			<threshold> 0.0427955 </threshold>
			<split pos="left">
				<feature> 2 </feature>
				<threshold> 6.1881814 </threshold>
				<split pos="left">
					<feature> 4 </feature>
					<threshold> 0.02604945 </threshold>
					<split pos="left">
						<feature> 2 </feature>
						<threshold> 2.9835885 </threshold>
						<split pos="left">
							<feature> 2 </feature>
							<threshold> 1.7680529 </threshold>
							<split pos="left">
								<feature> 2 </feature>
								<threshold> 0.9945297 </threshold>
								<split pos="left">
									<feature> 1 </feature>
									<threshold> 0.80997854 </threshold>
									<split pos="left">
										<feature> 2 </feature>
										<threshold> 0.55251646 </threshold>
										<split pos="left">
											<feature> 1 </feature>
											<threshold> 0.45561293 </threshold>
											<split pos="left">
												<output> 1.7407692E-4 </output>
											</split>
											<split pos="right">
												<output> 0.0036855002 </output>
											</split>
										</split>
										<split pos="right">
											<output> -8.5456425E-4 </output>
										</split>
									</split>
									<split pos="right">
										<output> 0.009339227 </output>
									</split>
								</split>
								<split pos="right">
									<output> -0.0037888754 </output>
								</split>
							</split>
							<split pos="right">
								<output> -0.014531865 </output>
							</split>
						</split>
						<split pos="right">
							<output> -0.056349423 </output>
						</split>
					</split>
					<split pos="right">
						<output> 0.0041384283 </output>
					</split>
				</split>
				<split pos="right">
					<output> -0.0756296 </output>
				</split>
			</split>
			<split pos="right">
				<output> 0.026097398 </output>
			</split>
		</split>
	</tree>
	<tree id="49" weight="0.1">
		<split>
			<feature> 2 </feature>
			<threshold> 2.9835885 </threshold>
			<split pos="left">
				<feature> 2 </feature>
				<threshold> 1.105033 </threshold>
				<split pos="left">
					<feature> 4 </feature>
					<threshold> 0.04775729 </threshold>
					<split pos="left">
						<feature> 4 </feature>
						<threshold> 0.036593266 </threshold>
						<split pos="left">
							<feature> 4 </feature>
							<threshold> 0.029770803 </threshold>
							<split pos="left">
								<feature> 1 </feature>
								<threshold> 1.1137205 </threshold>
								<split pos="left">
									<feature> 2 </feature>
									<threshold> 0.9945297 </threshold>
									<split pos="left">
										<feature> 1 </feature>
										<threshold> 0.70873123 </threshold>
										<split pos="left">
											<feature> 4 </feature>
											<threshold> 0.022948323 </threshold>
											<split pos="left">
												<output> 1.8301937E-4 </output>
											</split>
											<split pos="right">
												<output> -5.66124E-4 </output>
											</split>
										</split>
										<split pos="right">
											<output> 0.0048538595 </output>
										</split>
									</split>
									<split pos="right">
										<output> -0.002910483 </output>
									</split>
								</split>
								<split pos="right">
									<output> 0.041664444 </output>
								</split>
							</split>
							<split pos="right">
								<output> -0.0026770295 </output>
							</split>
						</split>
						<split pos="right">
							<output> -0.008529753 </output>
						</split>
					</split>
					<split pos="right">
						<output> -0.028921958 </output>
					</split>
				</split>
				<split pos="right">
					<output> 0.0053740847 </output>
				</split>
			</split>
			<split pos="right">
				<output> 0.033161163 </output>
			</split>
		</split>
	</tree>
	<tree id="50" weight="0.1">
		<split>
			<feature> 4 </feature>
			<threshold> 0.048377514 </threshold>
			<split pos="left">
				<feature> 2 </feature>
				<threshold> 6.1881814 </threshold>
				<split pos="left">
					<feature> 4 </feature>
					<threshold> 0.036593266 </threshold>
					<split pos="left">
						<feature> 2 </feature>
						<threshold> 2.762582 </threshold>
						<split pos="left">
							<feature> 1 </feature>
							<threshold> 1.7212044 </threshold>
							<split pos="left">
								<feature> 2 </feature>
								<threshold> 2.5415757 </threshold>
								<split pos="left">
									<feature> 4 </feature>
									<threshold> 0.012404496 </threshold>
									<split pos="left">
										<feature> 1 </feature>
										<threshold> 0.7593549 </threshold>
										<split pos="left">
											<output> 6.134542E-5 </output>
										</split>
										<split pos="right">
											<output> -0.016323231 </output>
										</split>
									</split>
									<split pos="right">
										<feature> 1 </feature>
										<threshold> 0.5062366 </threshold>
										<split pos="left">
											<output> -3.933886E-4 </output>
										</split>
										<split pos="right">
											<output> 0.008948198 </output>
										</split>
									</split>
								</split>
								<split pos="right">
									<output> -0.016582677 </output>
								</split>
							</split>
							<split pos="right">
								<output> 0.029306447 </output>
							</split>
						</split>
						<split pos="right">
							<output> -0.020162871 </output>
						</split>
					</split>
					<split pos="right">
						<output> 0.011139976 </output>
					</split>
				</split>
				<split pos="right">
					<output> -0.07120035 </output>
				</split>
			</split>
			<split pos="right">
				<output> 0.035501968 </output>
			</split>
		</split>
	</tree>
	<tree id="51" weight="0.1">
		<split>
			<feature> 2 </feature>
			<threshold> 6.2986846 </threshold>
			<split pos="left">
				<feature> 2 </feature>
				<threshold> 6.1881814 </threshold>
				<split pos="left">
					<feature> 2 </feature>
					<threshold> 5.304156 </threshold>
					<split pos="left">
						<feature> 2 </feature>
						<threshold> 2.099563 </threshold>
						<split pos="left">
							<feature> 4 </feature>
							<threshold> 0.048377514 </threshold>
							<split pos="left">
								<feature> 1 </feature>
								<threshold> 1.2149678 </threshold>
								<split pos="left">
									<feature> 4 </feature>
									<threshold> 0.03721349 </threshold>
									<split pos="left">
										<feature> 2 </feature>
										<threshold> 1.6575496 </threshold>
										<split pos="left">
											<feature> 3 </feature>
											<threshold> 0.0 </threshold>
											<split pos="left">
												<output> -0.00561012 </output>
											</split>
											<split pos="right">
												<output> -2.30682E-5 </output>
											</split>
										</split>
										<split pos="right">
											<output> -0.004118258 </output>
										</split>
									</split>
									<split pos="right">
										<output> -0.0036977348 </output>
									</split>
								</split>
								<split pos="right">
									<output> 0.009740052 </output>
								</split>
							</split>
							<split pos="right">
								<output> -0.016604038 </output>
							</split>
						</split>
						<split pos="right">
							<output> 0.014500699 </output>
						</split>
					</split>
					<split pos="right">
						<output> 0.13365379 </output>
					</split>
				</split>
				<split pos="right">
					<output> -0.22362523 </output>
				</split>
			</split>
			<split pos="right">
				<output> 0.11814197 </output>
			</split>
		</split>
	</tree>
	<tree id="52" weight="0.1">
		<split>
			<feature> 2 </feature>
			<threshold> 9.613781 </threshold>
			<split pos="left">
				<feature> 4 </feature>
				<threshold> 0.050238185 </threshold>
				<split pos="left">
					<feature> 2 </feature>
					<threshold> 6.1881814 </threshold>
					<split pos="left">
						<feature> 4 </feature>
						<threshold> 0.036593266 </threshold>
						<split pos="left">
							<feature> 2 </feature>
							<threshold> 3.0940917 </threshold>
							<split pos="left">
								<feature> 2 </feature>
								<threshold> 2.099563 </threshold>
								<split pos="left">
									<feature> 1 </feature>
									<threshold> 1.3668388 </threshold>
									<split pos="left">
										<feature> 4 </feature>
										<threshold> 0.009303373 </threshold>
										<split pos="left">
											<output> -3.772626E-4 </output>
										</split>
										<split pos="right">
											<feature> 1 </feature>
											<threshold> 0.5062366 </threshold>
											<split pos="left">
												<output> -2.314639E-4 </output>
											</split>
											<split pos="right">
												<output> 0.005992588 </output>
											</split>
										</split>
									</split>
									<split pos="right">
										<output> 0.011890126 </output>
									</split>
								</split>
								<split pos="right">
									<output> -0.006661755 </output>
								</split>
							</split>
							<split pos="right">
								<output> -0.0246765 </output>
							</split>
						</split>
						<split pos="right">
							<output> 0.01040893 </output>
						</split>
					</split>
					<split pos="right">
						<output> -0.078536354 </output>
					</split>
				</split>
				<split pos="right">
					<output> 0.033817906 </output>
				</split>
			</split>
			<split pos="right">
				<output> 0.2787383 </output>
			</split>
		</split>
	</tree>
	<tree id="53" weight="0.1">
		<split>
			<feature> 2 </feature>
			<threshold> 2.9835885 </threshold>
			<split pos="left">
				<feature> 4 </feature>
				<threshold> 0.07752802 </threshold>
				<split pos="left">
					<feature> 2 </feature>
					<threshold> 1.105033 </threshold>
					<split pos="left">
						<feature> 4 </feature>
						<threshold> 0.03721349 </threshold>
						<split pos="left">
							<feature> 4 </feature>
							<threshold> 0.031631477 </threshold>
							<split pos="left">
								<feature> 1 </feature>
								<threshold> 1.1137205 </threshold>
								<split pos="left">
									<feature> 2 </feature>
									<threshold> 0.9945297 </threshold>
									<split pos="left">
										<feature> 1 </feature>
										<threshold> 0.80997854 </threshold>
										<split pos="left">
											<feature> 4 </feature>
											<threshold> 0.024188774 </threshold>
											<split pos="left">
												<output> 1.6155971E-4 </output>
											</split>
											<split pos="right">
												<output> -7.0464413E-4 </output>
											</split>
										</split>
										<split pos="right">
											<output> 0.008665454 </output>
										</split>
									</split>
									<split pos="right">
										<output> -0.0031544447 </output>
									</split>
								</split>
								<split pos="right">
									<output> 0.035415262 </output>
								</split>
							</split>
							<split pos="right">
								<output> -0.0033114813 </output>
							</split>
						</split>
						<split pos="right">
							<output> -0.013852597 </output>
						</split>
					</split>
					<split pos="right">
						<output> 0.004270519 </output>
					</split>
				</split>
				<split pos="right">
					<output> -0.038426556 </output>
				</split>
			</split>
			<split pos="right">
				<output> 0.031004013 </output>
			</split>
		</split>
	</tree>
	<tree id="54" weight="0.1">
		<split>
			<feature> 4 </feature>
			<threshold> 0.03907416 </threshold>
			<split pos="left">
				<feature> 1 </feature>
				<threshold> 4.556132 </threshold>
				<split pos="left">
					<feature> 1 </feature>
					<threshold> 2.7843013 </threshold>
					<split pos="left">
						<feature> 2 </feature>
						<threshold> 6.077678 </threshold>
						<split pos="left">
							<feature> 4 </feature>
							<threshold> 0.022328097 </threshold>
							<split pos="left">
								<feature> 2 </feature>
								<threshold> 2.3205693 </threshold>
								<split pos="left">
									<feature> 2 </feature>
									<threshold> 1.2155364 </threshold>
									<split pos="left">
										<feature> 2 </feature>
										<threshold> 0.8840264 </threshold>
										<split pos="left">
											<feature> 1 </feature>
											<threshold> 0.8606022 </threshold>
											<split pos="left">
